<?xml version="1.0"?>
<MethodSetup Method="BDT::BDT">
  <GeneralInfo>
    <Info name="TMVA Release" value="4.0.7 [262151]"/>
    <Info name="ROOT Release" value="5.27/06 [334598]"/>
    <Info name="Creator" value="ivo"/>
    <Info name="Date" value="Fri Apr 27 14:15:33 2012"/>
    <Info name="Host" value="Linux lxbuild051.cern.ch 2.6.18-238.1.1.el5 #1 SMP Wed Jan 19 11:06:36 CET 2011 x86_64 x86_64 x86_64 GNU/Linux"/>
    <Info name="Dir" value="/grid_mnt/vol__vol1__u/llr/cms/ivo/PFAntiElecMVA/CMSSW_4_2_8_patch7/src/IvoNaranjo/ElectronsStudies/test/Macros/tmva"/>
    <Info name="Training events" value="46928"/>
    <Info name="TrainingTime" value="54.6204"/>
    <Info name="AnalysisType" value="Classification"/>
  </GeneralInfo>
  <Options>
    <Option name="V" modified="Yes">False</Option>
    <Option name="VerbosityLevel" modified="No">Default</Option>
    <Option name="VarTransform" modified="No">None</Option>
    <Option name="H" modified="Yes">False</Option>
    <Option name="CreateMVAPdfs" modified="No">False</Option>
    <Option name="IgnoreNegWeightsInTraining" modified="No">False</Option>
    <Option name="NTrees" modified="Yes">400</Option>
    <Option name="BoostType" modified="Yes">AdaBoost</Option>
    <Option name="AdaBoostR2Loss" modified="No">quadratic</Option>
    <Option name="UseBaggedGrad" modified="No">False</Option>
    <Option name="GradBaggingFraction" modified="No">6.000000e-01</Option>
    <Option name="Shrinkage" modified="No">1.000000e+00</Option>
    <Option name="AdaBoostBeta" modified="No">1.000000e+00</Option>
    <Option name="UseRandomisedTrees" modified="No">False</Option>
    <Option name="UseNvars" modified="No">2</Option>
    <Option name="UseNTrainEvents" modified="No">46928</Option>
    <Option name="UseWeightedTrees" modified="No">True</Option>
    <Option name="UseYesNoLeaf" modified="No">True</Option>
    <Option name="NodePurityLimit" modified="No">5.000000e-01</Option>
    <Option name="SeparationType" modified="Yes">giniindex</Option>
    <Option name="nEventsMin" modified="No">40</Option>
    <Option name="nCuts" modified="Yes">20</Option>
    <Option name="PruneStrength" modified="No">-1.000000e+00</Option>
    <Option name="PruneMethod" modified="Yes">nopruning</Option>
    <Option name="PruneBeforeBoost" modified="No">False</Option>
    <Option name="PruningValFraction" modified="No">5.000000e-01</Option>
    <Option name="NNodesMax" modified="No">100000</Option>
    <Option name="MaxDepth" modified="No">3</Option>
  </Options>
  <Variables NVar="18">
    <Variable VarIndex="0" Expression="Elec_EtotOverPin" Label="Elec_EtotOverPin" Title="EtotOverPin" Unit="     " Internal="Elec_EtotOverPin" Type="F" Min="0.000410168" Max="87.9778"/>
    <Variable VarIndex="1" Expression="Elec_EeOverPout" Label="Elec_EeOverPout" Title="EeOverPout" Unit="     " Internal="Elec_EeOverPout" Type="F" Min="0.000737187" Max="1454.16"/>
    <Variable VarIndex="2" Expression="Elec_LateBrem" Label="Elec_LateBrem" Title="LateBrem" Unit="     " Internal="Elec_LateBrem" Type="I" Min="-1" Max="1"/>
    <Variable VarIndex="3" Expression="Elec_Chi2GSF" Label="Elec_Chi2GSF" Title="Elec_Chi2GSF" Unit="     " Internal="Elec_Chi2GSF" Type="F" Min="0.0781419" Max="1714.05"/>
    <Variable VarIndex="4" Expression="Elec_NumHits" Label="Elec_NumHits" Title="NumHits" Unit="     " Internal="Elec_NumHits" Type="I" Min="-99" Max="24"/>
    <Variable VarIndex="5" Expression="Elec_GSFTrackResol" Label="Elec_GSFTrackResol" Title="Elec_GSFTrackResol" Unit="     " Internal="Elec_GSFTrackResol" Type="F" Min="0.0241716" Max="682.328"/>
    <Variable VarIndex="6" Expression="Elec_GSFTracklnPt" Label="Elec_GSFTracklnPt" Title="Elec_GSFTracklnPt" Unit="     " Internal="Elec_GSFTracklnPt" Type="F" Min="-2.88012" Max="25.7315"/>
    <Variable VarIndex="7" Expression="Elec_GSFTrackEta" Label="Elec_GSFTrackEta" Title="Elec_GSFTrackEta" Unit="     " Internal="Elec_GSFTrackEta" Type="F" Min="-1.47886" Max="1.54156"/>
    <Variable VarIndex="8" Expression="Tau_Eta" Label="Tau_Eta" Title="PFTauEta" Unit="     " Internal="Tau_Eta" Type="F" Min="-1.47894" Max="1.47864"/>
    <Variable VarIndex="9" Expression="Tau_Pt" Label="Tau_Pt" Title="TauPt" Unit="     " Internal="Tau_Pt" Type="F" Min="15.0005" Max="422.357"/>
    <Variable VarIndex="10" Expression="Tau_EmFraction" Label="Tau_EmFraction" Title="TauEmFraction" Unit="     " Internal="Tau_EmFraction" Type="F" Min="0" Max="1"/>
    <Variable VarIndex="11" Expression="Tau_NumGammaCands" Label="Tau_NumGammaCands" Title="TauNumGammaCands" Unit="     " Internal="Tau_NumGammaCands" Type="I" Min="1" Max="10"/>
    <Variable VarIndex="12" Expression="Tau_HadrHoP" Label="Tau_HadrHoP" Title="TauHadrHoP" Unit="     " Internal="Tau_HadrHoP" Type="F" Min="0" Max="15.1606"/>
    <Variable VarIndex="13" Expression="Tau_HadrEoP" Label="Tau_HadrEoP" Title="TauHadrEoP" Unit="     " Internal="Tau_HadrEoP" Type="F" Min="0" Max="5.45962"/>
    <Variable VarIndex="14" Expression="Tau_VisMass" Label="Tau_VisMass" Title="TauVisMass" Unit="     " Internal="Tau_VisMass" Type="F" Min="-0.0275534" Max="5.9368"/>
    <Variable VarIndex="15" Expression="Tau_GammaEtaMom" Label="Tau_GammaEtaMom" Title="Tau_GammaEtaMom" Unit="     " Internal="Tau_GammaEtaMom" Type="F" Min="5.16515e-06" Max="4.89711"/>
    <Variable VarIndex="16" Expression="Tau_GammaPhiMom" Label="Tau_GammaPhiMom" Title="Tau_GammaPhiMom" Unit="     " Internal="Tau_GammaPhiMom" Type="F" Min="2.00449e-05" Max="7.76098"/>
    <Variable VarIndex="17" Expression="Tau_GammaEnFrac" Label="Tau_GammaEnFrac" Title="GammaEnFrac" Unit="     " Internal="Tau_GammaEnFrac" Type="F" Min="0.0107667" Max="0.982425"/>
  </Variables>
  <Spectators NSpec="0"/>
  <Transformations NTransformations="0"/>
  <MVAPdfs/>
  <Weights NTrees="400" TreeType="0">
    <BinaryTree type="DecisionTree" boostWeight="1.5368439170899719e+00" itree="0">
      <Node pos="s" depth="0" Seq="0" IVar="11" Cut="1.4285714626312256e+00" cType="0" nS="1.1754000000000000e+04" nB="3.5174000000000000e+04" nEv="4.6928000000000000e+04" nSuw="1.1754000000000000e+04" nBuw="3.5174000000000000e+04" nEvuw="4.6928000000000000e+04" sepI="1.8773418664932251e-01" sepG="1.6468780517578125e+03" res="-9.9000000000000000e+01" rms="0.0000000000000000e+00" nType="0" CC="0.0000000000000000e+00">
        <Node pos="l" depth="1" Seq="0" IVar="15" Cut="1.8463738262653351e-01" cType="0" nS="6.1370000000000000e+03" nB="3.9480000000000000e+03" nEv="1.0085000000000000e+04" nSuw="6.1370000000000000e+03" nBuw="3.9480000000000000e+03" nEvuw="1.0085000000000000e+04" sepI="2.3822177946567535e-01" sepG="2.3553477478027344e+02" res="-9.9000000000000000e+01" rms="0.0000000000000000e+00" nType="0" CC="0.0000000000000000e+00">
          <Node pos="l" depth="2" Seq="0" IVar="-1" Cut="9.0476191043853760e-01" cType="1" nS="5.4120000000000000e+03" nB="2.4280000000000000e+03" nEv="7.8400000000000000e+03" nSuw="5.4120000000000000e+03" nBuw="2.4280000000000000e+03" nEvuw="7.8400000000000000e+03" sepI="2.1378357708454132e-01" sepG="-1.0000000000000000e+00" res="-9.9000000000000000e+01" rms="0.0000000000000000e+00" nType="1" CC="0.0000000000000000e+00"/>
          <Node pos="r" depth="2" Seq="2" IVar="10" Cut="9.0476191043853760e-01" cType="1" nS="7.2500000000000000e+02" nB="1.5200000000000000e+03" nEv="2.2450000000000000e+03" nSuw="7.2500000000000000e+02" nBuw="1.5200000000000000e+03" nEvuw="2.2450000000000000e+03" sepI="2.1864971518516541e-01" sepG="6.5000816345214844e+01" res="-9.9000000000000000e+01" rms="0.0000000000000000e+00" nType="0" CC="0.0000000000000000e+00">
            <Node pos="l" depth="3" Seq="2" IVar="-1" Cut="0.0000000000000000e+00" cType="1" nS="5.3700000000000000e+02" nB="5.3500000000000000e+02" nEv="1.0720000000000000e+03" nSuw="5.3700000000000000e+02" nBuw="5.3500000000000000e+02" nEvuw="1.0720000000000000e+03" sepI="2.4999913573265076e-01" sepG="-1.0000000000000000e+00" res="-9.9000000000000000e+01" rms="0.0000000000000000e+00" nType="1" CC="0.0000000000000000e+00"/>
            <Node pos="r" depth="3" Seq="6" IVar="-1" Cut="0.0000000000000000e+00" cType="1" nS="1.8800000000000000e+02" nB="9.8500000000000000e+02" nEv="1.1730000000000000e+03" nSuw="1.8800000000000000e+02" nBuw="9.8500000000000000e+02" nEvuw="1.1730000000000000e+03" sepI="1.3458544015884399e-01" sepG="-1.0000000000000000e+00" res="-9.9000000000000000e+01" rms="0.0000000000000000e+00" nType="-1" CC="0.0000000000000000e+00"/>
          </Node>
        </Node>
        <Node pos="r" depth="1" Seq="1" IVar="6" Cut="5.7902259826660156e+00" cType="1" nS="5.6170000000000000e+03" nB="3.1226000000000000e+04" nEv="3.6843000000000000e+04" nSuw="5.6170000000000000e+03" nBuw="3.1226000000000000e+04" nEvuw="3.6843000000000000e+04" sepI="1.2921436131000519e-01" sepG="4.6181127929687500e+02" res="-9.9000000000000000e+01" rms="0.0000000000000000e+00" nType="0" CC="0.0000000000000000e+00">
          <Node pos="l" depth="2" Seq="1" IVar="9" Cut="5.0286724090576172e+01" cType="0" nS="2.0130000000000000e+03" nB="2.4030000000000000e+03" nEv="4.4160000000000000e+03" nSuw="2.0130000000000000e+03" nBuw="2.4030000000000000e+03" nEvuw="4.4160000000000000e+03" sepI="2.4805010855197906e-01" sepG="1.1607514953613281e+02" res="-9.9000000000000000e+01" rms="0.0000000000000000e+00" nType="0" CC="0.0000000000000000e+00">
            <Node pos="l" depth="3" Seq="1" IVar="-1" Cut="0.0000000000000000e+00" cType="1" nS="5.8300000000000000e+02" nB="1.2100000000000000e+02" nEv="7.0400000000000000e+02" nSuw="5.8300000000000000e+02" nBuw="1.2100000000000000e+02" nEvuw="7.0400000000000000e+02" sepI="1.4233398437500000e-01" sepG="-1.0000000000000000e+00" res="-9.9000000000000000e+01" rms="0.0000000000000000e+00" nType="1" CC="0.0000000000000000e+00"/>
            <Node pos="r" depth="3" Seq="5" IVar="-1" Cut="0.0000000000000000e+00" cType="1" nS="1.4300000000000000e+03" nB="2.2820000000000000e+03" nEv="3.7120000000000000e+03" nSuw="1.4300000000000000e+03" nBuw="2.2820000000000000e+03" nEvuw="3.7120000000000000e+03" sepI="2.3682947456836700e-01" sepG="-1.0000000000000000e+00" res="-9.9000000000000000e+01" rms="0.0000000000000000e+00" nType="-1" CC="0.0000000000000000e+00"/>
          </Node>
          <Node pos="r" depth="2" Seq="3" IVar="-1" Cut="9.0476191043853760e-01" cType="1" nS="3.6040000000000000e+03" nB="2.8823000000000000e+04" nEv="3.2427000000000000e+04" nSuw="3.6040000000000000e+03" nBuw="2.8823000000000000e+04" nEvuw="3.2427000000000000e+04" sepI="9.8789416253566742e-02" sepG="-1.0000000000000000e+00" res="-9.9000000000000000e+01" rms="0.0000000000000000e+00" nType="-1" CC="0.0000000000000000e+00"/>
        </Node>
      </Node>
    </BinaryTree>
    <BinaryTree type="DecisionTree" boostWeight="9.1884254215047811e-01" itree="1">
      <Node pos="s" depth="0" Seq="0" IVar="10" Cut="9.5238095521926880e-01" cType="1" nS="1.8720250000000000e+04" nB="2.8207751953125000e+04" nEv="4.6928000000000000e+04" nSuw="1.1754000000000000e+04" nBuw="3.5174000000000000e+04" nEvuw="4.6928000000000000e+04" sepI="2.3978167772293091e-01" sepG="8.1796453857421875e+02" res="-9.9000000000000000e+01" rms="0.0000000000000000e+00" nType="0" CC="0.0000000000000000e+00">
        <Node pos="l" depth="1" Seq="0" IVar="9" Cut="5.3796581268310547e+01" cType="0" nS="1.2327949218750000e+04" nB="1.0810974609375000e+04" nEv="2.3138923828125000e+04" nSuw="8.0940000000000000e+03" nBuw="1.2134000000000000e+04" nEvuw="2.0228000000000000e+04" sepI="2.4892549216747284e-01" sepG="3.6974234008789062e+02" res="-9.9000000000000000e+01" rms="0.0000000000000000e+00" nType="0" CC="0.0000000000000000e+00">
          <Node pos="l" depth="2" Seq="0" IVar="-1" Cut="4.1501644253730774e-01" cType="0" nS="2.7761904296875000e+03" nB="5.1657421875000000e+02" nEv="3.2927646484375000e+03" nSuw="2.5330000000000000e+03" nBuw="4.0500000000000000e+02" nEvuw="2.9380000000000000e+03" sepI="1.3226976990699768e-01" sepG="-1.0000000000000000e+00" res="-9.9000000000000000e+01" rms="0.0000000000000000e+00" nType="1" CC="0.0000000000000000e+00"/>
          <Node pos="r" depth="2" Seq="2" IVar="6" Cut="5.6878023147583008e+00" cType="1" nS="9.5517587890625000e+03" nB="1.0294400390625000e+04" nEv="1.9846158203125000e+04" nSuw="5.5610000000000000e+03" nBuw="1.1729000000000000e+04" nEvuw="1.7290000000000000e+04" sepI="2.4964994192123413e-01" sepG="3.7131671142578125e+02" res="-9.9000000000000000e+01" rms="0.0000000000000000e+00" nType="0" CC="0.0000000000000000e+00">
            <Node pos="l" depth="3" Seq="2" IVar="-1" Cut="0.0000000000000000e+00" cType="1" nS="2.8134758300781250e+03" nB="8.4509478759765625e+02" nEv="3.6585705566406250e+03" nSuw="1.6600000000000000e+03" nBuw="8.9100000000000000e+02" nEvuw="2.5510000000000000e+03" sepI="1.7763385176658630e-01" sepG="-1.0000000000000000e+00" res="-9.9000000000000000e+01" rms="0.0000000000000000e+00" nType="1" CC="0.0000000000000000e+00"/>
            <Node pos="r" depth="3" Seq="6" IVar="-1" Cut="0.0000000000000000e+00" cType="1" nS="6.7382827148437500e+03" nB="9.4493056640625000e+03" nEv="1.6187588867187500e+04" nSuw="3.9010000000000000e+03" nBuw="1.0838000000000000e+04" nEvuw="1.4739000000000000e+04" sepI="2.4298799037933350e-01" sepG="-1.0000000000000000e+00" res="-9.9000000000000000e+01" rms="0.0000000000000000e+00" nType="-1" CC="0.0000000000000000e+00"/>
          </Node>
        </Node>
        <Node pos="r" depth="1" Seq="1" IVar="6" Cut="5.9989600181579590e+00" cType="1" nS="6.3923007812500000e+03" nB="1.7396777343750000e+04" nEv="2.3789078125000000e+04" nSuw="3.6600000000000000e+03" nBuw="2.3040000000000000e+04" nEvuw="2.6700000000000000e+04" sepI="1.9650372862815857e-01" sepG="5.9062493896484375e+02" res="-9.9000000000000000e+01" rms="0.0000000000000000e+00" nType="0" CC="0.0000000000000000e+00">
          <Node pos="l" depth="2" Seq="1" IVar="6" Cut="5.2472047805786133e+00" cType="1" nS="2.7294587402343750e+03" nB="1.9038883056640625e+03" nEv="4.6333471679687500e+03" nSuw="1.7480000000000000e+03" nBuw="2.1520000000000000e+03" nEvuw="3.9000000000000000e+03" sepI="2.4206295609474182e-01" sepG="3.6087718963623047e+01" res="-9.9000000000000000e+01" rms="0.0000000000000000e+00" nType="0" CC="0.0000000000000000e+00">
            <Node pos="l" depth="3" Seq="1" IVar="-1" Cut="0.0000000000000000e+00" cType="1" nS="1.8111040039062500e+03" nB="9.2188671875000000e+02" nEv="2.7329907226562500e+03" nSuw="1.1890000000000000e+03" nBuw="1.0320000000000000e+03" nEvuw="2.2210000000000000e+03" sepI="2.2353453934192657e-01" sepG="-1.0000000000000000e+00" res="-9.9000000000000000e+01" rms="0.0000000000000000e+00" nType="1" CC="0.0000000000000000e+00"/>
            <Node pos="r" depth="3" Seq="5" IVar="-1" Cut="0.0000000000000000e+00" cType="1" nS="9.1835467529296875e+02" nB="9.8200158691406250e+02" nEv="1.9003562011718750e+03" nSuw="5.5900000000000000e+02" nBuw="1.1200000000000000e+03" nEvuw="1.6790000000000000e+03" sepI="2.4971957504749298e-01" sepG="-1.0000000000000000e+00" res="-9.9000000000000000e+01" rms="0.0000000000000000e+00" nType="-1" CC="0.0000000000000000e+00"/>
          </Node>
          <Node pos="r" depth="2" Seq="3" IVar="9" Cut="6.9008476257324219e+01" cType="0" nS="3.6628420410156250e+03" nB="1.5492888671875000e+04" nEv="1.9155730468750000e+04" nSuw="1.9120000000000000e+03" nBuw="2.0888000000000000e+04" nEvuw="2.2800000000000000e+04" sepI="1.5465115010738373e-01" sepG="2.0817320251464844e+02" res="-9.9000000000000000e+01" rms="0.0000000000000000e+00" nType="0" CC="0.0000000000000000e+00">
            <Node pos="l" depth="3" Seq="3" IVar="-1" Cut="0.0000000000000000e+00" cType="1" nS="7.2458599853515625e+02" nB="5.0512551879882812e+02" nEv="1.2297115478515625e+03" nSuw="3.9700000000000000e+02" nBuw="5.6500000000000000e+02" nEvuw="9.6200000000000000e+02" sepI="2.4203756451606750e-01" sepG="-1.0000000000000000e+00" res="-9.9000000000000000e+01" rms="0.0000000000000000e+00" nType="1" CC="0.0000000000000000e+00"/>
            <Node pos="r" depth="3" Seq="7" IVar="-1" Cut="0.0000000000000000e+00" cType="1" nS="2.9382561035156250e+03" nB="1.4987762695312500e+04" nEv="1.7926019531250000e+04" nSuw="1.5150000000000000e+03" nBuw="2.0323000000000000e+04" nEvuw="2.1838000000000000e+04" sepI="1.3704359531402588e-01" sepG="-1.0000000000000000e+00" res="-9.9000000000000000e+01" rms="0.0000000000000000e+00" nType="-1" CC="0.0000000000000000e+00"/>
          </Node>
        </Node>
      </Node>
    </BinaryTree>
    <BinaryTree type="DecisionTree" boostWeight="7.7462805407156310e-01" itree="2">
      <Node pos="s" depth="0" Seq="0" IVar="10" Cut="9.0476191043853760e-01" cType="1" nS="2.4258509765625000e+04" nB="2.2669492187500000e+04" nEv="4.6928000000000000e+04" nSuw="1.1754000000000000e+04" nBuw="3.5174000000000000e+04" nEvuw="4.6928000000000000e+04" sepI="2.4971336126327515e-01" sepG="8.0458123779296875e+02" res="-9.9000000000000000e+01" rms="0.0000000000000000e+00" nType="0" CC="0.0000000000000000e+00">
        <Node pos="l" depth="1" Seq="0" IVar="11" Cut="1.4285714626312256e+00" cType="1" nS="1.1360163085937500e+04" nB="4.9551357421875000e+03" nEv="1.6315298828125000e+04" nSuw="5.8880000000000000e+03" nBuw="5.9230000000000000e+03" nEvuw="1.1811000000000000e+04" sepI="2.1147063374519348e-01" sepG="3.0448892211914062e+02" res="-9.9000000000000000e+01" rms="0.0000000000000000e+00" nType="0" CC="0.0000000000000000e+00">
          <Node pos="l" depth="2" Seq="0" IVar="-1" Cut="4.3083358556032181e-02" cType="0" nS="8.9307138671875000e+03" nB="2.4228574218750000e+03" nEv="1.1353572265625000e+04" nSuw="2.5000000000000000e+03" nBuw="4.8780000000000000e+03" nEvuw="7.3780000000000000e+03" sepI="1.6786070168018341e-01" sepG="-1.0000000000000000e+00" res="-9.9000000000000000e+01" rms="0.0000000000000000e+00" nType="1" CC="0.0000000000000000e+00"/>
          <Node pos="r" depth="2" Seq="2" IVar="15" Cut="2.3646417260169983e-01" cType="0" nS="2.4294487304687500e+03" nB="2.5322780761718750e+03" nEv="4.9617270507812500e+03" nSuw="3.3880000000000000e+03" nBuw="1.0450000000000000e+03" nEvuw="4.4330000000000000e+03" sepI="2.4989262223243713e-01" sepG="1.5508837890625000e+02" res="-9.9000000000000000e+01" rms="0.0000000000000000e+00" nType="0" CC="0.0000000000000000e+00">
            <Node pos="l" depth="3" Seq="2" IVar="-1" Cut="0.0000000000000000e+00" cType="1" nS="1.9022686767578125e+03" nB="1.1076074218750000e+03" nEv="3.0098762207031250e+03" nSuw="2.6280000000000000e+03" nBuw="4.3700000000000000e+02" nEvuw="3.0650000000000000e+03" sepI="2.3257364332675934e-01" sepG="-1.0000000000000000e+00" res="-9.9000000000000000e+01" rms="0.0000000000000000e+00" nType="1" CC="0.0000000000000000e+00"/>
            <Node pos="r" depth="3" Seq="6" IVar="-1" Cut="0.0000000000000000e+00" cType="1" nS="5.2718005371093750e+02" nB="1.4246706542968750e+03" nEv="1.9518507080078125e+03" nSuw="7.6000000000000000e+02" nBuw="6.0800000000000000e+02" nEvuw="1.3680000000000000e+03" sepI="1.9714249670505524e-01" sepG="-1.0000000000000000e+00" res="-9.9000000000000000e+01" rms="0.0000000000000000e+00" nType="-1" CC="0.0000000000000000e+00"/>
          </Node>
        </Node>
        <Node pos="r" depth="1" Seq="1" IVar="17" Cut="5.6985918432474136e-02" cType="0" nS="1.2898346679687500e+04" nB="1.7714355468750000e+04" nEv="3.0612703125000000e+04" nSuw="5.8660000000000000e+03" nBuw="2.9251000000000000e+04" nEvuw="3.5117000000000000e+04" sepI="2.4381256103515625e-01" sepG="3.5743624877929688e+02" res="-9.9000000000000000e+01" rms="0.0000000000000000e+00" nType="0" CC="0.0000000000000000e+00">
          <Node pos="l" depth="2" Seq="1" IVar="6" Cut="6.8671598434448242e+00" cType="1" nS="9.6314003906250000e+03" nB="9.4215683593750000e+03" nEv="1.9052968750000000e+04" nSuw="4.9140000000000000e+03" nBuw="1.3026000000000000e+04" nEvuw="1.7940000000000000e+04" sepI="2.4996967613697052e-01" sepG="1.6529406738281250e+02" res="-9.9000000000000000e+01" rms="0.0000000000000000e+00" nType="0" CC="0.0000000000000000e+00">
            <Node pos="l" depth="3" Seq="1" IVar="-1" Cut="0.0000000000000000e+00" cType="1" nS="5.6297172851562500e+03" nB="3.7519621582031250e+03" nEv="9.3816796875000000e+03" nSuw="3.3110000000000000e+03" nBuw="4.2830000000000000e+03" nEvuw="7.5940000000000000e+03" sepI="2.3998486995697021e-01" sepG="-1.0000000000000000e+00" res="-9.9000000000000000e+01" rms="0.0000000000000000e+00" nType="1" CC="0.0000000000000000e+00"/>
            <Node pos="r" depth="3" Seq="5" IVar="-1" Cut="0.0000000000000000e+00" cType="1" nS="4.0016828613281250e+03" nB="5.6696059570312500e+03" nEv="9.6712890625000000e+03" nSuw="1.6030000000000000e+03" nBuw="8.7430000000000000e+03" nEvuw="1.0346000000000000e+04" sepI="2.4256427586078644e-01" sepG="-1.0000000000000000e+00" res="-9.9000000000000000e+01" rms="0.0000000000000000e+00" nType="-1" CC="0.0000000000000000e+00"/>
          </Node>
          <Node pos="r" depth="2" Seq="3" IVar="13" Cut="8.9867717027664185e-01" cType="1" nS="3.2669467773437500e+03" nB="8.2927880859375000e+03" nEv="1.1559734375000000e+04" nSuw="9.5200000000000000e+02" nBuw="1.6225000000000000e+04" nEvuw="1.7177000000000000e+04" sepI="2.0274347066879272e-01" sepG="1.2582322692871094e+02" res="-9.9000000000000000e+01" rms="0.0000000000000000e+00" nType="0" CC="0.0000000000000000e+00">
            <Node pos="l" depth="3" Seq="3" IVar="-1" Cut="0.0000000000000000e+00" cType="1" nS="3.8914724731445312e+02" nB="1.1570080566406250e+02" nEv="5.0484805297851562e+02" nSuw="8.6000000000000000e+01" nBuw="2.5100000000000000e+02" nEvuw="3.3700000000000000e+02" sepI="1.7665624618530273e-01" sepG="-1.0000000000000000e+00" res="-9.9000000000000000e+01" rms="0.0000000000000000e+00" nType="1" CC="0.0000000000000000e+00"/>
            <Node pos="r" depth="3" Seq="7" IVar="-1" Cut="0.0000000000000000e+00" cType="1" nS="2.8777995605468750e+03" nB="8.1770874023437500e+03" nEv="1.1054886718750000e+04" nSuw="8.6600000000000000e+02" nBuw="1.5974000000000000e+04" nEvuw="1.6840000000000000e+04" sepI="1.9255311787128448e-01" sepG="-1.0000000000000000e+00" res="-9.9000000000000000e+01" rms="0.0000000000000000e+00" nType="-1" CC="0.0000000000000000e+00"/>
          </Node>
        </Node>
      </Node>
    </BinaryTree>
    <BinaryTree type="DecisionTree" boostWeight="4.7087463734078649e-01" itree="3">
      <Node pos="s" depth="0" Seq="0" IVar="11" Cut="1.4285714626312256e+00" cType="1" nS="2.4047986328125000e+04" nB="2.2880015625000000e+04" nEv="4.6928000000000000e+04" nSuw="1.1754000000000000e+04" nBuw="3.5174000000000000e+04" nEvuw="4.6928000000000000e+04" sepI="2.4984514713287354e-01" sepG="2.6252093505859375e+02" res="-9.9000000000000000e+01" rms="0.0000000000000000e+00" nType="0" CC="0.0000000000000000e+00">
        <Node pos="l" depth="1" Seq="0" IVar="15" Cut="4.6639573574066162e-01" cType="0" nS="1.9116404296875000e+04" nB="1.5147601562500000e+04" nEv="3.4264007812500000e+04" nSuw="5.6170000000000000e+03" nBuw="3.1226000000000000e+04" nEvuw="3.6843000000000000e+04" sepI="2.4664585292339325e-01" sepG="2.6025701904296875e+02" res="-9.9000000000000000e+01" rms="0.0000000000000000e+00" nType="0" CC="0.0000000000000000e+00">
          <Node pos="l" depth="2" Seq="0" IVar="14" Cut="5.0729030370712280e-01" cType="0" nS="6.0412055664062500e+03" nB="2.4739074707031250e+03" nEv="8.5151132812500000e+03" nSuw="2.0710000000000000e+03" nBuw="4.3190000000000000e+03" nEvuw="6.3900000000000000e+03" sepI="2.0612289011478424e-01" sepG="1.0783413696289062e+02" res="-9.9000000000000000e+01" rms="0.0000000000000000e+00" nType="0" CC="0.0000000000000000e+00">
            <Node pos="l" depth="3" Seq="0" IVar="-1" Cut="0.0000000000000000e+00" cType="1" nS="5.8534409179687500e+03" nB="2.0476459960937500e+03" nEv="7.9010869140625000e+03" nSuw="1.9760000000000000e+03" nBuw="3.6870000000000000e+03" nEvuw="5.6630000000000000e+03" sepI="1.9199611246585846e-01" sepG="-1.0000000000000000e+00" res="-9.9000000000000000e+01" rms="0.0000000000000000e+00" nType="1" CC="0.0000000000000000e+00"/>
            <Node pos="r" depth="3" Seq="4" IVar="-1" Cut="0.0000000000000000e+00" cType="1" nS="1.8776470947265625e+02" nB="4.2626147460937500e+02" nEv="6.1402618408203125e+02" nSuw="9.5000000000000000e+01" nBuw="6.3200000000000000e+02" nEvuw="7.2700000000000000e+02" sepI="2.1228350698947906e-01" sepG="-1.0000000000000000e+00" res="-9.9000000000000000e+01" rms="0.0000000000000000e+00" nType="-1" CC="0.0000000000000000e+00"/>
          </Node>
          <Node pos="r" depth="2" Seq="2" IVar="15" Cut="6.6630668938159943e-02" cType="0" nS="1.3075199218750000e+04" nB="1.2673694335937500e+04" nEv="2.5748892578125000e+04" nSuw="3.5460000000000000e+03" nBuw="2.6907000000000000e+04" nEvuw="3.0453000000000000e+04" sepI="2.4993921816349030e-01" sepG="1.4835177612304688e+02" res="-9.9000000000000000e+01" rms="0.0000000000000000e+00" nType="0" CC="0.0000000000000000e+00">
            <Node pos="l" depth="3" Seq="2" IVar="-1" Cut="0.0000000000000000e+00" cType="1" nS="1.1389849609375000e+04" nB="9.5387382812500000e+03" nEv="2.0928587890625000e+04" nSuw="3.0270000000000000e+03" nBuw="2.1130000000000000e+04" nEvuw="2.4157000000000000e+04" sepI="2.4804419279098511e-01" sepG="-1.0000000000000000e+00" res="-9.9000000000000000e+01" rms="0.0000000000000000e+00" nType="1" CC="0.0000000000000000e+00"/>
            <Node pos="r" depth="3" Seq="6" IVar="-1" Cut="0.0000000000000000e+00" cType="1" nS="1.6853496093750000e+03" nB="3.1349562988281250e+03" nEv="4.8203056640625000e+03" nSuw="5.1900000000000000e+02" nBuw="5.7770000000000000e+03" nEvuw="6.2960000000000000e+03" sepI="2.2739048302173615e-01" sepG="-1.0000000000000000e+00" res="-9.9000000000000000e+01" rms="0.0000000000000000e+00" nType="-1" CC="0.0000000000000000e+00"/>
          </Node>
        </Node>
        <Node pos="r" depth="1" Seq="1" IVar="16" Cut="1.1292729377746582e+00" cType="0" nS="4.9315815429687500e+03" nB="7.7324135742187500e+03" nEv="1.2663995117187500e+04" nSuw="6.1370000000000000e+03" nBuw="3.9480000000000000e+03" nEvuw="1.0085000000000000e+04" sepI="2.3777151107788086e-01" sepG="1.2211300659179688e+02" res="-9.9000000000000000e+01" rms="0.0000000000000000e+00" nType="0" CC="0.0000000000000000e+00">
          <Node pos="l" depth="2" Seq="1" IVar="17" Cut="5.6642138957977295e-01" cType="0" nS="2.3717871093750000e+03" nB="2.1860781250000000e+03" nEv="4.5578652343750000e+03" nSuw="3.3440000000000000e+03" nBuw="1.1890000000000000e+03" nEvuw="4.5330000000000000e+03" sepI="2.4958497285842896e-01" sepG="3.6945835113525391e+01" res="-9.9000000000000000e+01" rms="0.0000000000000000e+00" nType="0" CC="0.0000000000000000e+00">
            <Node pos="l" depth="3" Seq="1" IVar="-1" Cut="0.0000000000000000e+00" cType="1" nS="5.9331933593750000e+02" nB="2.4179731750488281e+02" nEv="8.3511663818359375e+02" nSuw="1.0280000000000000e+03" nBuw="8.7000000000000000e+01" nEvuw="1.1150000000000000e+03" sepI="2.0570540428161621e-01" sepG="-1.0000000000000000e+00" res="-9.9000000000000000e+01" rms="0.0000000000000000e+00" nType="1" CC="0.0000000000000000e+00"/>
            <Node pos="r" depth="3" Seq="5" IVar="-1" Cut="0.0000000000000000e+00" cType="1" nS="1.7784677734375000e+03" nB="1.9442807617187500e+03" nEv="3.7227485351562500e+03" nSuw="2.3160000000000000e+03" nBuw="1.1020000000000000e+03" nEvuw="3.4180000000000000e+03" sepI="2.4950402975082397e-01" sepG="-1.0000000000000000e+00" res="-9.9000000000000000e+01" rms="0.0000000000000000e+00" nType="-1" CC="0.0000000000000000e+00"/>
          </Node>
          <Node pos="r" depth="2" Seq="3" IVar="-1" Cut="1.0259846597909927e-01" cType="0" nS="2.5597941894531250e+03" nB="5.5463354492187500e+03" nEv="8.1061298828125000e+03" nSuw="2.7930000000000000e+03" nBuw="2.7590000000000000e+03" nEvuw="5.5520000000000000e+03" sepI="2.1606484055519104e-01" sepG="-1.0000000000000000e+00" res="-9.9000000000000000e+01" rms="0.0000000000000000e+00" nType="-1" CC="0.0000000000000000e+00"/>
        </Node>
      </Node>
    </BinaryTree>
    <BinaryTree type="DecisionTree" boostWeight="5.0005443447100206e-01" itree="4">
      <Node pos="s" depth="0" Seq="0" IVar="10" Cut="9.5238095521926880e-01" cType="1" nS="2.2566511718750000e+04" nB="2.4361490234375000e+04" nEv="4.6928000000000000e+04" nSuw="1.1754000000000000e+04" nBuw="3.5174000000000000e+04" nEvuw="4.6928000000000000e+04" sepI="2.4963423609733582e-01" sepG="2.5796319580078125e+02" res="-9.9000000000000000e+01" rms="0.0000000000000000e+00" nType="0" CC="0.0000000000000000e+00">
        <Node pos="l" depth="1" Seq="0" IVar="15" Cut="4.1494572162628174e-01" cType="0" nS="1.3355320312500000e+04" nB="1.0801501953125000e+04" nEv="2.4156822265625000e+04" nSuw="8.0940000000000000e+03" nBuw="1.2134000000000000e+04" nEvuw="2.0228000000000000e+04" sepI="2.4720591306686401e-01" sepG="1.1704707336425781e+02" res="-9.9000000000000000e+01" rms="0.0000000000000000e+00" nType="0" CC="0.0000000000000000e+00">
          <Node pos="l" depth="2" Seq="0" IVar="-1" Cut="1.4285714626312256e+00" cType="1" nS="5.0202670898437500e+03" nB="2.6447019042968750e+03" nEv="7.6649687500000000e+03" nSuw="4.0320000000000000e+03" nBuw="2.0180000000000000e+03" nEvuw="6.0500000000000000e+03" sepI="2.2598662972450256e-01" sepG="-1.0000000000000000e+00" res="-9.9000000000000000e+01" rms="0.0000000000000000e+00" nType="1" CC="0.0000000000000000e+00"/>
          <Node pos="r" depth="2" Seq="2" IVar="12" Cut="3.8058161735534668e-01" cType="0" nS="8.3350527343750000e+03" nB="8.1568002929687500e+03" nEv="1.6491853515625000e+04" nSuw="4.0620000000000000e+03" nBuw="1.0116000000000000e+04" nEvuw="1.4178000000000000e+04" sepI="2.4997079372406006e-01" sepG="1.0546373748779297e+02" res="-9.9000000000000000e+01" rms="0.0000000000000000e+00" nType="0" CC="0.0000000000000000e+00">
            <Node pos="l" depth="3" Seq="2" IVar="-1" Cut="0.0000000000000000e+00" cType="1" nS="9.9539880371093750e+02" nB="2.7765798950195312e+02" nEv="1.2730567626953125e+03" nSuw="6.3500000000000000e+02" nBuw="2.1800000000000000e+02" nEvuw="8.5300000000000000e+02" sepI="1.7053429782390594e-01" sepG="-1.0000000000000000e+00" res="-9.9000000000000000e+01" rms="0.0000000000000000e+00" nType="1" CC="0.0000000000000000e+00"/>
            <Node pos="r" depth="3" Seq="6" IVar="-1" Cut="0.0000000000000000e+00" cType="1" nS="7.3396542968750000e+03" nB="7.8791420898437500e+03" nEv="1.5218795898437500e+04" nSuw="3.4270000000000000e+03" nBuw="9.8980000000000000e+03" nEvuw="1.3325000000000000e+04" sepI="2.4968583881855011e-01" sepG="-1.0000000000000000e+00" res="-9.9000000000000000e+01" rms="0.0000000000000000e+00" nType="-1" CC="0.0000000000000000e+00"/>
          </Node>
        </Node>
        <Node pos="r" depth="1" Seq="1" IVar="3" Cut="3.0476997375488281e+01" cType="0" nS="9.2111914062500000e+03" nB="1.3559988281250000e+04" nEv="2.2771179687500000e+04" nSuw="3.6600000000000000e+03" nBuw="2.3040000000000000e+04" nEvuw="2.6700000000000000e+04" sepI="2.4088184535503387e-01" sepG="1.0480136871337891e+02" res="-9.9000000000000000e+01" rms="0.0000000000000000e+00" nType="0" CC="0.0000000000000000e+00">
          <Node pos="l" depth="2" Seq="1" IVar="6" Cut="4.4714703559875488e+00" cType="0" nS="6.8495941162109375e+02" nB="2.5040269470214844e+02" nEv="9.3536212158203125e+02" nSuw="2.5400000000000000e+02" nBuw="3.0800000000000000e+02" nEvuw="5.6200000000000000e+02" sepI="1.9603982567787170e-01" sepG="2.0443798065185547e+01" res="-9.9000000000000000e+01" rms="0.0000000000000000e+00" nType="0" CC="0.0000000000000000e+00">
            <Node pos="l" depth="3" Seq="1" IVar="-1" Cut="0.0000000000000000e+00" cType="1" nS="6.2748730468750000e+02" nB="1.6061633300781250e+02" nEv="7.8810363769531250e+02" nSuw="1.9800000000000000e+02" nBuw="2.6700000000000000e+02" nEvuw="4.6500000000000000e+02" sepI="1.6226617991924286e-01" sepG="-1.0000000000000000e+00" res="-9.9000000000000000e+01" rms="0.0000000000000000e+00" nType="1" CC="0.0000000000000000e+00"/>
            <Node pos="r" depth="3" Seq="5" IVar="-1" Cut="0.0000000000000000e+00" cType="1" nS="5.7472091674804688e+01" nB="8.9786361694335938e+01" nEv="1.4725845336914062e+02" nSuw="5.6000000000000000e+01" nBuw="4.1000000000000000e+01" nEvuw="9.7000000000000000e+01" sepI="2.3796162009239197e-01" sepG="-1.0000000000000000e+00" res="-9.9000000000000000e+01" rms="0.0000000000000000e+00" nType="-1" CC="0.0000000000000000e+00"/>
          </Node>
          <Node pos="r" depth="2" Seq="3" IVar="3" Cut="2.9699244499206543e+00" cType="0" nS="8.5262324218750000e+03" nB="1.3309584960937500e+04" nEv="2.1835818359375000e+04" nSuw="3.4060000000000000e+03" nBuw="2.2732000000000000e+04" nEvuw="2.6138000000000000e+04" sepI="2.3800317943096161e-01" sepG="3.5984432983398438e+02" res="-9.9000000000000000e+01" rms="0.0000000000000000e+00" nType="0" CC="0.0000000000000000e+00">
            <Node pos="l" depth="3" Seq="3" IVar="-1" Cut="0.0000000000000000e+00" cType="1" nS="2.7421591796875000e+03" nB="1.4524532470703125e+03" nEv="4.1946127929687500e+03" nSuw="1.0090000000000000e+03" nBuw="2.3230000000000000e+03" nEvuw="3.3320000000000000e+03" sepI="2.2636596858501434e-01" sepG="-1.0000000000000000e+00" res="-9.9000000000000000e+01" rms="0.0000000000000000e+00" nType="1" CC="0.0000000000000000e+00"/>
            <Node pos="r" depth="3" Seq="7" IVar="-1" Cut="0.0000000000000000e+00" cType="1" nS="5.7840732421875000e+03" nB="1.1857131835937500e+04" nEv="1.7641205078125000e+04" nSuw="2.3970000000000000e+03" nBuw="2.0409000000000000e+04" nEvuw="2.2806000000000000e+04" sepI="2.2037225961685181e-01" sepG="-1.0000000000000000e+00" res="-9.9000000000000000e+01" rms="0.0000000000000000e+00" nType="-1" CC="0.0000000000000000e+00"/>
          </Node>
        </Node>
      </Node>
    </BinaryTree>
    <BinaryTree type="DecisionTree" boostWeight="4.4195278248287179e-01" itree="5">
      <Node pos="s" depth="0" Seq="0" IVar="10" Cut="9.5238095521926880e-01" cType="1" nS="2.4995994140625000e+04" nB="2.1932007812500000e+04" nEv="4.6928000000000000e+04" nSuw="1.1754000000000000e+04" nBuw="3.5174000000000000e+04" nEvuw="4.6928000000000000e+04" sepI="2.4893426895141602e-01" sepG="1.6015591430664062e+02" res="-9.9000000000000000e+01" rms="0.0000000000000000e+00" nType="0" CC="0.0000000000000000e+00">
        <Node pos="l" depth="1" Seq="0" IVar="10" Cut="4.5351319015026093e-02" cType="0" nS="1.4552754882812500e+04" nB="1.0199300781250000e+04" nEv="2.4752056640625000e+04" nSuw="8.0940000000000000e+03" nBuw="1.2134000000000000e+04" nEvuw="2.0228000000000000e+04" sepI="2.4226634204387665e-01" sepG="1.1133097839355469e+02" res="-9.9000000000000000e+01" rms="0.0000000000000000e+00" nType="0" CC="0.0000000000000000e+00">
          <Node pos="l" depth="2" Seq="0" IVar="-1" Cut="7.8603148460388184e-01" cType="1" nS="1.4184246093750000e+04" nB="9.3242812500000000e+03" nEv="2.3508527343750000e+04" nSuw="7.8600000000000000e+03" nBuw="1.1350000000000000e+04" nEvuw="1.9210000000000000e+04" sepI="2.3931547999382019e-01" sepG="-1.0000000000000000e+00" res="-9.9000000000000000e+01" rms="0.0000000000000000e+00" nType="1" CC="0.0000000000000000e+00"/>
          <Node pos="r" depth="2" Seq="2" IVar="3" Cut="5.2633070945739746e+00" cType="0" nS="3.6850900268554688e+02" nB="8.7501940917968750e+02" nEv="1.2435284423828125e+03" nSuw="2.3400000000000000e+02" nBuw="7.8400000000000000e+02" nEvuw="1.0180000000000000e+03" sepI="2.0852319896221161e-01" sepG="2.8020713806152344e+01" res="-9.9000000000000000e+01" rms="0.0000000000000000e+00" nType="0" CC="0.0000000000000000e+00">
            <Node pos="l" depth="3" Seq="2" IVar="-1" Cut="0.0000000000000000e+00" cType="1" nS="1.6645108032226562e+02" nB="1.2758643341064453e+02" nEv="2.9403750610351562e+02" nSuw="1.0600000000000000e+02" nBuw="1.1500000000000000e+02" nEvuw="2.2100000000000000e+02" sepI="2.4563238024711609e-01" sepG="-1.0000000000000000e+00" res="-9.9000000000000000e+01" rms="0.0000000000000000e+00" nType="1" CC="0.0000000000000000e+00"/>
            <Node pos="r" depth="3" Seq="6" IVar="-1" Cut="0.0000000000000000e+00" cType="1" nS="2.0205792236328125e+02" nB="7.4743298339843750e+02" nEv="9.4949090576171875e+02" nSuw="1.2800000000000000e+02" nBuw="6.6900000000000000e+02" nEvuw="7.9700000000000000e+02" sepI="1.6751994192600250e-01" sepG="-1.0000000000000000e+00" res="-9.9000000000000000e+01" rms="0.0000000000000000e+00" nType="-1" CC="0.0000000000000000e+00"/>
          </Node>
        </Node>
        <Node pos="r" depth="1" Seq="1" IVar="17" Cut="5.6985918432474136e-02" cType="0" nS="1.0443239257812500e+04" nB="1.1732706054687500e+04" nEv="2.2175945312500000e+04" nSuw="3.6600000000000000e+03" nBuw="2.3040000000000000e+04" nEvuw="2.6700000000000000e+04" sepI="2.4915473163127899e-01" sepG="1.0321800994873047e+02" res="-9.9000000000000000e+01" rms="0.0000000000000000e+00" nType="0" CC="0.0000000000000000e+00">
          <Node pos="l" depth="2" Seq="1" IVar="6" Cut="6.8671598434448242e+00" cType="0" nS="7.4186743164062500e+03" nB="6.7934331054687500e+03" nEv="1.4212107421875000e+04" nSuw="3.0460000000000000e+03" nBuw="1.0180000000000000e+04" nEvuw="1.3226000000000000e+04" sepI="2.4951614439487457e-01" sepG="8.3275840759277344e+01" res="-9.9000000000000000e+01" rms="0.0000000000000000e+00" nType="0" CC="0.0000000000000000e+00">
            <Node pos="l" depth="3" Seq="1" IVar="-1" Cut="0.0000000000000000e+00" cType="1" nS="4.2409370117187500e+03" nB="2.8414636230468750e+03" nEv="7.0824008789062500e+03" nSuw="9.3100000000000000e+02" nBuw="6.8770000000000000e+03" nEvuw="7.8080000000000000e+03" sepI="2.4023868143558502e-01" sepG="-1.0000000000000000e+00" res="-9.9000000000000000e+01" rms="0.0000000000000000e+00" nType="1" CC="0.0000000000000000e+00"/>
            <Node pos="r" depth="3" Seq="5" IVar="-1" Cut="0.0000000000000000e+00" cType="1" nS="3.1777373046875000e+03" nB="3.9519694824218750e+03" nEv="7.1297065429687500e+03" nSuw="2.1150000000000000e+03" nBuw="3.3030000000000000e+03" nEvuw="5.4180000000000000e+03" sepI="2.4705192446708679e-01" sepG="-1.0000000000000000e+00" res="-9.9000000000000000e+01" rms="0.0000000000000000e+00" nType="-1" CC="0.0000000000000000e+00"/>
          </Node>
          <Node pos="r" depth="2" Seq="3" IVar="0" Cut="2.2809638977050781e+00" cType="0" nS="3.0245649414062500e+03" nB="4.9392729492187500e+03" nEv="7.9638378906250000e+03" nSuw="6.1400000000000000e+02" nBuw="1.2860000000000000e+04" nEvuw="1.3474000000000000e+04" sepI="2.3554891347885132e-01" sepG="9.9991874694824219e+01" res="-9.9000000000000000e+01" rms="0.0000000000000000e+00" nType="0" CC="0.0000000000000000e+00">
            <Node pos="l" depth="3" Seq="3" IVar="-1" Cut="0.0000000000000000e+00" cType="1" nS="9.2809033203125000e+02" nB="5.9218774414062500e+02" nEv="1.5202780761718750e+03" nSuw="2.7600000000000000e+02" nBuw="8.4600000000000000e+02" nEvuw="1.1220000000000000e+03" sepI="2.3779548704624176e-01" sepG="-1.0000000000000000e+00" res="-9.9000000000000000e+01" rms="0.0000000000000000e+00" nType="1" CC="0.0000000000000000e+00"/>
            <Node pos="r" depth="3" Seq="7" IVar="-1" Cut="0.0000000000000000e+00" cType="1" nS="2.0964746093750000e+03" nB="4.3470849609375000e+03" nEv="6.4435595703125000e+03" nSuw="3.3800000000000000e+02" nBuw="1.2014000000000000e+04" nEvuw="1.2352000000000000e+04" sepI="2.1950076520442963e-01" sepG="-1.0000000000000000e+00" res="-9.9000000000000000e+01" rms="0.0000000000000000e+00" nType="-1" CC="0.0000000000000000e+00"/>
          </Node>
        </Node>
      </Node>
    </BinaryTree>
    <BinaryTree type="DecisionTree" boostWeight="2.4691722040398489e-01" itree="6">
      <Node pos="s" depth="0" Seq="0" IVar="16" Cut="1.1087288856506348e+00" cType="0" nS="2.3031273437500000e+04" nB="2.3896728515625000e+04" nEv="4.6928000000000000e+04" nSuw="1.1754000000000000e+04" nBuw="3.5174000000000000e+04" nEvuw="4.6928000000000000e+04" sepI="2.4991497397422791e-01" sepG="9.8366012573242188e+01" res="-9.9000000000000000e+01" rms="0.0000000000000000e+00" nType="0" CC="0.0000000000000000e+00">
        <Node pos="l" depth="1" Seq="0" IVar="-1" Cut="1.4285714626312256e+00" cType="1" nS="3.9482009277343750e+03" nB="2.5814431152343750e+03" nEv="6.5296440429687500e+03" nSuw="4.0750000000000000e+03" nBuw="1.7080000000000000e+03" nEvuw="5.7830000000000000e+03" sepI="2.3904672265052795e-01" sepG="-1.0000000000000000e+00" res="-9.9000000000000000e+01" rms="0.0000000000000000e+00" nType="1" CC="0.0000000000000000e+00"/>
        <Node pos="r" depth="1" Seq="1" IVar="11" Cut="1.2857142686843872e+00" cType="1" nS="1.9083072265625000e+04" nB="2.1315285156250000e+04" nEv="4.0398355468750000e+04" nSuw="7.6790000000000000e+03" nBuw="3.3466000000000000e+04" nEvuw="4.1145000000000000e+04" sepI="2.4923671782016754e-01" sepG="7.1148612976074219e+01" res="-9.9000000000000000e+01" rms="0.0000000000000000e+00" nType="0" CC="0.0000000000000000e+00">
          <Node pos="l" depth="2" Seq="1" IVar="10" Cut="8.0952382087707520e-01" cType="1" nS="1.5946868164062500e+04" nB="1.6376946289062500e+04" nEv="3.2323814453125000e+04" nSuw="4.9450000000000000e+03" nBuw="3.0757000000000000e+04" nEvuw="3.5702000000000000e+04" sepI="2.4995574355125427e-01" sepG="8.6126472473144531e+01" res="-9.9000000000000000e+01" rms="0.0000000000000000e+00" nType="0" CC="0.0000000000000000e+00">
            <Node pos="l" depth="3" Seq="1" IVar="-1" Cut="0.0000000000000000e+00" cType="1" nS="2.7254833984375000e+03" nB="1.6427640380859375e+03" nEv="4.3682475585937500e+03" nSuw="1.1550000000000000e+03" nBuw="1.7650000000000000e+03" nEvuw="2.9200000000000000e+03" sepI="2.3464119434356689e-01" sepG="-1.0000000000000000e+00" res="-9.9000000000000000e+01" rms="0.0000000000000000e+00" nType="1" CC="0.0000000000000000e+00"/>
            <Node pos="r" depth="3" Seq="5" IVar="-1" Cut="0.0000000000000000e+00" cType="1" nS="1.3221384765625000e+04" nB="1.4734181640625000e+04" nEv="2.7955566406250000e+04" nSuw="3.7900000000000000e+03" nBuw="2.8992000000000000e+04" nEvuw="3.2782000000000000e+04" sepI="2.4926790595054626e-01" sepG="-1.0000000000000000e+00" res="-9.9000000000000000e+01" rms="0.0000000000000000e+00" nType="-1" CC="0.0000000000000000e+00"/>
          </Node>
          <Node pos="r" depth="2" Seq="3" IVar="-1" Cut="1.0259846597909927e-01" cType="0" nS="3.1362048339843750e+03" nB="4.9383388671875000e+03" nEv="8.0745434570312500e+03" nSuw="2.7340000000000000e+03" nBuw="2.7090000000000000e+03" nEvuw="5.4430000000000000e+03" sepI="2.3754687607288361e-01" sepG="-1.0000000000000000e+00" res="-9.9000000000000000e+01" rms="0.0000000000000000e+00" nType="-1" CC="0.0000000000000000e+00"/>
        </Node>
      </Node>
    </BinaryTree>
    <BinaryTree type="DecisionTree" boostWeight="2.1992365059485847e-01" itree="7">
      <Node pos="s" depth="0" Seq="0" IVar="9" Cut="9.2592330932617188e+01" cType="0" nS="2.4591851562500000e+04" nB="2.2336150390625000e+04" nEv="4.6928000000000000e+04" nSuw="1.1754000000000000e+04" nBuw="3.5174000000000000e+04" nEvuw="4.6928000000000000e+04" sepI="2.4942238628864288e-01" sepG="6.4508796691894531e+01" res="-9.9000000000000000e+01" rms="0.0000000000000000e+00" nType="0" CC="0.0000000000000000e+00">
        <Node pos="l" depth="1" Seq="0" IVar="-1" Cut="2.6318287849426270e+00" cType="0" nS="1.1034971923828125e+03" nB="4.1480554199218750e+02" nEv="1.5183027343750000e+03" nSuw="1.2870000000000000e+03" nBuw="2.5800000000000000e+02" nEvuw="1.5450000000000000e+03" sepI="1.9856332242488861e-01" sepG="-1.0000000000000000e+00" res="-9.9000000000000000e+01" rms="0.0000000000000000e+00" nType="1" CC="0.0000000000000000e+00"/>
        <Node pos="r" depth="1" Seq="1" IVar="11" Cut="1.4285714626312256e+00" cType="1" nS="2.3488353515625000e+04" nB="2.1921343750000000e+04" nEv="4.5409699218750000e+04" nSuw="1.0467000000000000e+04" nBuw="3.4916000000000000e+04" nEvuw="4.5383000000000000e+04" sepI="2.4970228970050812e-01" sepG="6.0127437591552734e+01" res="-9.9000000000000000e+01" rms="0.0000000000000000e+00" nType="0" CC="0.0000000000000000e+00">
          <Node pos="l" depth="2" Seq="1" IVar="10" Cut="4.7619048506021500e-02" cType="0" nS="1.7886607421875000e+04" nB="1.5275551757812500e+04" nEv="3.3162160156250000e+04" nSuw="5.0520000000000000e+03" nBuw="3.1035000000000000e+04" nEvuw="3.6087000000000000e+04" sepI="2.4845016002655029e-01" sepG="6.1474555969238281e+01" res="-9.9000000000000000e+01" rms="0.0000000000000000e+00" nType="0" CC="0.0000000000000000e+00">
            <Node pos="l" depth="3" Seq="1" IVar="-1" Cut="0.0000000000000000e+00" cType="1" nS="1.7621558593750000e+04" nB="1.4612604492187500e+04" nEv="3.2234162109375000e+04" nSuw="4.9280000000000000e+03" nBuw="3.0332000000000000e+04" nEvuw="3.5260000000000000e+04" sepI="2.4782159924507141e-01" sepG="-1.0000000000000000e+00" res="-9.9000000000000000e+01" rms="0.0000000000000000e+00" nType="1" CC="0.0000000000000000e+00"/>
            <Node pos="r" depth="3" Seq="5" IVar="-1" Cut="0.0000000000000000e+00" cType="1" nS="2.6505001831054688e+02" nB="6.6294738769531250e+02" nEv="9.2799737548828125e+02" nSuw="1.2400000000000000e+02" nBuw="7.0300000000000000e+02" nEvuw="8.2700000000000000e+02" sepI="2.0403909683227539e-01" sepG="-1.0000000000000000e+00" res="-9.9000000000000000e+01" rms="0.0000000000000000e+00" nType="-1" CC="0.0000000000000000e+00"/>
          </Node>
          <Node pos="r" depth="2" Seq="3" IVar="-1" Cut="4.7557693719863892e-01" cType="0" nS="5.6017456054687500e+03" nB="6.6457929687500000e+03" nEv="1.2247539062500000e+04" nSuw="5.4150000000000000e+03" nBuw="3.8810000000000000e+03" nEvuw="9.2960000000000000e+03" sepI="2.4818329513072968e-01" sepG="-1.0000000000000000e+00" res="-9.9000000000000000e+01" rms="0.0000000000000000e+00" nType="-1" CC="0.0000000000000000e+00"/>
        </Node>
      </Node>
    </BinaryTree>
    <BinaryTree type="DecisionTree" boostWeight="3.3194427269719573e-01" itree="8">
      <Node pos="s" depth="0" Seq="0" IVar="16" Cut="7.3915922641754150e-01" cType="0" nS="2.3465062500000000e+04" nB="2.3462937500000000e+04" nEv="4.6928000000000000e+04" nSuw="1.1754000000000000e+04" nBuw="3.5174000000000000e+04" nEvuw="4.6928000000000000e+04" sepI="2.5000000000000000e-01" sepG="8.2762542724609375e+01" res="-9.9000000000000000e+01" rms="0.0000000000000000e+00" nType="0" CC="0.0000000000000000e+00">
        <Node pos="l" depth="1" Seq="0" IVar="4" Cut="1.1380952835083008e+01" cType="0" nS="7.1846586914062500e+03" nB="5.4363764648437500e+03" nEv="1.2621035156250000e+04" nSuw="6.0180000000000000e+03" nBuw="4.6590000000000000e+03" nEvuw="1.0677000000000000e+04" sepI="2.4520295858383179e-01" sepG="2.7248006820678711e+01" res="-9.9000000000000000e+01" rms="0.0000000000000000e+00" nType="0" CC="0.0000000000000000e+00">
          <Node pos="l" depth="2" Seq="0" IVar="-1" Cut="5.6642138957977295e-01" cType="0" nS="4.3458437500000000e+03" nB="2.7775581054687500e+03" nEv="7.1234018554687500e+03" nSuw="3.5780000000000000e+03" nBuw="2.4430000000000000e+03" nEvuw="6.0210000000000000e+03" sepI="2.3788243532180786e-01" sepG="-1.0000000000000000e+00" res="-9.9000000000000000e+01" rms="0.0000000000000000e+00" nType="1" CC="0.0000000000000000e+00"/>
          <Node pos="r" depth="2" Seq="2" IVar="6" Cut="5.6878023147583008e+00" cType="0" nS="2.8388151855468750e+03" nB="2.6588183593750000e+03" nEv="5.4976337890625000e+03" nSuw="2.4400000000000000e+03" nBuw="2.2160000000000000e+03" nEvuw="4.6560000000000000e+03" sepI="2.4973201751708984e-01" sepG="1.4945951461791992e+01" res="-9.9000000000000000e+01" rms="0.0000000000000000e+00" nType="0" CC="0.0000000000000000e+00">
            <Node pos="l" depth="3" Seq="2" IVar="-1" Cut="0.0000000000000000e+00" cType="1" nS="2.1817932128906250e+03" nB="1.7951369628906250e+03" nEv="3.9769301757812500e+03" nSuw="1.5080000000000000e+03" nBuw="1.9490000000000000e+03" nEvuw="3.4570000000000000e+03" sepI="2.4763683974742889e-01" sepG="-1.0000000000000000e+00" res="-9.9000000000000000e+01" rms="0.0000000000000000e+00" nType="1" CC="0.0000000000000000e+00"/>
            <Node pos="r" depth="3" Seq="6" IVar="-1" Cut="0.0000000000000000e+00" cType="1" nS="6.5702197265625000e+02" nB="8.6368145751953125e+02" nEv="1.5207034912109375e+03" nSuw="9.3200000000000000e+02" nBuw="2.6700000000000000e+02" nEvuw="1.1990000000000000e+03" sepI="2.4538297951221466e-01" sepG="-1.0000000000000000e+00" res="-9.9000000000000000e+01" rms="0.0000000000000000e+00" nType="-1" CC="0.0000000000000000e+00"/>
          </Node>
        </Node>
        <Node pos="r" depth="1" Seq="1" IVar="7" Cut="9.1534680128097534e-01" cType="0" nS="1.6280404296875000e+04" nB="1.8026562500000000e+04" nEv="3.4306964843750000e+04" nSuw="5.7360000000000000e+03" nBuw="3.0515000000000000e+04" nEvuw="3.6251000000000000e+04" sepI="2.4935235083103180e-01" sepG="6.8524894714355469e+01" res="-9.9000000000000000e+01" rms="0.0000000000000000e+00" nType="0" CC="0.0000000000000000e+00">
          <Node pos="l" depth="2" Seq="1" IVar="4" Cut="1.1380952835083008e+01" cType="0" nS="4.7538920898437500e+03" nB="3.8625688476562500e+03" nEv="8.6164609375000000e+03" nSuw="1.6290000000000000e+03" nBuw="5.9730000000000000e+03" nEvuw="7.6020000000000000e+03" sepI="2.4732482433319092e-01" sepG="7.0000289916992188e+01" res="-9.9000000000000000e+01" rms="0.0000000000000000e+00" nType="0" CC="0.0000000000000000e+00">
            <Node pos="l" depth="3" Seq="1" IVar="-1" Cut="0.0000000000000000e+00" cType="1" nS="2.6192136230468750e+03" nB="1.4256210937500000e+03" nEv="4.0448347167968750e+03" nSuw="8.3200000000000000e+02" nBuw="2.4370000000000000e+03" nEvuw="3.2690000000000000e+03" sepI="2.2823038697242737e-01" sepG="-1.0000000000000000e+00" res="-9.9000000000000000e+01" rms="0.0000000000000000e+00" nType="1" CC="0.0000000000000000e+00"/>
            <Node pos="r" depth="3" Seq="5" IVar="-1" Cut="0.0000000000000000e+00" cType="1" nS="2.1346787109375000e+03" nB="2.4369477539062500e+03" nEv="4.5716264648437500e+03" nSuw="7.9700000000000000e+02" nBuw="3.5360000000000000e+03" nEvuw="4.3330000000000000e+03" sepI="2.4890708923339844e-01" sepG="-1.0000000000000000e+00" res="-9.9000000000000000e+01" rms="0.0000000000000000e+00" nType="-1" CC="0.0000000000000000e+00"/>
          </Node>
          <Node pos="r" depth="2" Seq="3" IVar="8" Cut="-9.1584414243698120e-01" cType="1" nS="1.1526512695312500e+04" nB="1.4163992187500000e+04" nEv="2.5690505859375000e+04" nSuw="4.1070000000000000e+03" nBuw="2.4542000000000000e+04" nEvuw="2.8649000000000000e+04" sepI="2.4736504256725311e-01" sepG="1.0417371368408203e+02" res="-9.9000000000000000e+01" rms="0.0000000000000000e+00" nType="0" CC="0.0000000000000000e+00">
            <Node pos="l" depth="3" Seq="3" IVar="-1" Cut="0.0000000000000000e+00" cType="1" nS="4.1726875000000000e+03" nB="3.4611582031250000e+03" nEv="7.6338461914062500e+03" nSuw="1.4770000000000000e+03" nBuw="5.5500000000000000e+03" nEvuw="7.0270000000000000e+03" sepI="2.4782811105251312e-01" sepG="-1.0000000000000000e+00" res="-9.9000000000000000e+01" rms="0.0000000000000000e+00" nType="1" CC="0.0000000000000000e+00"/>
            <Node pos="r" depth="3" Seq="7" IVar="-1" Cut="0.0000000000000000e+00" cType="1" nS="7.3538247070312500e+03" nB="1.0702833984375000e+04" nEv="1.8056658203125000e+04" nSuw="2.6300000000000000e+03" nBuw="1.8992000000000000e+04" nEvuw="2.1622000000000000e+04" sepI="2.4140000343322754e-01" sepG="-1.0000000000000000e+00" res="-9.9000000000000000e+01" rms="0.0000000000000000e+00" nType="-1" CC="0.0000000000000000e+00"/>
          </Node>
        </Node>
      </Node>
    </BinaryTree>
    <BinaryTree type="DecisionTree" boostWeight="3.9320710303504158e-01" itree="9">
      <Node pos="s" depth="0" Seq="0" IVar="13" Cut="1.0399280786514282e+00" cType="0" nS="2.3580880859375000e+04" nB="2.3347121093750000e+04" nEv="4.6928000000000000e+04" nSuw="1.1754000000000000e+04" nBuw="3.5174000000000000e+04" nEvuw="4.6928000000000000e+04" sepI="2.4999380111694336e-01" sepG="4.4538143157958984e+01" res="-9.9000000000000000e+01" rms="0.0000000000000000e+00" nType="0" CC="0.0000000000000000e+00">
        <Node pos="l" depth="1" Seq="0" IVar="9" Cut="7.6785095214843750e+01" cType="0" nS="7.3161621093750000e+02" nB="3.0208508300781250e+02" nEv="1.0337012939453125e+03" nSuw="8.6600000000000000e+02" nBuw="2.1400000000000000e+02" nEvuw="1.0800000000000000e+03" sepI="2.0683425664901733e-01" sepG="1.5140706062316895e+01" res="-9.9000000000000000e+01" rms="0.0000000000000000e+00" nType="0" CC="0.0000000000000000e+00">
          <Node pos="l" depth="2" Seq="0" IVar="-1" Cut="1.2857142686843872e+00" cType="1" nS="2.6600839233398438e+02" nB="2.9934835433959961e+01" nEv="2.9594323730468750e+02" nSuw="4.4600000000000000e+02" nBuw="9.0000000000000000e+00" nEvuw="4.5500000000000000e+02" sepI="9.0919151902198792e-02" sepG="-1.0000000000000000e+00" res="-9.9000000000000000e+01" rms="0.0000000000000000e+00" nType="1" CC="0.0000000000000000e+00"/>
          <Node pos="r" depth="2" Seq="2" IVar="10" Cut="9.5701867341995239e-01" cType="1" nS="4.6560778808593750e+02" nB="2.7215023803710938e+02" nEv="7.3775799560546875e+02" nSuw="4.2000000000000000e+02" nBuw="2.0500000000000000e+02" nEvuw="6.2500000000000000e+02" sepI="2.3280970752239227e-01" sepG="1.0815299034118652e+01" res="-9.9000000000000000e+01" rms="0.0000000000000000e+00" nType="0" CC="0.0000000000000000e+00">
            <Node pos="l" depth="3" Seq="2" IVar="-1" Cut="0.0000000000000000e+00" cType="1" nS="4.1297146606445312e+02" nB="1.8608303833007812e+02" nEv="5.9905450439453125e+02" nSuw="3.9200000000000000e+02" nBuw="1.5400000000000000e+02" nEvuw="5.4600000000000000e+02" sepI="2.1413820981979370e-01" sepG="-1.0000000000000000e+00" res="-9.9000000000000000e+01" rms="0.0000000000000000e+00" nType="1" CC="0.0000000000000000e+00"/>
            <Node pos="r" depth="3" Seq="6" IVar="-1" Cut="0.0000000000000000e+00" cType="1" nS="5.2636322021484375e+01" nB="8.6067207336425781e+01" nEv="1.3870353698730469e+02" nSuw="2.8000000000000000e+01" nBuw="5.1000000000000000e+01" nEvuw="7.9000000000000000e+01" sepI="2.3547685146331787e-01" sepG="-1.0000000000000000e+00" res="-9.9000000000000000e+01" rms="0.0000000000000000e+00" nType="-1" CC="0.0000000000000000e+00"/>
          </Node>
        </Node>
        <Node pos="r" depth="1" Seq="1" IVar="3" Cut="3.0476997375488281e+01" cType="0" nS="2.2849265625000000e+04" nB="2.3045035156250000e+04" nEv="4.5894300781250000e+04" nSuw="1.0888000000000000e+04" nBuw="3.4960000000000000e+04" nEvuw="4.5848000000000000e+04" sepI="2.4999545514583588e-01" sepG="1.0530236816406250e+02" res="-9.9000000000000000e+01" rms="0.0000000000000000e+00" nType="0" CC="0.0000000000000000e+00">
          <Node pos="l" depth="2" Seq="1" IVar="17" Cut="7.0240443944931030e-01" cType="1" nS="1.3164713134765625e+03" nB="4.7301251220703125e+02" nEv="1.7894837646484375e+03" nSuw="5.9000000000000000e+02" nBuw="4.7600000000000000e+02" nEvuw="1.0660000000000000e+03" sepI="1.9445918500423431e-01" sepG="2.2900356292724609e+01" res="-9.9000000000000000e+01" rms="0.0000000000000000e+00" nType="0" CC="0.0000000000000000e+00">
            <Node pos="l" depth="3" Seq="1" IVar="-1" Cut="0.0000000000000000e+00" cType="1" nS="1.2808293457031250e+03" nB="3.9238146972656250e+02" nEv="1.6732108154296875e+03" nSuw="5.4500000000000000e+02" nBuw="4.4900000000000000e+02" nEvuw="9.9400000000000000e+02" sepI="1.7951405048370361e-01" sepG="-1.0000000000000000e+00" res="-9.9000000000000000e+01" rms="0.0000000000000000e+00" nType="1" CC="0.0000000000000000e+00"/>
            <Node pos="r" depth="3" Seq="5" IVar="-1" Cut="0.0000000000000000e+00" cType="1" nS="3.5641933441162109e+01" nB="8.0631034851074219e+01" nEv="1.1627296447753906e+02" nSuw="4.5000000000000000e+01" nBuw="2.7000000000000000e+01" nEvuw="7.2000000000000000e+01" sepI="2.1257196366786957e-01" sepG="-1.0000000000000000e+00" res="-9.9000000000000000e+01" rms="0.0000000000000000e+00" nType="-1" CC="0.0000000000000000e+00"/>
          </Node>
          <Node pos="r" depth="2" Seq="3" IVar="3" Cut="1.5240331888198853e+00" cType="0" nS="2.1532792968750000e+04" nB="2.2572023437500000e+04" nEv="4.4104816406250000e+04" nSuw="1.0298000000000000e+04" nBuw="3.4484000000000000e+04" nEvuw="4.4782000000000000e+04" sepI="2.4986119568347931e-01" sepG="3.4703723144531250e+02" res="-9.9000000000000000e+01" rms="0.0000000000000000e+00" nType="0" CC="0.0000000000000000e+00">
            <Node pos="l" depth="3" Seq="3" IVar="-1" Cut="0.0000000000000000e+00" cType="1" nS="8.7461376953125000e+03" nB="5.4260932617187500e+03" nEv="1.4172231445312500e+04" nSuw="4.1920000000000000e+03" nBuw="6.8810000000000000e+03" nEvuw="1.1073000000000000e+04" sepI="2.3628008365631104e-01" sepG="-1.0000000000000000e+00" res="-9.9000000000000000e+01" rms="0.0000000000000000e+00" nType="1" CC="0.0000000000000000e+00"/>
            <Node pos="r" depth="3" Seq="7" IVar="-1" Cut="0.0000000000000000e+00" cType="1" nS="1.2786656250000000e+04" nB="1.7145929687500000e+04" nEv="2.9932585937500000e+04" nSuw="6.1060000000000000e+03" nBuw="2.7603000000000000e+04" nEvuw="3.3709000000000000e+04" sepI="2.4469751119613647e-01" sepG="-1.0000000000000000e+00" res="-9.9000000000000000e+01" rms="0.0000000000000000e+00" nType="-1" CC="0.0000000000000000e+00"/>
          </Node>
        </Node>
      </Node>
    </BinaryTree>
    <BinaryTree type="DecisionTree" boostWeight="3.4098267663939474e-01" itree="10">
      <Node pos="s" depth="0" Seq="0" IVar="4" Cut="1.2285714149475098e+01" cType="0" nS="2.4941660156250000e+04" nB="2.1986339843750000e+04" nEv="4.6928000000000000e+04" nSuw="1.1754000000000000e+04" nBuw="3.5174000000000000e+04" nEvuw="4.6928000000000000e+04" sepI="2.4900852143764496e-01" sepG="1.5543386840820312e+02" res="-9.9000000000000000e+01" rms="0.0000000000000000e+00" nType="0" CC="0.0000000000000000e+00">
        <Node pos="l" depth="1" Seq="0" IVar="-1" Cut="2.9007277488708496e+00" cType="0" nS="1.4166494140625000e+04" nB="9.9481220703125000e+03" nEv="2.4114617187500000e+04" nSuw="5.9750000000000000e+03" nBuw="1.8634000000000000e+04" nEvuw="2.4609000000000000e+04" sepI="2.4234986305236816e-01" sepG="-1.0000000000000000e+00" res="-9.9000000000000000e+01" rms="0.0000000000000000e+00" nType="1" CC="0.0000000000000000e+00"/>
        <Node pos="r" depth="1" Seq="1" IVar="3" Cut="2.8728679656982422e+01" cType="0" nS="1.0775166015625000e+04" nB="1.2038218750000000e+04" nEv="2.2813384765625000e+04" nSuw="5.7790000000000000e+03" nBuw="1.6540000000000000e+04" nEvuw="2.2319000000000000e+04" sepI="2.4923369288444519e-01" sepG="7.0568725585937500e+01" res="-9.9000000000000000e+01" rms="0.0000000000000000e+00" nType="0" CC="0.0000000000000000e+00">
          <Node pos="l" depth="2" Seq="1" IVar="8" Cut="-9.1719049215316772e-01" cType="0" nS="1.0524561767578125e+03" nB="4.9942453002929688e+02" nEv="1.5518807373046875e+03" nSuw="5.7400000000000000e+02" nBuw="4.2800000000000000e+02" nEvuw="1.0020000000000000e+03" sepI="2.1825149655342102e-01" sepG="1.0407078742980957e+01" res="-9.9000000000000000e+01" rms="0.0000000000000000e+00" nType="0" CC="0.0000000000000000e+00">
            <Node pos="l" depth="3" Seq="1" IVar="-1" Cut="0.0000000000000000e+00" cType="1" nS="9.5101544189453125e+02" nB="3.8664944458007812e+02" nEv="1.3376649169921875e+03" nSuw="4.9200000000000000e+02" nBuw="3.5000000000000000e+02" nEvuw="8.4200000000000000e+02" sepI="2.0549927651882172e-01" sepG="-1.0000000000000000e+00" res="-9.9000000000000000e+01" rms="0.0000000000000000e+00" nType="1" CC="0.0000000000000000e+00"/>
            <Node pos="r" depth="3" Seq="5" IVar="-1" Cut="0.0000000000000000e+00" cType="1" nS="1.0144077301025391e+02" nB="1.1277510070800781e+02" nEv="2.1421588134765625e+02" nSuw="8.2000000000000000e+01" nBuw="7.8000000000000000e+01" nEvuw="1.6000000000000000e+02" sepI="2.4930010735988617e-01" sepG="-1.0000000000000000e+00" res="-9.9000000000000000e+01" rms="0.0000000000000000e+00" nType="-1" CC="0.0000000000000000e+00"/>
          </Node>
          <Node pos="r" depth="2" Seq="3" IVar="3" Cut="4.1698455810546875e+00" cType="0" nS="9.7227099609375000e+03" nB="1.1538793945312500e+04" nEv="2.1261503906250000e+04" nSuw="5.2050000000000000e+03" nBuw="1.6112000000000000e+04" nEvuw="2.1317000000000000e+04" sepI="2.4817600846290588e-01" sepG="7.7629219055175781e+01" res="-9.9000000000000000e+01" rms="0.0000000000000000e+00" nType="0" CC="0.0000000000000000e+00">
            <Node pos="l" depth="3" Seq="3" IVar="-1" Cut="0.0000000000000000e+00" cType="1" nS="3.0337429199218750e+03" nB="2.3767270507812500e+03" nEv="5.4104697265625000e+03" nSuw="1.8730000000000000e+03" nBuw="2.1240000000000000e+03" nEvuw="3.9970000000000000e+03" sepI="2.4631343781948090e-01" sepG="-1.0000000000000000e+00" res="-9.9000000000000000e+01" rms="0.0000000000000000e+00" nType="1" CC="0.0000000000000000e+00"/>
            <Node pos="r" depth="3" Seq="7" IVar="-1" Cut="0.0000000000000000e+00" cType="1" nS="6.6889672851562500e+03" nB="9.1620673828125000e+03" nEv="1.5851034179687500e+04" nSuw="3.3320000000000000e+03" nBuw="1.3988000000000000e+04" nEvuw="1.7320000000000000e+04" sepI="2.4391433596611023e-01" sepG="-1.0000000000000000e+00" res="-9.9000000000000000e+01" rms="0.0000000000000000e+00" nType="-1" CC="0.0000000000000000e+00"/>
          </Node>
        </Node>
      </Node>
    </BinaryTree>
    <BinaryTree type="DecisionTree" boostWeight="2.1223427315137677e-01" itree="11">
      <Node pos="s" depth="0" Seq="0" IVar="7" Cut="9.6623772382736206e-01" cType="0" nS="2.3699019531250000e+04" nB="2.3228980468750000e+04" nEv="4.6928000000000000e+04" nSuw="1.1754000000000000e+04" nBuw="3.5174000000000000e+04" nEvuw="4.6928000000000000e+04" sepI="2.4997492134571075e-01" sepG="8.0692268371582031e+01" res="-9.9000000000000000e+01" rms="0.0000000000000000e+00" nType="0" CC="0.0000000000000000e+00">
        <Node pos="l" depth="1" Seq="0" IVar="8" Cut="-2.0870745182037354e-01" cType="0" nS="6.5167470703125000e+03" nB="4.7420112304687500e+03" nEv="1.1258757812500000e+04" nSuw="3.1220000000000000e+03" nBuw="6.5980000000000000e+03" nEvuw="9.7200000000000000e+03" sepI="2.4378807842731476e-01" sepG="3.9620647430419922e+01" res="-9.9000000000000000e+01" rms="0.0000000000000000e+00" nType="0" CC="0.0000000000000000e+00">
          <Node pos="l" depth="2" Seq="0" IVar="-1" Cut="1.9204498827457428e-01" cType="0" nS="6.2520766601562500e+03" nB="4.2627817382812500e+03" nEv="1.0514858398437500e+04" nSuw="2.9630000000000000e+03" nBuw="5.8750000000000000e+03" nEvuw="8.8380000000000000e+03" sepI="2.4105188250541687e-01" sepG="-1.0000000000000000e+00" res="-9.9000000000000000e+01" rms="0.0000000000000000e+00" nType="1" CC="0.0000000000000000e+00"/>
          <Node pos="r" depth="2" Seq="2" IVar="17" Cut="1.0188192129135132e-01" cType="0" nS="2.6467004394531250e+02" nB="4.7922940063476562e+02" nEv="7.4389941406250000e+02" nSuw="1.5900000000000000e+02" nBuw="7.2300000000000000e+02" nEvuw="8.8200000000000000e+02" sepI="2.2920271754264832e-01" sepG="3.2292644500732422e+01" res="-9.9000000000000000e+01" rms="0.0000000000000000e+00" nType="0" CC="0.0000000000000000e+00">
            <Node pos="l" depth="3" Seq="2" IVar="-1" Cut="0.0000000000000000e+00" cType="1" nS="2.3416212463378906e+02" nB="2.1036077880859375e+02" nEv="4.4452288818359375e+02" nSuw="1.5000000000000000e+02" nBuw="2.4800000000000000e+02" nEvuw="3.9800000000000000e+02" sepI="2.4928326904773712e-01" sepG="-1.0000000000000000e+00" res="-9.9000000000000000e+01" rms="0.0000000000000000e+00" nType="1" CC="0.0000000000000000e+00"/>
            <Node pos="r" depth="3" Seq="6" IVar="-1" Cut="0.0000000000000000e+00" cType="1" nS="3.0507913589477539e+01" nB="2.6886862182617188e+02" nEv="2.9937652587890625e+02" nSuw="9.0000000000000000e+00" nBuw="4.7500000000000000e+02" nEvuw="4.8400000000000000e+02" sepI="9.1520234942436218e-02" sepG="-1.0000000000000000e+00" res="-9.9000000000000000e+01" rms="0.0000000000000000e+00" nType="-1" CC="0.0000000000000000e+00"/>
          </Node>
        </Node>
        <Node pos="r" depth="1" Seq="1" IVar="17" Cut="5.7089660316705704e-02" cType="0" nS="1.7182273437500000e+04" nB="1.8486970703125000e+04" nEv="3.5669242187500000e+04" nSuw="8.6320000000000000e+03" nBuw="2.8576000000000000e+04" nEvuw="3.7208000000000000e+04" sepI="2.4966551363468170e-01" sepG="4.5361820220947266e+01" res="-9.9000000000000000e+01" rms="0.0000000000000000e+00" nType="0" CC="0.0000000000000000e+00">
          <Node pos="l" depth="2" Seq="1" IVar="13" Cut="3.5493662953376770e-01" cType="0" nS="1.1748875976562500e+04" nB="1.1380210937500000e+04" nEv="2.3129085937500000e+04" nSuw="6.9970000000000000e+03" nBuw="1.2552000000000000e+04" nEvuw="1.9549000000000000e+04" sepI="2.4993647634983063e-01" sepG="4.2819396972656250e+01" res="-9.9000000000000000e+01" rms="0.0000000000000000e+00" nType="0" CC="0.0000000000000000e+00">
            <Node pos="l" depth="3" Seq="1" IVar="-1" Cut="0.0000000000000000e+00" cType="1" nS="1.1556504882812500e+04" nB="1.0853954101562500e+04" nEv="2.2410458984375000e+04" nSuw="6.7850000000000000e+03" nBuw="1.1956000000000000e+04" nEvuw="1.8741000000000000e+04" sepI="2.4975430965423584e-01" sepG="-1.0000000000000000e+00" res="-9.9000000000000000e+01" rms="0.0000000000000000e+00" nType="1" CC="0.0000000000000000e+00"/>
            <Node pos="r" depth="3" Seq="5" IVar="-1" Cut="0.0000000000000000e+00" cType="1" nS="1.9237049865722656e+02" nB="5.2625714111328125e+02" nEv="7.1862762451171875e+02" nSuw="2.1200000000000000e+02" nBuw="5.9600000000000000e+02" nEvuw="8.0800000000000000e+02" sepI="1.9603274762630463e-01" sepG="-1.0000000000000000e+00" res="-9.9000000000000000e+01" rms="0.0000000000000000e+00" nType="-1" CC="0.0000000000000000e+00"/>
          </Node>
          <Node pos="r" depth="2" Seq="3" IVar="-1" Cut="2.8448125347495079e-02" cType="0" nS="5.4333979492187500e+03" nB="7.1067587890625000e+03" nEv="1.2540157226562500e+04" nSuw="1.6350000000000000e+03" nBuw="1.6024000000000000e+04" nEvuw="1.7659000000000000e+04" sepI="2.4554842710494995e-01" sepG="-1.0000000000000000e+00" res="-9.9000000000000000e+01" rms="0.0000000000000000e+00" nType="-1" CC="0.0000000000000000e+00"/>
        </Node>
      </Node>
    </BinaryTree>
    <BinaryTree type="DecisionTree" boostWeight="3.5483577120706461e-01" itree="12">
      <Node pos="s" depth="0" Seq="0" IVar="6" Cut="8.0195283889770508e+00" cType="1" nS="2.2642587890625000e+04" nB="2.4285412109375000e+04" nEv="4.6928000000000000e+04" nSuw="1.1754000000000000e+04" nBuw="3.5174000000000000e+04" nEvuw="4.6928000000000000e+04" sepI="2.4969361722469330e-01" sepG="4.2051013946533203e+01" res="-9.9000000000000000e+01" rms="0.0000000000000000e+00" nType="0" CC="0.0000000000000000e+00">
        <Node pos="l" depth="1" Seq="0" IVar="10" Cut="9.5238095521926880e-01" cType="0" nS="1.7268382812500000e+04" nB="1.7236794921875000e+04" nEv="3.4505179687500000e+04" nSuw="8.7530000000000000e+03" nBuw="2.3289000000000000e+04" nEvuw="3.2042000000000000e+04" sepI="2.4999979138374329e-01" sepG="6.9862197875976562e+01" res="-9.9000000000000000e+01" rms="0.0000000000000000e+00" nType="0" CC="0.0000000000000000e+00">
          <Node pos="l" depth="2" Seq="0" IVar="5" Cut="2.3399569094181061e-01" cType="1" nS="9.3419306640625000e+03" nB="7.7736977539062500e+03" nEv="1.7115628906250000e+04" nSuw="3.1620000000000000e+03" nBuw="1.4787000000000000e+04" nEvuw="1.7949000000000000e+04" sepI="2.4790118634700775e-01" sepG="5.4895725250244141e+01" res="-9.9000000000000000e+01" rms="0.0000000000000000e+00" nType="0" CC="0.0000000000000000e+00">
            <Node pos="l" depth="3" Seq="0" IVar="-1" Cut="0.0000000000000000e+00" cType="1" nS="7.7758032226562500e+03" nB="5.7472587890625000e+03" nEv="1.3523062500000000e+04" nSuw="2.5360000000000000e+03" nBuw="1.1565000000000000e+04" nEvuw="1.4101000000000000e+04" sepI="2.4437452852725983e-01" sepG="-1.0000000000000000e+00" res="-9.9000000000000000e+01" rms="0.0000000000000000e+00" nType="1" CC="0.0000000000000000e+00"/>
            <Node pos="r" depth="3" Seq="4" IVar="-1" Cut="0.0000000000000000e+00" cType="1" nS="1.5661276855468750e+03" nB="2.0264389648437500e+03" nEv="3.5925666503906250e+03" nSuw="6.2600000000000000e+02" nBuw="3.2220000000000000e+03" nEvuw="3.8480000000000000e+03" sepI="2.4589575827121735e-01" sepG="-1.0000000000000000e+00" res="-9.9000000000000000e+01" rms="0.0000000000000000e+00" nType="-1" CC="0.0000000000000000e+00"/>
          </Node>
          <Node pos="r" depth="2" Seq="2" IVar="9" Cut="2.7341531753540039e+01" cType="0" nS="7.9264531250000000e+03" nB="9.4630976562500000e+03" nEv="1.7389550781250000e+04" nSuw="5.5910000000000000e+03" nBuw="8.5020000000000000e+03" nEvuw="1.4093000000000000e+04" sepI="2.4804785847663879e-01" sepG="6.6430412292480469e+01" res="-9.9000000000000000e+01" rms="0.0000000000000000e+00" nType="0" CC="0.0000000000000000e+00">
            <Node pos="l" depth="3" Seq="2" IVar="-1" Cut="0.0000000000000000e+00" cType="1" nS="4.3869658203125000e+03" nB="4.0589367675781250e+03" nEv="8.4459023437500000e+03" nSuw="3.6380000000000000e+03" nBuw="3.3030000000000000e+03" nEvuw="6.9410000000000000e+03" sepI="2.4962288141250610e-01" sepG="-1.0000000000000000e+00" res="-9.9000000000000000e+01" rms="0.0000000000000000e+00" nType="1" CC="0.0000000000000000e+00"/>
            <Node pos="r" depth="3" Seq="6" IVar="-1" Cut="0.0000000000000000e+00" cType="1" nS="3.5394870605468750e+03" nB="5.4041611328125000e+03" nEv="8.9436484375000000e+03" nSuw="1.9530000000000000e+03" nBuw="5.1990000000000000e+03" nEvuw="7.1520000000000000e+03" sepI="2.3913283646106720e-01" sepG="-1.0000000000000000e+00" res="-9.9000000000000000e+01" rms="0.0000000000000000e+00" nType="-1" CC="0.0000000000000000e+00"/>
          </Node>
        </Node>
        <Node pos="r" depth="1" Seq="1" IVar="10" Cut="8.0952382087707520e-01" cType="1" nS="5.3742045898437500e+03" nB="7.0486171875000000e+03" nEv="1.2422821289062500e+04" nSuw="3.0010000000000000e+03" nBuw="1.1885000000000000e+04" nEvuw="1.4886000000000000e+04" sepI="2.4545823037624359e-01" sepG="6.6753776550292969e+01" res="-9.9000000000000000e+01" rms="0.0000000000000000e+00" nType="0" CC="0.0000000000000000e+00">
          <Node pos="l" depth="2" Seq="1" IVar="10" Cut="3.8541875779628754e-02" cType="0" nS="1.5890446777343750e+03" nB="1.2052174072265625e+03" nEv="2.7942619628906250e+03" nSuw="1.5400000000000000e+03" nBuw="8.3000000000000000e+02" nEvuw="2.3700000000000000e+03" sepI="2.4528287351131439e-01" sepG="4.4717136383056641e+01" res="-9.9000000000000000e+01" rms="0.0000000000000000e+00" nType="0" CC="0.0000000000000000e+00">
            <Node pos="l" depth="3" Seq="1" IVar="-1" Cut="0.0000000000000000e+00" cType="1" nS="1.5177850341796875e+03" nB="9.5204284667968750e+02" nEv="2.4698278808593750e+03" nSuw="1.5020000000000000e+03" nBuw="5.9200000000000000e+02" nEvuw="2.0940000000000000e+03" sepI="2.3688271641731262e-01" sepG="-1.0000000000000000e+00" res="-9.9000000000000000e+01" rms="0.0000000000000000e+00" nType="1" CC="0.0000000000000000e+00"/>
            <Node pos="r" depth="3" Seq="5" IVar="-1" Cut="0.0000000000000000e+00" cType="1" nS="7.1259628295898438e+01" nB="2.5317463684082031e+02" nEv="3.2443426513671875e+02" nSuw="3.8000000000000000e+01" nBuw="2.3800000000000000e+02" nEvuw="2.7600000000000000e+02" sepI="1.7139981687068939e-01" sepG="-1.0000000000000000e+00" res="-9.9000000000000000e+01" rms="0.0000000000000000e+00" nType="-1" CC="0.0000000000000000e+00"/>
          </Node>
          <Node pos="r" depth="2" Seq="3" IVar="9" Cut="2.8530754089355469e+01" cType="1" nS="3.7851599121093750e+03" nB="5.8433999023437500e+03" nEv="9.6285595703125000e+03" nSuw="1.4610000000000000e+03" nBuw="1.1055000000000000e+04" nEvuw="1.2516000000000000e+04" sepI="2.3857623338699341e-01" sepG="9.6844154357910156e+01" res="-9.9000000000000000e+01" rms="0.0000000000000000e+00" nType="0" CC="0.0000000000000000e+00">
            <Node pos="l" depth="3" Seq="3" IVar="-1" Cut="0.0000000000000000e+00" cType="1" nS="9.9947961425781250e+02" nB="6.2340991210937500e+02" nEv="1.6228895263671875e+03" nSuw="2.6500000000000000e+02" nBuw="1.1820000000000000e+03" nEvuw="1.4470000000000000e+03" sepI="2.3657548427581787e-01" sepG="-1.0000000000000000e+00" res="-9.9000000000000000e+01" rms="0.0000000000000000e+00" nType="1" CC="0.0000000000000000e+00"/>
            <Node pos="r" depth="3" Seq="7" IVar="-1" Cut="0.0000000000000000e+00" cType="1" nS="2.7856804199218750e+03" nB="5.2199897460937500e+03" nEv="8.0056704101562500e+03" nSuw="1.1960000000000000e+03" nBuw="9.8730000000000000e+03" nEvuw="1.1069000000000000e+04" sepI="2.2688487172126770e-01" sepG="-1.0000000000000000e+00" res="-9.9000000000000000e+01" rms="0.0000000000000000e+00" nType="-1" CC="0.0000000000000000e+00"/>
          </Node>
        </Node>
      </Node>
    </BinaryTree>
    <BinaryTree type="DecisionTree" boostWeight="2.4969226037837849e-01" itree="13">
      <Node pos="s" depth="0" Seq="0" IVar="7" Cut="1.1100671291351318e+00" cType="0" nS="2.2145853515625000e+04" nB="2.4782148437500000e+04" nEv="4.6928000000000000e+04" nSuw="1.1754000000000000e+04" nBuw="3.5174000000000000e+04" nEvuw="4.6928000000000000e+04" sepI="2.4921102821826935e-01" sepG="4.1596691131591797e+01" res="-9.9000000000000000e+01" rms="0.0000000000000000e+00" nType="0" CC="0.0000000000000000e+00">
        <Node pos="l" depth="1" Seq="0" IVar="8" Cut="-6.8095088005065918e-02" cType="0" nS="4.4888305664062500e+03" nB="3.8893830566406250e+03" nEv="8.3782138671875000e+03" nSuw="2.3260000000000000e+03" nBuw="4.8910000000000000e+03" nEvuw="7.2170000000000000e+03" sepI="2.4872021377086639e-01" sepG="3.4112773895263672e+01" res="-9.9000000000000000e+01" rms="0.0000000000000000e+00" nType="0" CC="0.0000000000000000e+00">
          <Node pos="l" depth="2" Seq="0" IVar="15" Cut="1.3244378566741943e-01" cType="0" nS="4.2969775390625000e+03" nB="3.4621191406250000e+03" nEv="7.7590966796875000e+03" nSuw="2.1930000000000000e+03" nBuw="4.2910000000000000e+03" nEvuw="6.4840000000000000e+03" sepI="2.4710570275783539e-01" sepG="2.0896919250488281e+01" res="-9.9000000000000000e+01" rms="0.0000000000000000e+00" nType="0" CC="0.0000000000000000e+00">
            <Node pos="l" depth="3" Seq="0" IVar="-1" Cut="0.0000000000000000e+00" cType="1" nS="3.5188613281250000e+03" nB="2.5340346679687500e+03" nEv="6.0528959960937500e+03" nSuw="1.9610000000000000e+03" nBuw="2.7920000000000000e+03" nEvuw="4.7530000000000000e+03" sepI="2.4338190257549286e-01" sepG="-1.0000000000000000e+00" res="-9.9000000000000000e+01" rms="0.0000000000000000e+00" nType="1" CC="0.0000000000000000e+00"/>
            <Node pos="r" depth="3" Seq="4" IVar="-1" Cut="0.0000000000000000e+00" cType="1" nS="7.7811627197265625e+02" nB="9.2808453369140625e+02" nEv="1.7062008056640625e+03" nSuw="2.3200000000000000e+02" nBuw="1.4990000000000000e+03" nEvuw="1.7310000000000000e+03" sepI="2.4806857109069824e-01" sepG="-1.0000000000000000e+00" res="-9.9000000000000000e+01" rms="0.0000000000000000e+00" nType="-1" CC="0.0000000000000000e+00"/>
          </Node>
          <Node pos="r" depth="2" Seq="2" IVar="12" Cut="9.0441234409809113e-02" cType="0" nS="1.9185284423828125e+02" nB="4.2726394653320312e+02" nEv="6.1911676025390625e+02" nSuw="1.3300000000000000e+02" nBuw="6.0000000000000000e+02" nEvuw="7.3300000000000000e+02" sepI="2.1385496854782104e-01" sepG="2.0964309692382812e+01" res="-9.9000000000000000e+01" rms="0.0000000000000000e+00" nType="0" CC="0.0000000000000000e+00">
            <Node pos="l" depth="3" Seq="2" IVar="-1" Cut="0.0000000000000000e+00" cType="1" nS="6.6355690002441406e+01" nB="2.0250993728637695e+01" nEv="8.6606681823730469e+01" nSuw="7.0000000000000000e+01" nBuw="1.7000000000000000e+01" nEvuw="8.7000000000000000e+01" sepI="1.7915201187133789e-01" sepG="-1.0000000000000000e+00" res="-9.9000000000000000e+01" rms="0.0000000000000000e+00" nType="1" CC="0.0000000000000000e+00"/>
            <Node pos="r" depth="3" Seq="6" IVar="-1" Cut="0.0000000000000000e+00" cType="1" nS="1.2549716186523438e+02" nB="4.0701293945312500e+02" nEv="5.3251007080078125e+02" nSuw="6.3000000000000000e+01" nBuw="5.8300000000000000e+02" nEvuw="6.4600000000000000e+02" sepI="1.8013015389442444e-01" sepG="-1.0000000000000000e+00" res="-9.9000000000000000e+01" rms="0.0000000000000000e+00" nType="-1" CC="0.0000000000000000e+00"/>
          </Node>
        </Node>
        <Node pos="r" depth="1" Seq="1" IVar="7" Cut="-6.1590629816055298e-01" cType="1" nS="1.7657021484375000e+04" nB="2.0892765625000000e+04" nEv="3.8549789062500000e+04" nSuw="9.4280000000000000e+03" nBuw="3.0283000000000000e+04" nEvuw="3.9711000000000000e+04" sepI="2.4823865294456482e-01" sepG="2.7537151336669922e+01" res="-9.9000000000000000e+01" rms="0.0000000000000000e+00" nType="0" CC="0.0000000000000000e+00">
          <Node pos="l" depth="2" Seq="1" IVar="4" Cut="1.1380952835083008e+01" cType="0" nS="7.8214692382812500e+03" nB="8.1467480468750000e+03" nEv="1.5968216796875000e+04" nSuw="4.3200000000000000e+03" nBuw="1.0939000000000000e+04" nEvuw="1.5259000000000000e+04" sepI="2.4989625811576843e-01" sepG="3.4138916015625000e+01" res="-9.9000000000000000e+01" rms="0.0000000000000000e+00" nType="0" CC="0.0000000000000000e+00">
            <Node pos="l" depth="3" Seq="1" IVar="-1" Cut="0.0000000000000000e+00" cType="1" nS="4.5029599609375000e+03" nB="3.9377749023437500e+03" nEv="8.4407343750000000e+03" nSuw="2.4340000000000000e+03" nBuw="5.6540000000000000e+03" nEvuw="8.0880000000000000e+03" sepI="2.4887911975383759e-01" sepG="-1.0000000000000000e+00" res="-9.9000000000000000e+01" rms="0.0000000000000000e+00" nType="1" CC="0.0000000000000000e+00"/>
            <Node pos="r" depth="3" Seq="5" IVar="-1" Cut="0.0000000000000000e+00" cType="1" nS="3.3185095214843750e+03" nB="4.2089731445312500e+03" nEv="7.5274824218750000e+03" nSuw="1.8860000000000000e+03" nBuw="5.2850000000000000e+03" nEvuw="7.1710000000000000e+03" sepI="2.4650157988071442e-01" sepG="-1.0000000000000000e+00" res="-9.9000000000000000e+01" rms="0.0000000000000000e+00" nType="-1" CC="0.0000000000000000e+00"/>
          </Node>
          <Node pos="r" depth="2" Seq="3" IVar="-1" Cut="-9.1533923149108887e-01" cType="0" nS="9.8355527343750000e+03" nB="1.2746017578125000e+04" nEv="2.2581570312500000e+04" nSuw="5.1080000000000000e+03" nBuw="1.9344000000000000e+04" nEvuw="2.4452000000000000e+04" sepI="2.4584704637527466e-01" sepG="-1.0000000000000000e+00" res="-9.9000000000000000e+01" rms="0.0000000000000000e+00" nType="-1" CC="0.0000000000000000e+00"/>
        </Node>
      </Node>
    </BinaryTree>
    <BinaryTree type="DecisionTree" boostWeight="1.4838554313760383e-01" itree="14">
      <Node pos="s" depth="0" Seq="0" IVar="14" Cut="1.1085137128829956e+00" cType="1" nS="2.3245865234375000e+04" nB="2.3682136718750000e+04" nEv="4.6928000000000000e+04" nSuw="1.1754000000000000e+04" nBuw="3.5174000000000000e+04" nEvuw="4.6928000000000000e+04" sepI="2.4997839331626892e-01" sepG="4.1142406463623047e+01" res="-9.9000000000000000e+01" rms="0.0000000000000000e+00" nType="0" CC="0.0000000000000000e+00">
        <Node pos="l" depth="1" Seq="0" IVar="9" Cut="9.2592330932617188e+01" cType="0" nS="2.0908062500000000e+04" nB="2.0388937500000000e+04" nEv="4.1297000000000000e+04" nSuw="9.0410000000000000e+03" nBuw="3.2843000000000000e+04" nEvuw="4.1884000000000000e+04" sepI="2.4996049702167511e-01" sepG="2.7181091308593750e+01" res="-9.9000000000000000e+01" rms="0.0000000000000000e+00" nType="0" CC="0.0000000000000000e+00">
          <Node pos="l" depth="2" Seq="0" IVar="-1" Cut="1.2739866971969604e-01" cType="0" nS="6.6160797119140625e+02" nB="3.2553158569335938e+02" nEv="9.8713952636718750e+02" nSuw="8.1700000000000000e+02" nBuw="1.9800000000000000e+02" nEvuw="1.0150000000000000e+03" sepI="2.2102263569831848e-01" sepG="-1.0000000000000000e+00" res="-9.9000000000000000e+01" rms="0.0000000000000000e+00" nType="1" CC="0.0000000000000000e+00"/>
          <Node pos="r" depth="2" Seq="2" IVar="7" Cut="5.3474962711334229e-01" cType="0" nS="2.0246455078125000e+04" nB="2.0063406250000000e+04" nEv="4.0309859375000000e+04" nSuw="8.2240000000000000e+03" nBuw="3.2645000000000000e+04" nEvuw="4.0869000000000000e+04" sepI="2.4999484419822693e-01" sepG="2.3104234695434570e+01" res="-9.9000000000000000e+01" rms="0.0000000000000000e+00" nType="0" CC="0.0000000000000000e+00">
            <Node pos="l" depth="3" Seq="2" IVar="-1" Cut="0.0000000000000000e+00" cType="1" nS="7.9228154296875000e+03" nB="6.9244047851562500e+03" nEv="1.4847220703125000e+04" nSuw="3.2010000000000000e+03" nBuw="1.0792000000000000e+04" nEvuw="1.3993000000000000e+04" sepI="2.4886950850486755e-01" sepG="-1.0000000000000000e+00" res="-9.9000000000000000e+01" rms="0.0000000000000000e+00" nType="1" CC="0.0000000000000000e+00"/>
            <Node pos="r" depth="3" Seq="6" IVar="-1" Cut="0.0000000000000000e+00" cType="1" nS="1.2323638671875000e+04" nB="1.3139000976562500e+04" nEv="2.5462640625000000e+04" nSuw="5.0230000000000000e+03" nBuw="2.1853000000000000e+04" nEvuw="2.6876000000000000e+04" sepI="2.4974365532398224e-01" sepG="-1.0000000000000000e+00" res="-9.9000000000000000e+01" rms="0.0000000000000000e+00" nType="-1" CC="0.0000000000000000e+00"/>
          </Node>
        </Node>
        <Node pos="r" depth="1" Seq="1" IVar="9" Cut="4.2026153564453125e+01" cType="0" nS="2.3378020019531250e+03" nB="3.2931994628906250e+03" nEv="5.6310014648437500e+03" nSuw="2.7130000000000000e+03" nBuw="2.3310000000000000e+03" nEvuw="5.0440000000000000e+03" sepI="2.4280324578285217e-01" sepG="1.7974744796752930e+01" res="-9.9000000000000000e+01" rms="0.0000000000000000e+00" nType="0" CC="0.0000000000000000e+00">
          <Node pos="l" depth="2" Seq="1" IVar="0" Cut="1.6930190324783325e+00" cType="0" nS="1.2453237304687500e+03" nB="1.3720512695312500e+03" nEv="2.6173750000000000e+03" nSuw="1.7850000000000000e+03" nBuw="8.4100000000000000e+02" nEvuw="2.6260000000000000e+03" sepI="2.4941392242908478e-01" sepG="2.1674865722656250e+01" res="-9.9000000000000000e+01" rms="0.0000000000000000e+00" nType="0" CC="0.0000000000000000e+00">
            <Node pos="l" depth="3" Seq="1" IVar="-1" Cut="0.0000000000000000e+00" cType="1" nS="4.9254959106445312e+02" nB="3.1171112060546875e+02" nEv="8.0426068115234375e+02" nSuw="7.2700000000000000e+02" nBuw="1.2400000000000000e+02" nEvuw="8.5100000000000000e+02" sepI="2.3736055195331573e-01" sepG="-1.0000000000000000e+00" res="-9.9000000000000000e+01" rms="0.0000000000000000e+00" nType="1" CC="0.0000000000000000e+00"/>
            <Node pos="r" depth="3" Seq="5" IVar="-1" Cut="0.0000000000000000e+00" cType="1" nS="7.5277410888671875e+02" nB="1.0603402099609375e+03" nEv="1.8131143798828125e+03" nSuw="1.0580000000000000e+03" nBuw="7.1700000000000000e+02" nEvuw="1.7750000000000000e+03" sepI="2.4280606210231781e-01" sepG="-1.0000000000000000e+00" res="-9.9000000000000000e+01" rms="0.0000000000000000e+00" nType="-1" CC="0.0000000000000000e+00"/>
          </Node>
          <Node pos="r" depth="2" Seq="3" IVar="13" Cut="9.8366981744766235e-01" cType="1" nS="1.0924782714843750e+03" nB="1.9211480712890625e+03" nEv="3.0136264648437500e+03" nSuw="9.2800000000000000e+02" nBuw="1.4900000000000000e+03" nEvuw="2.4180000000000000e+03" sepI="2.3109728097915649e-01" sepG="9.6368045806884766e+00" res="-9.9000000000000000e+01" rms="0.0000000000000000e+00" nType="0" CC="0.0000000000000000e+00">
            <Node pos="l" depth="3" Seq="3" IVar="-1" Cut="0.0000000000000000e+00" cType="1" nS="2.0678643798828125e+02" nB="2.0257601928710938e+02" nEv="4.0936245727539062e+02" nSuw="1.5400000000000000e+02" nBuw="1.2900000000000000e+02" nEvuw="2.8300000000000000e+02" sepI="2.4997355043888092e-01" sepG="-1.0000000000000000e+00" res="-9.9000000000000000e+01" rms="0.0000000000000000e+00" nType="1" CC="0.0000000000000000e+00"/>
            <Node pos="r" depth="3" Seq="7" IVar="-1" Cut="0.0000000000000000e+00" cType="1" nS="8.8569183349609375e+02" nB="1.7185721435546875e+03" nEv="2.6042639160156250e+03" nSuw="7.7400000000000000e+02" nBuw="1.3610000000000000e+03" nEvuw="2.1350000000000000e+03" sepI="2.2442974150180817e-01" sepG="-1.0000000000000000e+00" res="-9.9000000000000000e+01" rms="0.0000000000000000e+00" nType="-1" CC="0.0000000000000000e+00"/>
          </Node>
        </Node>
      </Node>
    </BinaryTree>
    <BinaryTree type="DecisionTree" boostWeight="1.2525367951726124e-01" itree="15">
      <Node pos="s" depth="0" Seq="0" IVar="14" Cut="1.1085137128829956e+00" cType="1" nS="2.3722431640625000e+04" nB="2.3205568359375000e+04" nEv="4.6928000000000000e+04" nSuw="1.1754000000000000e+04" nBuw="3.5174000000000000e+04" nEvuw="4.6928000000000000e+04" sepI="2.4996967613697052e-01" sepG="3.1285444259643555e+01" res="-9.9000000000000000e+01" rms="0.0000000000000000e+00" nType="0" CC="0.0000000000000000e+00">
        <Node pos="l" depth="1" Seq="0" IVar="10" Cut="4.7619048506021500e-02" cType="0" nS="2.1301804687500000e+04" nB="2.0062843750000000e+04" nEv="4.1364648437500000e+04" nSuw="9.0410000000000000e+03" nBuw="3.2843000000000000e+04" nEvuw="4.1884000000000000e+04" sepI="2.4977572262287140e-01" sepG="2.7561283111572266e+01" res="-9.9000000000000000e+01" rms="0.0000000000000000e+00" nType="0" CC="0.0000000000000000e+00">
          <Node pos="l" depth="2" Seq="0" IVar="-1" Cut="8.2458293437957764e-01" cType="1" nS="2.0915638671875000e+04" nB="1.9368431640625000e+04" nEv="4.0284070312500000e+04" nSuw="8.8590000000000000e+03" nBuw="3.2116000000000000e+04" nEvuw="4.0975000000000000e+04" sepI="2.4963121116161346e-01" sepG="-1.0000000000000000e+00" res="-9.9000000000000000e+01" rms="0.0000000000000000e+00" nType="1" CC="0.0000000000000000e+00"/>
          <Node pos="r" depth="2" Seq="2" IVar="9" Cut="2.3094833374023438e+01" cType="1" nS="3.8616604614257812e+02" nB="6.9441229248046875e+02" nEv="1.0805783691406250e+03" nSuw="1.8200000000000000e+02" nBuw="7.2700000000000000e+02" nEvuw="9.0900000000000000e+02" sepI="2.2965662181377411e-01" sepG="1.2056947708129883e+01" res="-9.9000000000000000e+01" rms="0.0000000000000000e+00" nType="0" CC="0.0000000000000000e+00">
            <Node pos="l" depth="3" Seq="2" IVar="-1" Cut="0.0000000000000000e+00" cType="1" nS="1.5647689819335938e+02" nB="1.3901487731933594e+02" nEv="2.9549179077148438e+02" nSuw="6.6000000000000000e+01" nBuw="1.8000000000000000e+02" nEvuw="2.4600000000000000e+02" sepI="2.4912695586681366e-01" sepG="-1.0000000000000000e+00" res="-9.9000000000000000e+01" rms="0.0000000000000000e+00" nType="1" CC="0.0000000000000000e+00"/>
            <Node pos="r" depth="3" Seq="6" IVar="-1" Cut="0.0000000000000000e+00" cType="1" nS="2.2968913269042969e+02" nB="5.5539739990234375e+02" nEv="7.8508654785156250e+02" nSuw="1.1600000000000000e+02" nBuw="5.4700000000000000e+02" nEvuw="6.6300000000000000e+02" sepI="2.0697087049484253e-01" sepG="-1.0000000000000000e+00" res="-9.9000000000000000e+01" rms="0.0000000000000000e+00" nType="-1" CC="0.0000000000000000e+00"/>
          </Node>
        </Node>
        <Node pos="r" depth="1" Seq="1" IVar="15" Cut="2.3403911292552948e-01" cType="1" nS="2.4206269531250000e+03" nB="3.1427243652343750e+03" nEv="5.5633510742187500e+03" nSuw="2.7130000000000000e+03" nBuw="2.3310000000000000e+03" nEvuw="5.0440000000000000e+03" sepI="2.4578829109668732e-01" sepG="1.7901296615600586e+01" res="-9.9000000000000000e+01" rms="0.0000000000000000e+00" nType="0" CC="0.0000000000000000e+00">
          <Node pos="l" depth="2" Seq="1" IVar="9" Cut="4.2026153564453125e+01" cType="0" nS="8.1686083984375000e+02" nB="7.3523986816406250e+02" nEv="1.5521007080078125e+03" nSuw="5.5200000000000000e+02" nBuw="6.3300000000000000e+02" nEvuw="1.1850000000000000e+03" sepI="2.4930864572525024e-01" sepG="9.7116746902465820e+00" res="-9.9000000000000000e+01" rms="0.0000000000000000e+00" nType="0" CC="0.0000000000000000e+00">
            <Node pos="l" depth="3" Seq="1" IVar="-1" Cut="0.0000000000000000e+00" cType="1" nS="4.4870703125000000e+02" nB="2.8738644409179688e+02" nEv="7.3609350585937500e+02" nSuw="3.9600000000000000e+02" nBuw="2.4700000000000000e+02" nEvuw="6.4300000000000000e+02" sepI="2.3799246549606323e-01" sepG="-1.0000000000000000e+00" res="-9.9000000000000000e+01" rms="0.0000000000000000e+00" nType="1" CC="0.0000000000000000e+00"/>
            <Node pos="r" depth="3" Seq="5" IVar="-1" Cut="0.0000000000000000e+00" cType="1" nS="3.6815380859375000e+02" nB="4.4785342407226562e+02" nEv="8.1600726318359375e+02" nSuw="1.5600000000000000e+02" nBuw="3.8600000000000000e+02" nEvuw="5.4200000000000000e+02" sepI="2.4761512875556946e-01" sepG="-1.0000000000000000e+00" res="-9.9000000000000000e+01" rms="0.0000000000000000e+00" nType="-1" CC="0.0000000000000000e+00"/>
          </Node>
          <Node pos="r" depth="2" Seq="3" IVar="-1" Cut="-1.0562473535537720e+00" cType="1" nS="1.6037659912109375e+03" nB="2.4074843750000000e+03" nEv="4.0112504882812500e+03" nSuw="2.1610000000000000e+03" nBuw="1.6980000000000000e+03" nEvuw="3.8590000000000000e+03" sepI="2.3996336758136749e-01" sepG="-1.0000000000000000e+00" res="-9.9000000000000000e+01" rms="0.0000000000000000e+00" nType="-1" CC="0.0000000000000000e+00"/>
        </Node>
      </Node>
    </BinaryTree>
    <BinaryTree type="DecisionTree" boostWeight="1.2439181745019851e-01" itree="16">
      <Node pos="s" depth="0" Seq="0" IVar="13" Cut="2.5998201966285706e-01" cType="0" nS="2.2602529296875000e+04" nB="2.4325472656250000e+04" nEv="4.6928000000000000e+04" nSuw="1.1754000000000000e+04" nBuw="3.5174000000000000e+04" nEvuw="4.6928000000000000e+04" sepI="2.4966301023960114e-01" sepG="2.7798347473144531e+01" res="-9.9000000000000000e+01" rms="0.0000000000000000e+00" nType="0" CC="0.0000000000000000e+00">
        <Node pos="l" depth="1" Seq="0" IVar="10" Cut="4.7619048506021500e-02" cType="0" nS="2.2409929687500000e+04" nB="2.3833970703125000e+04" nEv="4.6243898437500000e+04" nSuw="1.1553000000000000e+04" nBuw="3.4707000000000000e+04" nEvuw="4.6260000000000000e+04" sepI="2.4976293742656708e-01" sepG="1.9084512710571289e+01" res="-9.9000000000000000e+01" rms="0.0000000000000000e+00" nType="0" CC="0.0000000000000000e+00">
          <Node pos="l" depth="2" Seq="0" IVar="10" Cut="7.8072863817214966e-01" cType="1" nS="2.1976976562500000e+04" nB="2.3065072265625000e+04" nEv="4.5042050781250000e+04" nSuw="1.1319000000000000e+04" nBuw="3.3923000000000000e+04" nEvuw="4.5242000000000000e+04" sepI="2.4985410273075104e-01" sepG="2.4091777801513672e+01" res="-9.9000000000000000e+01" rms="0.0000000000000000e+00" nType="0" CC="0.0000000000000000e+00">
            <Node pos="l" depth="3" Seq="0" IVar="-1" Cut="0.0000000000000000e+00" cType="1" nS="2.7742365722656250e+03" nB="2.2400671386718750e+03" nEv="5.0143037109375000e+03" nSuw="2.4600000000000000e+03" nBuw="1.2240000000000000e+03" nEvuw="3.6840000000000000e+03" sepI="2.4716287851333618e-01" sepG="-1.0000000000000000e+00" res="-9.9000000000000000e+01" rms="0.0000000000000000e+00" nType="1" CC="0.0000000000000000e+00"/>
            <Node pos="r" depth="3" Seq="4" IVar="-1" Cut="0.0000000000000000e+00" cType="1" nS="1.9202740234375000e+04" nB="2.0825005859375000e+04" nEv="4.0027746093750000e+04" nSuw="8.8590000000000000e+03" nBuw="3.2699000000000000e+04" nEvuw="4.1558000000000000e+04" sepI="2.4958935379981995e-01" sepG="-1.0000000000000000e+00" res="-9.9000000000000000e+01" rms="0.0000000000000000e+00" nType="-1" CC="0.0000000000000000e+00"/>
          </Node>
          <Node pos="r" depth="2" Seq="2" IVar="-1" Cut="2.3094833374023438e+01" cType="1" nS="4.3295178222656250e+02" nB="7.6889709472656250e+02" nEv="1.2018488769531250e+03" nSuw="2.3400000000000000e+02" nBuw="7.8400000000000000e+02" nEvuw="1.0180000000000000e+03" sepI="2.3046661913394928e-01" sepG="-1.0000000000000000e+00" res="-9.9000000000000000e+01" rms="0.0000000000000000e+00" nType="-1" CC="0.0000000000000000e+00"/>
        </Node>
        <Node pos="r" depth="1" Seq="1" IVar="12" Cut="7.9939968883991241e-02" cType="0" nS="1.9259997558593750e+02" nB="4.9150256347656250e+02" nEv="6.8410253906250000e+02" nSuw="2.0100000000000000e+02" nBuw="4.6700000000000000e+02" nEvuw="6.6800000000000000e+02" sepI="2.0227378606796265e-01" sepG="3.1398338317871094e+01" res="-9.9000000000000000e+01" rms="0.0000000000000000e+00" nType="0" CC="0.0000000000000000e+00">
          <Node pos="l" depth="2" Seq="1" IVar="13" Cut="1.2320007197558880e-02" cType="0" nS="9.4299598693847656e+01" nB="3.6146415710449219e+01" nEv="1.3044601440429688e+02" nSuw="1.5000000000000000e+02" nBuw="1.2000000000000000e+01" nEvuw="1.6200000000000000e+02" sepI="2.0031498372554779e-01" sepG="6.0878639221191406e+00" res="-9.9000000000000000e+01" rms="0.0000000000000000e+00" nType="0" CC="0.0000000000000000e+00">
            <Node pos="l" depth="3" Seq="1" IVar="-1" Cut="0.0000000000000000e+00" cType="1" nS="6.9152015686035156e+01" nB="7.3071737289428711e+00" nEv="7.6459190368652344e+01" nSuw="1.0500000000000000e+02" nBuw="6.0000000000000000e+00" nEvuw="1.1100000000000000e+02" sepI="8.6436048150062561e-02" sepG="-1.0000000000000000e+00" res="-9.9000000000000000e+01" rms="0.0000000000000000e+00" nType="1" CC="0.0000000000000000e+00"/>
            <Node pos="r" depth="3" Seq="5" IVar="-1" Cut="0.0000000000000000e+00" cType="1" nS="2.5147586822509766e+01" nB="2.8839239120483398e+01" nEv="5.3986827850341797e+01" nSuw="4.5000000000000000e+01" nBuw="6.0000000000000000e+00" nEvuw="5.1000000000000000e+01" sepI="2.4883101880550385e-01" sepG="-1.0000000000000000e+00" res="-9.9000000000000000e+01" rms="0.0000000000000000e+00" nType="-1" CC="0.0000000000000000e+00"/>
          </Node>
          <Node pos="r" depth="2" Seq="3" IVar="-1" Cut="1.2379067018628120e-02" cType="1" nS="9.8300376892089844e+01" nB="4.5535617065429688e+02" nEv="5.5365655517578125e+02" nSuw="5.1000000000000000e+01" nBuw="4.5500000000000000e+02" nEvuw="5.0600000000000000e+02" sepI="1.4602443575859070e-01" sepG="-1.0000000000000000e+00" res="-9.9000000000000000e+01" rms="0.0000000000000000e+00" nType="-1" CC="0.0000000000000000e+00"/>
        </Node>
      </Node>
    </BinaryTree>
    <BinaryTree type="DecisionTree" boostWeight="1.5339556100499779e-01" itree="17">
      <Node pos="s" depth="0" Seq="0" IVar="13" Cut="2.5998201966285706e-01" cType="0" nS="2.3744880859375000e+04" nB="2.3183119140625000e+04" nEv="4.6928000000000000e+04" nSuw="1.1754000000000000e+04" nBuw="3.5174000000000000e+04" nEvuw="4.6928000000000000e+04" sepI="2.4996417760848999e-01" sepG="2.9003936767578125e+01" res="-9.9000000000000000e+01" rms="0.0000000000000000e+00" nType="0" CC="0.0000000000000000e+00">
        <Node pos="l" depth="1" Seq="0" IVar="11" Cut="1.4285714626312256e+00" cType="1" nS="2.3548150390625000e+04" nB="2.2719451171875000e+04" nEv="4.6267601562500000e+04" nSuw="1.1553000000000000e+04" nBuw="3.4707000000000000e+04" nEvuw="4.6260000000000000e+04" sepI="2.4991980195045471e-01" sepG="2.0645748138427734e+01" res="-9.9000000000000000e+01" rms="0.0000000000000000e+00" nType="0" CC="0.0000000000000000e+00">
          <Node pos="l" depth="2" Seq="0" IVar="-1" Cut="7.6704742431640625e+01" cType="0" nS="1.7500671875000000e+04" nB="1.6027000976562500e+04" nEv="3.3527671875000000e+04" nSuw="5.5150000000000000e+03" nBuw="3.0800000000000000e+04" nEvuw="3.6315000000000000e+04" sepI="2.4951700866222382e-01" sepG="-1.0000000000000000e+00" res="-9.9000000000000000e+01" rms="0.0000000000000000e+00" nType="1" CC="0.0000000000000000e+00"/>
          <Node pos="r" depth="2" Seq="2" IVar="15" Cut="1.8463738262653351e-01" cType="1" nS="6.0474780273437500e+03" nB="6.6924492187500000e+03" nEv="1.2739926757812500e+04" nSuw="6.0380000000000000e+03" nBuw="3.9070000000000000e+03" nEvuw="9.9450000000000000e+03" sepI="2.4935925006866455e-01" sepG="4.7426002502441406e+01" res="-9.9000000000000000e+01" rms="0.0000000000000000e+00" nType="0" CC="0.0000000000000000e+00">
            <Node pos="l" depth="3" Seq="2" IVar="-1" Cut="0.0000000000000000e+00" cType="1" nS="1.7584097900390625e+03" nB="1.2504444580078125e+03" nEv="3.0088542480468750e+03" nSuw="7.1100000000000000e+02" nBuw="1.5030000000000000e+03" nEvuw="2.2140000000000000e+03" sepI="2.4287465214729309e-01" sepG="-1.0000000000000000e+00" res="-9.9000000000000000e+01" rms="0.0000000000000000e+00" nType="1" CC="0.0000000000000000e+00"/>
            <Node pos="r" depth="3" Seq="6" IVar="-1" Cut="0.0000000000000000e+00" cType="1" nS="4.2890683593750000e+03" nB="5.4420048828125000e+03" nEv="9.7310732421875000e+03" nSuw="5.3270000000000000e+03" nBuw="2.4040000000000000e+03" nEvuw="7.7310000000000000e+03" sepI="2.4649062752723694e-01" sepG="-1.0000000000000000e+00" res="-9.9000000000000000e+01" rms="0.0000000000000000e+00" nType="-1" CC="0.0000000000000000e+00"/>
          </Node>
        </Node>
        <Node pos="r" depth="1" Seq="1" IVar="17" Cut="6.4916735887527466e-01" cType="0" nS="1.9673168945312500e+02" nB="4.6366928100585938e+02" nEv="6.6040093994140625e+02" nSuw="2.0100000000000000e+02" nBuw="4.6700000000000000e+02" nEvuw="6.6800000000000000e+02" sepI="2.0915451645851135e-01" sepG="2.8996292114257812e+01" res="-9.9000000000000000e+01" rms="0.0000000000000000e+00" nType="0" CC="0.0000000000000000e+00">
          <Node pos="l" depth="2" Seq="1" IVar="11" Cut="1.2380952835083008e+00" cType="1" nS="1.1493021392822266e+02" nB="6.4307281494140625e+01" nEv="1.7923750305175781e+02" nSuw="1.3900000000000000e+02" nBuw="2.6000000000000000e+01" nEvuw="1.6500000000000000e+02" sepI="2.3005762696266174e-01" sepG="9.1735334396362305e+00" res="-9.9000000000000000e+01" rms="0.0000000000000000e+00" nType="0" CC="0.0000000000000000e+00">
            <Node pos="l" depth="3" Seq="1" IVar="-1" Cut="0.0000000000000000e+00" cType="1" nS="9.1886436462402344e+01" nB="2.0866186141967773e+01" nEv="1.1275262451171875e+02" nSuw="7.8000000000000000e+01" nBuw="2.0000000000000000e+01" nEvuw="9.8000000000000000e+01" sepI="1.5081384778022766e-01" sepG="-1.0000000000000000e+00" res="-9.9000000000000000e+01" rms="0.0000000000000000e+00" nType="1" CC="0.0000000000000000e+00"/>
            <Node pos="r" depth="3" Seq="5" IVar="-1" Cut="0.0000000000000000e+00" cType="1" nS="2.3043779373168945e+01" nB="4.3441093444824219e+01" nEv="6.6484870910644531e+01" nSuw="6.1000000000000000e+01" nBuw="6.0000000000000000e+00" nEvuw="6.7000000000000000e+01" sepI="2.2646899521350861e-01" sepG="-1.0000000000000000e+00" res="-9.9000000000000000e+01" rms="0.0000000000000000e+00" nType="-1" CC="0.0000000000000000e+00"/>
          </Node>
          <Node pos="r" depth="2" Seq="3" IVar="12" Cut="1.6287085413932800e-01" cType="0" nS="8.1801467895507812e+01" nB="3.9936199951171875e+02" nEv="4.8116345214843750e+02" nSuw="6.2000000000000000e+01" nBuw="4.4100000000000000e+02" nEvuw="5.0300000000000000e+02" sepI="1.4110505580902100e-01" sepG="1.7517730712890625e+01" res="-9.9000000000000000e+01" rms="0.0000000000000000e+00" nType="0" CC="0.0000000000000000e+00">
            <Node pos="l" depth="3" Seq="3" IVar="-1" Cut="0.0000000000000000e+00" cType="1" nS="3.1882820129394531e+01" nB="7.5420923233032227e+00" nEv="3.9424911499023438e+01" nSuw="3.8000000000000000e+01" nBuw="3.0000000000000000e+00" nEvuw="4.1000000000000000e+01" sepI="1.5470598638057709e-01" sepG="-1.0000000000000000e+00" res="-9.9000000000000000e+01" rms="0.0000000000000000e+00" nType="1" CC="0.0000000000000000e+00"/>
            <Node pos="r" depth="3" Seq="7" IVar="-1" Cut="0.0000000000000000e+00" cType="1" nS="4.9918651580810547e+01" nB="3.9181988525390625e+02" nEv="4.4173855590820312e+02" nSuw="2.4000000000000000e+01" nBuw="4.3800000000000000e+02" nEvuw="4.6200000000000000e+02" sepI="1.0023484379053116e-01" sepG="-1.0000000000000000e+00" res="-9.9000000000000000e+01" rms="0.0000000000000000e+00" nType="-1" CC="0.0000000000000000e+00"/>
          </Node>
        </Node>
      </Node>
    </BinaryTree>
    <BinaryTree type="DecisionTree" boostWeight="9.8291253087204308e-02" itree="18">
