<?xml version="1.0"?>
<MethodSetup Method="BDT::BDT">
  <GeneralInfo>
    <Info name="TMVA Release" value="4.0.7 [262151]"/>
    <Info name="ROOT Release" value="5.27/06 [334598]"/>
    <Info name="Creator" value="ivo"/>
    <Info name="Date" value="Fri Apr 27 14:25:13 2012"/>
    <Info name="Host" value="Linux lxbuild051.cern.ch 2.6.18-238.1.1.el5 #1 SMP Wed Jan 19 11:06:36 CET 2011 x86_64 x86_64 x86_64 GNU/Linux"/>
    <Info name="Dir" value="/grid_mnt/vol__vol1__u/llr/cms/ivo/PFAntiElecMVA/CMSSW_4_2_8_patch7/src/IvoNaranjo/ElectronsStudies/test/Macros/tmva"/>
    <Info name="Training events" value="18775"/>
    <Info name="TrainingTime" value="20.6048"/>
    <Info name="AnalysisType" value="Classification"/>
  </GeneralInfo>
  <Options>
    <Option name="V" modified="Yes">False</Option>
    <Option name="VerbosityLevel" modified="No">Default</Option>
    <Option name="VarTransform" modified="No">None</Option>
    <Option name="H" modified="Yes">False</Option>
    <Option name="CreateMVAPdfs" modified="No">False</Option>
    <Option name="IgnoreNegWeightsInTraining" modified="No">False</Option>
    <Option name="NTrees" modified="Yes">400</Option>
    <Option name="BoostType" modified="Yes">AdaBoost</Option>
    <Option name="AdaBoostR2Loss" modified="No">quadratic</Option>
    <Option name="UseBaggedGrad" modified="No">False</Option>
    <Option name="GradBaggingFraction" modified="No">6.000000e-01</Option>
    <Option name="Shrinkage" modified="No">1.000000e+00</Option>
    <Option name="AdaBoostBeta" modified="No">1.000000e+00</Option>
    <Option name="UseRandomisedTrees" modified="No">False</Option>
    <Option name="UseNvars" modified="No">2</Option>
    <Option name="UseNTrainEvents" modified="No">18775</Option>
    <Option name="UseWeightedTrees" modified="No">True</Option>
    <Option name="UseYesNoLeaf" modified="No">True</Option>
    <Option name="NodePurityLimit" modified="No">5.000000e-01</Option>
    <Option name="SeparationType" modified="Yes">giniindex</Option>
    <Option name="nEventsMin" modified="No">40</Option>
    <Option name="nCuts" modified="Yes">20</Option>
    <Option name="PruneStrength" modified="No">-1.000000e+00</Option>
    <Option name="PruneMethod" modified="Yes">nopruning</Option>
    <Option name="PruneBeforeBoost" modified="No">False</Option>
    <Option name="PruningValFraction" modified="No">5.000000e-01</Option>
    <Option name="NNodesMax" modified="No">100000</Option>
    <Option name="MaxDepth" modified="No">3</Option>
  </Options>
  <Variables NVar="19">
    <Variable VarIndex="0" Expression="Elec_EtotOverPin" Label="Elec_EtotOverPin" Title="EtotOverPin" Unit="     " Internal="Elec_EtotOverPin" Type="F" Min="-99" Max="32.788"/>
    <Variable VarIndex="1" Expression="Elec_EgammaOverPdif" Label="Elec_EgammaOverPdif" Title="EgammaOverPdif" Unit="     " Internal="Elec_EgammaOverPdif" Type="F" Min="-2520.12" Max="7613.11"/>
    <Variable VarIndex="2" Expression="Elec_LateBrem" Label="Elec_LateBrem" Title="LateBrem" Unit="     " Internal="Elec_LateBrem" Type="I" Min="-2" Max="1"/>
    <Variable VarIndex="3" Expression="Elec_Fbrem" Label="Elec_Fbrem" Title="Fbrem" Unit="     " Internal="Elec_Fbrem" Type="F" Min="-9.56752" Max="0.999228"/>
    <Variable VarIndex="4" Expression="Elec_Chi2GSF" Label="Elec_Chi2GSF" Title="Elec_Chi2GSF" Unit="     " Internal="Elec_Chi2GSF" Type="F" Min="0.175881" Max="348.159"/>
    <Variable VarIndex="5" Expression="Elec_NumHits" Label="Elec_NumHits" Title="NumHits" Unit="     " Internal="Elec_NumHits" Type="I" Min="-99" Max="32"/>
    <Variable VarIndex="6" Expression="Elec_GSFTrackResol" Label="Elec_GSFTrackResol" Title="Elec_GSFTrackResol" Unit="     " Internal="Elec_GSFTrackResol" Type="F" Min="0.0110693" Max="38788"/>
    <Variable VarIndex="7" Expression="Elec_GSFTracklnPt" Label="Elec_GSFTracklnPt" Title="Elec_GSFTracklnPt" Unit="     " Internal="Elec_GSFTracklnPt" Type="F" Min="-0.752688" Max="36.6289"/>
    <Variable VarIndex="8" Expression="Elec_GSFTrackEta" Label="Elec_GSFTrackEta" Title="Elec_GSFTrackEta" Unit="     " Internal="Elec_GSFTrackEta" Type="F" Min="-2.62934" Max="2.58559"/>
    <Variable VarIndex="9" Expression="Tau_Eta" Label="Tau_Eta" Title="PFTauEta" Unit="     " Internal="Tau_Eta" Type="F" Min="-2.29986" Max="2.29932"/>
    <Variable VarIndex="10" Expression="Tau_Pt" Label="Tau_Pt" Title="TauPt" Unit="     " Internal="Tau_Pt" Type="F" Min="15.0025" Max="249.093"/>
    <Variable VarIndex="11" Expression="Tau_EmFraction" Label="Tau_EmFraction" Title="TauEmFraction" Unit="     " Internal="Tau_EmFraction" Type="F" Min="0.0215318" Max="1"/>
    <Variable VarIndex="12" Expression="Tau_NumGammaCands" Label="Tau_NumGammaCands" Title="TauNumGammaCands" Unit="     " Internal="Tau_NumGammaCands" Type="I" Min="1" Max="8"/>
    <Variable VarIndex="13" Expression="Tau_HadrHoP" Label="Tau_HadrHoP" Title="TauHadrHoP" Unit="     " Internal="Tau_HadrHoP" Type="F" Min="0" Max="2.63028"/>
    <Variable VarIndex="14" Expression="Tau_HadrEoP" Label="Tau_HadrEoP" Title="TauHadrEoP" Unit="     " Internal="Tau_HadrEoP" Type="F" Min="-0.273302" Max="9.5987"/>
    <Variable VarIndex="15" Expression="Tau_VisMass" Label="Tau_VisMass" Title="TauVisMass" Unit="     " Internal="Tau_VisMass" Type="F" Min="0.301744" Max="1.43843"/>
    <Variable VarIndex="16" Expression="Tau_GammaEtaMom" Label="Tau_GammaEtaMom" Title="Tau_GammaEtaMom" Unit="     " Internal="Tau_GammaEtaMom" Type="F" Min="1.51653e-05" Max="4.68483"/>
    <Variable VarIndex="17" Expression="Tau_GammaPhiMom" Label="Tau_GammaPhiMom" Title="Tau_GammaPhiMom" Unit="     " Internal="Tau_GammaPhiMom" Type="F" Min="0.00015162" Max="7.82647"/>
    <Variable VarIndex="18" Expression="Tau_GammaEnFrac" Label="Tau_GammaEnFrac" Title="GammaEnFrac" Unit="     " Internal="Tau_GammaEnFrac" Type="F" Min="0.0129693" Max="0.988738"/>
  </Variables>
  <Spectators NSpec="0"/>
  <Transformations NTransformations="0"/>
  <MVAPdfs/>
  <Weights NTrees="400" TreeType="0">
    <BinaryTree type="DecisionTree" boostWeight="1.3769993798451741e+00" itree="0">
      <Node pos="s" depth="0" Seq="0" IVar="18" Cut="9.4227272272109985e-01" cType="1" nS="9.7700000000000000e+03" nB="9.0050000000000000e+03" nEv="1.8775000000000000e+04" nSuw="9.7700000000000000e+03" nBuw="9.0050000000000000e+03" nEvuw="1.8775000000000000e+04" sepI="2.4958494305610657e-01" sepG="9.9830126953125000e+02" res="-9.9000000000000000e+01" rms="0.0000000000000000e+00" nType="0" CC="0.0000000000000000e+00">
        <Node pos="l" depth="1" Seq="0" IVar="13" Cut="2.1558158099651337e-01" cType="0" nS="8.9390000000000000e+03" nB="4.4830000000000000e+03" nEv="1.3422000000000000e+04" nSuw="8.9390000000000000e+03" nBuw="4.4830000000000000e+03" nEvuw="1.3422000000000000e+04" sepI="2.2244527935981750e-01" sepG="4.4758963012695312e+02" res="-9.9000000000000000e+01" rms="0.0000000000000000e+00" nType="0" CC="0.0000000000000000e+00">
          <Node pos="l" depth="2" Seq="0" IVar="-1" Cut="8.9798444509506226e-01" cType="1" nS="5.6510000000000000e+03" nB="9.9400000000000000e+02" nEv="6.6450000000000000e+03" nSuw="5.6510000000000000e+03" nBuw="9.9400000000000000e+02" nEvuw="6.6450000000000000e+03" sepI="1.2721014022827148e-01" sepG="-1.0000000000000000e+00" res="-9.9000000000000000e+01" rms="0.0000000000000000e+00" nType="1" CC="0.0000000000000000e+00"/>
          <Node pos="r" depth="2" Seq="2" IVar="16" Cut="5.3100913763046265e-01" cType="0" nS="3.2880000000000000e+03" nB="3.4890000000000000e+03" nEv="6.7770000000000000e+03" nSuw="3.2880000000000000e+03" nBuw="3.4890000000000000e+03" nEvuw="6.7770000000000000e+03" sepI="2.4978008866310120e-01" sepG="2.4426245117187500e+02" res="-9.9000000000000000e+01" rms="0.0000000000000000e+00" nType="0" CC="0.0000000000000000e+00">
            <Node pos="l" depth="3" Seq="2" IVar="-1" Cut="0.0000000000000000e+00" cType="1" nS="1.9660000000000000e+03" nB="7.8400000000000000e+02" nEv="2.7500000000000000e+03" nSuw="1.9660000000000000e+03" nBuw="7.8400000000000000e+02" nEvuw="2.7500000000000000e+03" sepI="2.0381408929824829e-01" sepG="-1.0000000000000000e+00" res="-9.9000000000000000e+01" rms="0.0000000000000000e+00" nType="1" CC="0.0000000000000000e+00"/>
            <Node pos="r" depth="3" Seq="6" IVar="-1" Cut="0.0000000000000000e+00" cType="1" nS="1.3220000000000000e+03" nB="2.7050000000000000e+03" nEv="4.0270000000000000e+03" nSuw="1.3220000000000000e+03" nBuw="2.7050000000000000e+03" nEvuw="4.0270000000000000e+03" sepI="2.2051364183425903e-01" sepG="-1.0000000000000000e+00" res="-9.9000000000000000e+01" rms="0.0000000000000000e+00" nType="-1" CC="0.0000000000000000e+00"/>
          </Node>
        </Node>
        <Node pos="r" depth="1" Seq="1" IVar="10" Cut="5.9614845275878906e+01" cType="0" nS="8.3100000000000000e+02" nB="4.5220000000000000e+03" nEv="5.3530000000000000e+03" nSuw="8.3100000000000000e+02" nBuw="4.5220000000000000e+03" nEvuw="5.3530000000000000e+03" sepI="1.3114057481288910e-01" sepG="9.8863777160644531e+01" res="-9.9000000000000000e+01" rms="0.0000000000000000e+00" nType="0" CC="0.0000000000000000e+00">
          <Node pos="l" depth="2" Seq="1" IVar="18" Cut="9.8164314031600952e-01" cType="1" nS="2.3100000000000000e+02" nB="1.1100000000000000e+02" nEv="3.4200000000000000e+02" nSuw="2.3100000000000000e+02" nBuw="1.1100000000000000e+02" nEvuw="3.4200000000000000e+02" sepI="2.1922129392623901e-01" sepG="1.2234553337097168e+01" res="-9.9000000000000000e+01" rms="0.0000000000000000e+00" nType="0" CC="0.0000000000000000e+00">
            <Node pos="l" depth="3" Seq="1" IVar="-1" Cut="0.0000000000000000e+00" cType="1" nS="2.2200000000000000e+02" nB="7.4000000000000000e+01" nEv="2.9600000000000000e+02" nSuw="2.2200000000000000e+02" nBuw="7.4000000000000000e+01" nEvuw="2.9600000000000000e+02" sepI="1.8750000000000000e-01" sepG="-1.0000000000000000e+00" res="-9.9000000000000000e+01" rms="0.0000000000000000e+00" nType="1" CC="0.0000000000000000e+00"/>
            <Node pos="r" depth="3" Seq="5" IVar="-1" Cut="0.0000000000000000e+00" cType="1" nS="9.0000000000000000e+00" nB="3.7000000000000000e+01" nEv="4.6000000000000000e+01" nSuw="9.0000000000000000e+00" nBuw="3.7000000000000000e+01" nEvuw="4.6000000000000000e+01" sepI="1.5737240016460419e-01" sepG="-1.0000000000000000e+00" res="-9.9000000000000000e+01" rms="0.0000000000000000e+00" nType="-1" CC="0.0000000000000000e+00"/>
          </Node>
          <Node pos="r" depth="2" Seq="3" IVar="-1" Cut="5.6046829223632812e+00" cType="1" nS="6.0000000000000000e+02" nB="4.4110000000000000e+03" nEv="5.0110000000000000e+03" nSuw="6.0000000000000000e+02" nBuw="4.4110000000000000e+03" nEvuw="5.0110000000000000e+03" sepI="1.0539972782135010e-01" sepG="-1.0000000000000000e+00" res="-9.9000000000000000e+01" rms="0.0000000000000000e+00" nType="-1" CC="0.0000000000000000e+00"/>
        </Node>
      </Node>
    </BinaryTree>
    <BinaryTree type="DecisionTree" boostWeight="8.7318018116896545e-01" itree="1">
      <Node pos="s" depth="0" Seq="0" IVar="7" Cut="6.3676104545593262e+00" cType="1" nS="9.7002939453125000e+03" nB="9.0747050781250000e+03" nEv="1.8775000000000000e+04" nSuw="9.7700000000000000e+03" nBuw="9.0050000000000000e+03" nEvuw="1.8775000000000000e+04" sepI="2.4972243607044220e-01" sepG="6.7954467773437500e+02" res="-9.9000000000000000e+01" rms="0.0000000000000000e+00" nType="0" CC="0.0000000000000000e+00">
        <Node pos="l" depth="1" Seq="0" IVar="7" Cut="5.6894006729125977e+00" cType="1" nS="6.2776962890625000e+03" nB="2.4253195800781250e+03" nEv="8.7030156250000000e+03" nSuw="6.5500000000000000e+03" nBuw="2.0540000000000000e+03" nEvuw="8.6040000000000000e+03" sepI="2.0101557672023773e-01" sepG="5.5480491638183594e+01" res="-9.9000000000000000e+01" rms="0.0000000000000000e+00" nType="0" CC="0.0000000000000000e+00">
          <Node pos="l" depth="2" Seq="0" IVar="-1" Cut="4.9399563670158386e-01" cType="1" nS="4.9328002929687500e+03" nB="1.4816346435546875e+03" nEv="6.4144345703125000e+03" nSuw="5.2170000000000000e+03" nBuw="1.2610000000000000e+03" nEvuw="6.4780000000000000e+03" sepI="1.7763063311576843e-01" sepG="-1.0000000000000000e+00" res="-9.9000000000000000e+01" rms="0.0000000000000000e+00" nType="1" CC="0.0000000000000000e+00"/>
          <Node pos="r" depth="2" Seq="2" IVar="18" Cut="8.4886705875396729e-01" cType="1" nS="1.3448964843750000e+03" nB="9.4368493652343750e+02" nEv="2.2885812988281250e+03" nSuw="1.3330000000000000e+03" nBuw="7.9300000000000000e+02" nEvuw="2.1260000000000000e+03" sepI="2.4231658875942230e-01" sepG="1.9911069869995117e+01" res="-9.9000000000000000e+01" rms="0.0000000000000000e+00" nType="0" CC="0.0000000000000000e+00">
            <Node pos="l" depth="3" Seq="2" IVar="-1" Cut="0.0000000000000000e+00" cType="1" nS="8.8366406250000000e+02" nB="4.4068472290039062e+02" nEv="1.3243487548828125e+03" nSuw="9.4900000000000000e+02" nBuw="3.6600000000000000e+02" nEvuw="1.3150000000000000e+03" sepI="2.2202937304973602e-01" sepG="-1.0000000000000000e+00" res="-9.9000000000000000e+01" rms="0.0000000000000000e+00" nType="1" CC="0.0000000000000000e+00"/>
            <Node pos="r" depth="3" Seq="6" IVar="-1" Cut="0.0000000000000000e+00" cType="1" nS="4.6123236083984375e+02" nB="5.0300018310546875e+02" nEv="9.6423254394531250e+02" nSuw="3.8400000000000000e+02" nBuw="4.2700000000000000e+02" nEvuw="8.1100000000000000e+02" sepI="2.4953091144561768e-01" sepG="-1.0000000000000000e+00" res="-9.9000000000000000e+01" rms="0.0000000000000000e+00" nType="-1" CC="0.0000000000000000e+00"/>
          </Node>
        </Node>
        <Node pos="r" depth="1" Seq="1" IVar="14" Cut="2.0935904979705811e-01" cType="0" nS="3.4225979003906250e+03" nB="6.6493857421875000e+03" nEv="1.0071983398437500e+04" nSuw="3.2200000000000000e+03" nBuw="6.9510000000000000e+03" nEvuw="1.0171000000000000e+04" sepI="2.2434034943580627e-01" sepG="1.2674925231933594e+02" res="-9.9000000000000000e+01" rms="0.0000000000000000e+00" nType="0" CC="0.0000000000000000e+00">
          <Node pos="l" depth="2" Seq="1" IVar="18" Cut="8.9638245105743408e-01" cType="1" nS="2.1793955078125000e+03" nB="2.5742299804687500e+03" nEv="4.7536254882812500e+03" nSuw="2.0820000000000000e+03" nBuw="2.5170000000000000e+03" nEvuw="4.5990000000000000e+03" sepI="2.4827527999877930e-01" sepG="5.1950038909912109e+01" res="-9.9000000000000000e+01" rms="0.0000000000000000e+00" nType="0" CC="0.0000000000000000e+00">
            <Node pos="l" depth="3" Seq="1" IVar="-1" Cut="0.0000000000000000e+00" cType="1" nS="1.6625501708984375e+03" nB="1.4482845458984375e+03" nEv="3.1108347167968750e+03" nSuw="1.6240000000000000e+03" nBuw="1.3470000000000000e+03" nEvuw="2.9710000000000000e+03" sepI="2.4881398677825928e-01" sepG="-1.0000000000000000e+00" res="-9.9000000000000000e+01" rms="0.0000000000000000e+00" nType="1" CC="0.0000000000000000e+00"/>
            <Node pos="r" depth="3" Seq="5" IVar="-1" Cut="0.0000000000000000e+00" cType="1" nS="5.1684539794921875e+02" nB="1.1259454345703125e+03" nEv="1.6427908935546875e+03" nSuw="4.5800000000000000e+02" nBuw="1.1700000000000000e+03" nEvuw="1.6280000000000000e+03" sepI="2.1563212573528290e-01" sepG="-1.0000000000000000e+00" res="-9.9000000000000000e+01" rms="0.0000000000000000e+00" nType="-1" CC="0.0000000000000000e+00"/>
          </Node>
          <Node pos="r" depth="2" Seq="3" IVar="11" Cut="4.5666778087615967e-01" cType="1" nS="1.2432023925781250e+03" nB="4.0751560058593750e+03" nEv="5.3183583984375000e+03" nSuw="1.1380000000000000e+03" nBuw="4.4340000000000000e+03" nEvuw="5.5720000000000000e+03" sepI="1.7911455035209656e-01" sepG="3.7067695617675781e+01" res="-9.9000000000000000e+01" rms="0.0000000000000000e+00" nType="0" CC="0.0000000000000000e+00">
            <Node pos="l" depth="3" Seq="3" IVar="-1" Cut="0.0000000000000000e+00" cType="1" nS="1.3622639465332031e+02" nB="7.5325950622558594e+01" nEv="2.1155235290527344e+02" nSuw="1.8200000000000000e+02" nBuw="6.4000000000000000e+01" nEvuw="2.4600000000000000e+02" sepI="2.2928212583065033e-01" sepG="-1.0000000000000000e+00" res="-9.9000000000000000e+01" rms="0.0000000000000000e+00" nType="1" CC="0.0000000000000000e+00"/>
            <Node pos="r" depth="3" Seq="7" IVar="-1" Cut="0.0000000000000000e+00" cType="1" nS="1.1069760742187500e+03" nB="3.9998300781250000e+03" nEv="5.1068061523437500e+03" nSuw="9.5600000000000000e+02" nBuw="4.3700000000000000e+03" nEvuw="5.3260000000000000e+03" sepI="1.6977785527706146e-01" sepG="-1.0000000000000000e+00" res="-9.9000000000000000e+01" rms="0.0000000000000000e+00" nType="-1" CC="0.0000000000000000e+00"/>
          </Node>
        </Node>
      </Node>
    </BinaryTree>
    <BinaryTree type="DecisionTree" boostWeight="5.7242023923011232e-01" itree="2">
      <Node pos="s" depth="0" Seq="0" IVar="0" Cut="1.4099295139312744e+00" cType="0" nS="8.9366357421875000e+03" nB="9.8383642578125000e+03" nEv="1.8775000000000000e+04" nSuw="9.7700000000000000e+03" nBuw="9.0050000000000000e+03" nEvuw="1.8775000000000000e+04" sepI="2.4942332506179810e-01" sepG="1.6037780761718750e+02" res="-9.9000000000000000e+01" rms="0.0000000000000000e+00" nType="0" CC="0.0000000000000000e+00">
        <Node pos="l" depth="1" Seq="0" IVar="11" Cut="8.6021882295608521e-01" cType="1" nS="3.3138261718750000e+03" nB="2.0054619140625000e+03" nEv="5.3192880859375000e+03" nSuw="3.8690000000000000e+03" nBuw="1.7570000000000000e+03" nEvuw="5.6260000000000000e+03" sepI="2.3487517237663269e-01" sepG="3.4047325134277344e+01" res="-9.9000000000000000e+01" rms="0.0000000000000000e+00" nType="0" CC="0.0000000000000000e+00">
          <Node pos="l" depth="2" Seq="0" IVar="-1" Cut="8.0297970771789551e-01" cType="1" nS="1.5155535888671875e+03" nB="5.8330560302734375e+02" nEv="2.0988593750000000e+03" nSuw="2.4340000000000000e+03" nBuw="3.1800000000000000e+02" nEvuw="2.7520000000000000e+03" sepI="2.0067849755287170e-01" sepG="-1.0000000000000000e+00" res="-9.9000000000000000e+01" rms="0.0000000000000000e+00" nType="1" CC="0.0000000000000000e+00"/>
          <Node pos="r" depth="2" Seq="2" IVar="15" Cut="8.7129294872283936e-01" cType="1" nS="1.7982724609375000e+03" nB="1.4221562500000000e+03" nEv="3.2204287109375000e+03" nSuw="1.4350000000000000e+03" nBuw="1.4390000000000000e+03" nEvuw="2.8740000000000000e+03" sepI="2.4658998847007751e-01" sepG="1.3671037673950195e+01" res="-9.9000000000000000e+01" rms="0.0000000000000000e+00" nType="0" CC="0.0000000000000000e+00">
            <Node pos="l" depth="3" Seq="2" IVar="-1" Cut="0.0000000000000000e+00" cType="1" nS="1.3862971191406250e+03" nB="9.2734082031250000e+02" nEv="2.3136379394531250e+03" nSuw="1.0650000000000000e+03" nBuw="7.5200000000000000e+02" nEvuw="1.8170000000000000e+03" sepI="2.4016234278678894e-01" sepG="-1.0000000000000000e+00" res="-9.9000000000000000e+01" rms="0.0000000000000000e+00" nType="1" CC="0.0000000000000000e+00"/>
            <Node pos="r" depth="3" Seq="6" IVar="-1" Cut="0.0000000000000000e+00" cType="1" nS="4.1197531127929688e+02" nB="4.9481542968750000e+02" nEv="9.0679071044921875e+02" nSuw="3.7000000000000000e+02" nBuw="6.8700000000000000e+02" nEvuw="1.0570000000000000e+03" sepI="2.4791355431079865e-01" sepG="-1.0000000000000000e+00" res="-9.9000000000000000e+01" rms="0.0000000000000000e+00" nType="-1" CC="0.0000000000000000e+00"/>
          </Node>
        </Node>
        <Node pos="r" depth="1" Seq="1" IVar="3" Cut="4.9604931473731995e-01" cType="1" nS="5.6228095703125000e+03" nB="7.8329023437500000e+03" nEv="1.3455711914062500e+04" nSuw="5.9010000000000000e+03" nBuw="7.2480000000000000e+03" nEvuw="1.3149000000000000e+04" sepI="2.4325552582740784e-01" sepG="9.1279624938964844e+01" res="-9.9000000000000000e+01" rms="0.0000000000000000e+00" nType="0" CC="0.0000000000000000e+00">
          <Node pos="l" depth="2" Seq="1" IVar="7" Cut="6.6175770759582520e+00" cType="1" nS="2.9647028808593750e+03" nB="2.8171184082031250e+03" nEv="5.7818212890625000e+03" nSuw="3.0920000000000000e+03" nBuw="2.8190000000000000e+03" nEvuw="5.9110000000000000e+03" sepI="2.4983711540699005e-01" sepG="8.5868041992187500e+01" res="-9.9000000000000000e+01" rms="0.0000000000000000e+00" nType="0" CC="0.0000000000000000e+00">
            <Node pos="l" depth="3" Seq="1" IVar="-1" Cut="0.0000000000000000e+00" cType="1" nS="1.7581979980468750e+03" nB="9.8450640869140625e+02" nEv="2.7427043457031250e+03" nSuw="2.1990000000000000e+03" nBuw="5.8400000000000000e+02" nEvuw="2.7830000000000000e+03" sepI="2.3010620474815369e-01" sepG="-1.0000000000000000e+00" res="-9.9000000000000000e+01" rms="0.0000000000000000e+00" nType="1" CC="0.0000000000000000e+00"/>
            <Node pos="r" depth="3" Seq="5" IVar="-1" Cut="0.0000000000000000e+00" cType="1" nS="1.2065050048828125e+03" nB="1.8326120605468750e+03" nEv="3.0391171875000000e+03" nSuw="8.9300000000000000e+02" nBuw="2.2350000000000000e+03" nEvuw="3.1280000000000000e+03" sepI="2.3938934504985809e-01" sepG="-1.0000000000000000e+00" res="-9.9000000000000000e+01" rms="0.0000000000000000e+00" nType="-1" CC="0.0000000000000000e+00"/>
          </Node>
          <Node pos="r" depth="2" Seq="3" IVar="-1" Cut="8.4009528160095215e-01" cType="0" nS="2.6581064453125000e+03" nB="5.0157836914062500e+03" nEv="7.6738901367187500e+03" nSuw="2.8090000000000000e+03" nBuw="4.4290000000000000e+03" nEvuw="7.2380000000000000e+03" sepI="2.2640188038349152e-01" sepG="-1.0000000000000000e+00" res="-9.9000000000000000e+01" rms="0.0000000000000000e+00" nType="-1" CC="0.0000000000000000e+00"/>
        </Node>
      </Node>
    </BinaryTree>
    <BinaryTree type="DecisionTree" boostWeight="4.0139900307940535e-01" itree="3">
      <Node pos="s" depth="0" Seq="0" IVar="5" Cut="1.3285714149475098e+01" cType="0" nS="9.5730566406250000e+03" nB="9.2019433593750000e+03" nEv="1.8775000000000000e+04" nSuw="9.7700000000000000e+03" nBuw="9.0050000000000000e+03" nEvuw="1.8775000000000000e+04" sepI="2.4990232288837433e-01" sepG="7.1158775329589844e+01" res="-9.9000000000000000e+01" rms="0.0000000000000000e+00" nType="0" CC="0.0000000000000000e+00">
        <Node pos="l" depth="1" Seq="0" IVar="16" Cut="2.1521122753620148e-01" cType="0" nS="6.2467993164062500e+03" nB="4.8910571289062500e+03" nEv="1.1137856445312500e+04" nSuw="6.3990000000000000e+03" nBuw="5.0670000000000000e+03" nEvuw="1.1466000000000000e+04" sepI="2.4629582464694977e-01" sepG="3.0700071334838867e+01" res="-9.9000000000000000e+01" rms="0.0000000000000000e+00" nType="0" CC="0.0000000000000000e+00">
          <Node pos="l" depth="2" Seq="0" IVar="-1" Cut="1.2857142686843872e+00" cType="0" nS="5.0157734375000000e+03" nB="3.4839343261718750e+03" nEv="8.4997070312500000e+03" nSuw="5.2320000000000000e+03" nBuw="3.7610000000000000e+03" nEvuw="8.9930000000000000e+03" sepI="2.4187995493412018e-01" sepG="-1.0000000000000000e+00" res="-9.9000000000000000e+01" rms="0.0000000000000000e+00" nType="1" CC="0.0000000000000000e+00"/>
          <Node pos="r" depth="2" Seq="2" IVar="15" Cut="6.3433438539505005e-01" cType="0" nS="1.2310263671875000e+03" nB="1.4071230468750000e+03" nEv="2.6381494140625000e+03" nSuw="1.1670000000000000e+03" nBuw="1.3060000000000000e+03" nEvuw="2.4730000000000000e+03" sepI="2.4888610839843750e-01" sepG="2.2701456069946289e+01" res="-9.9000000000000000e+01" rms="0.0000000000000000e+00" nType="0" CC="0.0000000000000000e+00">
            <Node pos="l" depth="3" Seq="2" IVar="-1" Cut="0.0000000000000000e+00" cType="1" nS="5.6545495605468750e+02" nB="3.9404574584960938e+02" nEv="9.5950073242187500e+02" nSuw="5.0300000000000000e+02" nBuw="5.3200000000000000e+02" nEvuw="1.0350000000000000e+03" sepI="2.4202156066894531e-01" sepG="-1.0000000000000000e+00" res="-9.9000000000000000e+01" rms="0.0000000000000000e+00" nType="1" CC="0.0000000000000000e+00"/>
            <Node pos="r" depth="3" Seq="6" IVar="-1" Cut="0.0000000000000000e+00" cType="1" nS="6.6557135009765625e+02" nB="1.0130772705078125e+03" nEv="1.6786486816406250e+03" nSuw="6.6400000000000000e+02" nBuw="7.7400000000000000e+02" nEvuw="1.4380000000000000e+03" sepI="2.3928616940975189e-01" sepG="-1.0000000000000000e+00" res="-9.9000000000000000e+01" rms="0.0000000000000000e+00" nType="-1" CC="0.0000000000000000e+00"/>
          </Node>
        </Node>
        <Node pos="r" depth="1" Seq="1" IVar="15" Cut="5.1827180385589600e-01" cType="0" nS="3.3262570800781250e+03" nB="4.3108857421875000e+03" nEv="7.6371425781250000e+03" nSuw="3.3710000000000000e+03" nBuw="3.9380000000000000e+03" nEvuw="7.3090000000000000e+03" sepI="2.4584449827671051e-01" sepG="4.8878978729248047e+01" res="-9.9000000000000000e+01" rms="0.0000000000000000e+00" nType="0" CC="0.0000000000000000e+00">
          <Node pos="l" depth="2" Seq="1" IVar="12" Cut="1.3333333730697632e+00" cType="0" nS="2.7696762695312500e+03" nB="2.9849777832031250e+03" nEv="5.7546538085937500e+03" nSuw="2.8780000000000000e+03" nBuw="2.8760000000000000e+03" nEvuw="5.7540000000000000e+03" sepI="2.4965006113052368e-01" sepG="3.3089729309082031e+01" res="-9.9000000000000000e+01" rms="0.0000000000000000e+00" nType="0" CC="0.0000000000000000e+00">
            <Node pos="l" depth="3" Seq="1" IVar="-1" Cut="0.0000000000000000e+00" cType="1" nS="1.2120692138671875e+03" nB="8.7058990478515625e+02" nEv="2.0826591796875000e+03" nSuw="1.3290000000000000e+03" nBuw="6.3500000000000000e+02" nEvuw="1.9640000000000000e+03" sepI="2.4327902495861053e-01" sepG="-1.0000000000000000e+00" res="-9.9000000000000000e+01" rms="0.0000000000000000e+00" nType="1" CC="0.0000000000000000e+00"/>
            <Node pos="r" depth="3" Seq="5" IVar="-1" Cut="0.0000000000000000e+00" cType="1" nS="1.5576070556640625e+03" nB="2.1143879394531250e+03" nEv="3.6719948730468750e+03" nSuw="1.5490000000000000e+03" nBuw="2.2410000000000000e+03" nEvuw="3.7900000000000000e+03" sepI="2.4425216019153595e-01" sepG="-1.0000000000000000e+00" res="-9.9000000000000000e+01" rms="0.0000000000000000e+00" nType="-1" CC="0.0000000000000000e+00"/>
          </Node>
          <Node pos="r" depth="2" Seq="3" IVar="-1" Cut="1.1612229347229004e+00" cType="1" nS="5.5658068847656250e+02" nB="1.3259079589843750e+03" nEv="1.8824886474609375e+03" nSuw="4.9300000000000000e+02" nBuw="1.0620000000000000e+03" nEvuw="1.5550000000000000e+03" sepI="2.0824605226516724e-01" sepG="-1.0000000000000000e+00" res="-9.9000000000000000e+01" rms="0.0000000000000000e+00" nType="-1" CC="0.0000000000000000e+00"/>
        </Node>
      </Node>
    </BinaryTree>
    <BinaryTree type="DecisionTree" boostWeight="3.3346197229569829e-01" itree="4">
      <Node pos="s" depth="0" Seq="0" IVar="11" Cut="7.6703137159347534e-01" cType="1" nS="9.1365458984375000e+03" nB="9.6384531250000000e+03" nEv="1.8775000000000000e+04" nSuw="9.7700000000000000e+03" nBuw="9.0050000000000000e+03" nEvuw="1.8775000000000000e+04" sepI="2.4982133507728577e-01" sepG="3.6218944549560547e+01" res="-9.9000000000000000e+01" rms="0.0000000000000000e+00" nType="0" CC="0.0000000000000000e+00">
        <Node pos="l" depth="1" Seq="0" IVar="18" Cut="7.5546890497207642e-01" cType="1" nS="1.9934321289062500e+03" nB="1.4473453369140625e+03" nEv="3.4407773437500000e+03" nSuw="3.3430000000000000e+03" nBuw="8.1500000000000000e+02" nEvuw="4.1580000000000000e+03" sepI="2.4370275437831879e-01" sepG="1.8604789733886719e+01" res="-9.9000000000000000e+01" rms="0.0000000000000000e+00" nType="0" CC="0.0000000000000000e+00">
          <Node pos="l" depth="2" Seq="0" IVar="-1" Cut="-1.5626152753829956e+00" cType="1" nS="1.4906055908203125e+03" nB="8.8011004638671875e+02" nEv="2.3707155761718750e+03" nSuw="2.8280000000000000e+03" nBuw="4.2500000000000000e+02" nEvuw="3.2530000000000000e+03" sepI="2.3342147469520569e-01" sepG="-1.0000000000000000e+00" res="-9.9000000000000000e+01" rms="0.0000000000000000e+00" nType="1" CC="0.0000000000000000e+00"/>
          <Node pos="r" depth="2" Seq="2" IVar="10" Cut="3.2898597717285156e+01" cType="0" nS="5.0282659912109375e+02" nB="5.6723522949218750e+02" nEv="1.0700618896484375e+03" nSuw="5.1500000000000000e+02" nBuw="3.9000000000000000e+02" nEvuw="9.0500000000000000e+02" sepI="2.4909424781799316e-01" sepG="1.8962469100952148e+01" res="-9.9000000000000000e+01" rms="0.0000000000000000e+00" nType="0" CC="0.0000000000000000e+00">
            <Node pos="l" depth="3" Seq="2" IVar="-1" Cut="0.0000000000000000e+00" cType="1" nS="2.1262637329101562e+02" nB="1.0177913665771484e+02" nEv="3.1440551757812500e+02" nSuw="2.1100000000000000e+02" nBuw="7.1000000000000000e+01" nEvuw="2.8200000000000000e+02" sepI="2.1892511844635010e-01" sepG="-1.0000000000000000e+00" res="-9.9000000000000000e+01" rms="0.0000000000000000e+00" nType="1" CC="0.0000000000000000e+00"/>
            <Node pos="r" depth="3" Seq="6" IVar="-1" Cut="0.0000000000000000e+00" cType="1" nS="2.9020022583007812e+02" nB="4.6545611572265625e+02" nEv="7.5565637207031250e+02" nSuw="3.0400000000000000e+02" nBuw="3.1900000000000000e+02" nEvuw="6.2300000000000000e+02" sepI="2.3655265569686890e-01" sepG="-1.0000000000000000e+00" res="-9.9000000000000000e+01" rms="0.0000000000000000e+00" nType="-1" CC="0.0000000000000000e+00"/>
          </Node>
        </Node>
        <Node pos="r" depth="1" Seq="1" IVar="18" Cut="6.1931610107421875e-01" cType="0" nS="7.1431142578125000e+03" nB="8.1911079101562500e+03" nEv="1.5334221679687500e+04" nSuw="6.4270000000000000e+03" nBuw="8.1900000000000000e+03" nEvuw="1.4617000000000000e+04" sepI="2.4883230030536652e-01" sepG="4.4599685668945312e+01" res="-9.9000000000000000e+01" rms="0.0000000000000000e+00" nType="0" CC="0.0000000000000000e+00">
          <Node pos="l" depth="2" Seq="1" IVar="18" Cut="9.7114640474319458e-01" cType="1" nS="5.9526069335937500e+03" nB="6.0976420898437500e+03" nEv="1.2050249023437500e+04" nSuw="5.4370000000000000e+03" nBuw="6.2810000000000000e+03" nEvuw="1.1718000000000000e+04" sepI="2.4996379017829895e-01" sepG="6.0734294891357422e+01" res="-9.9000000000000000e+01" rms="0.0000000000000000e+00" nType="0" CC="0.0000000000000000e+00">
            <Node pos="l" depth="3" Seq="1" IVar="-1" Cut="0.0000000000000000e+00" cType="1" nS="5.4970913085937500e+03" nB="5.0609433593750000e+03" nEv="1.0558035156250000e+04" nSuw="5.2850000000000000e+03" nBuw="4.0290000000000000e+03" nEvuw="9.3140000000000000e+03" sepI="2.4957337975502014e-01" sepG="-1.0000000000000000e+00" res="-9.9000000000000000e+01" rms="0.0000000000000000e+00" nType="1" CC="0.0000000000000000e+00"/>
            <Node pos="r" depth="3" Seq="5" IVar="-1" Cut="0.0000000000000000e+00" cType="1" nS="4.5551519775390625e+02" nB="1.0366984863281250e+03" nEv="1.4922137451171875e+03" nSuw="1.5200000000000000e+02" nBuw="2.2520000000000000e+03" nEvuw="2.4040000000000000e+03" sepI="2.1207687258720398e-01" sepG="-1.0000000000000000e+00" res="-9.9000000000000000e+01" rms="0.0000000000000000e+00" nType="-1" CC="0.0000000000000000e+00"/>
          </Node>
          <Node pos="r" depth="2" Seq="3" IVar="10" Cut="2.3353616714477539e+01" cType="1" nS="1.1905074462890625e+03" nB="2.0934658203125000e+03" nEv="3.2839731445312500e+03" nSuw="9.9000000000000000e+02" nBuw="1.9090000000000000e+03" nEvuw="2.8990000000000000e+03" sepI="2.3109936714172363e-01" sepG="5.9104209899902344e+01" res="-9.9000000000000000e+01" rms="0.0000000000000000e+00" nType="0" CC="0.0000000000000000e+00">
            <Node pos="l" depth="3" Seq="3" IVar="-1" Cut="0.0000000000000000e+00" cType="1" nS="5.3234063720703125e+02" nB="3.8994183349609375e+02" nEv="9.2228247070312500e+02" nSuw="4.5000000000000000e+02" nBuw="3.5800000000000000e+02" nEvuw="8.0800000000000000e+02" sepI="2.4404029548168182e-01" sepG="-1.0000000000000000e+00" res="-9.9000000000000000e+01" rms="0.0000000000000000e+00" nType="1" CC="0.0000000000000000e+00"/>
            <Node pos="r" depth="3" Seq="7" IVar="-1" Cut="0.0000000000000000e+00" cType="1" nS="6.5816674804687500e+02" nB="1.7035239257812500e+03" nEv="2.3616906738281250e+03" nSuw="5.4000000000000000e+02" nBuw="1.5510000000000000e+03" nEvuw="2.0910000000000000e+03" sepI="2.0101948082447052e-01" sepG="-1.0000000000000000e+00" res="-9.9000000000000000e+01" rms="0.0000000000000000e+00" nType="-1" CC="0.0000000000000000e+00"/>
          </Node>
        </Node>
      </Node>
    </BinaryTree>
    <BinaryTree type="DecisionTree" boostWeight="3.3463719325283126e-01" itree="5">
      <Node pos="s" depth="0" Seq="0" IVar="11" Cut="7.6703137159347534e-01" cType="1" nS="8.3180283203125000e+03" nB="1.0456970703125000e+04" nEv="1.8775000000000000e+04" nSuw="9.7700000000000000e+03" nBuw="9.0050000000000000e+03" nEvuw="1.8775000000000000e+04" sepI="2.4675527215003967e-01" sepG="3.4561687469482422e+01" res="-9.9000000000000000e+01" rms="0.0000000000000000e+00" nType="0" CC="0.0000000000000000e+00">
        <Node pos="l" depth="1" Seq="0" IVar="3" Cut="1.5933804214000702e-01" cType="1" nS="1.8093767089843750e+03" nB="1.5756646728515625e+03" nEv="3.3850412597656250e+03" nSuw="3.3430000000000000e+03" nBuw="8.1500000000000000e+02" nEvuw="4.1580000000000000e+03" sepI="2.4880827963352203e-01" sepG="1.1850262641906738e+01" res="-9.9000000000000000e+01" rms="0.0000000000000000e+00" nType="0" CC="0.0000000000000000e+00">
          <Node pos="l" depth="2" Seq="0" IVar="17" Cut="1.5241373777389526e+00" cType="1" nS="3.2753814697265625e+02" nB="1.5430978393554688e+02" nEv="4.8184793090820312e+02" nSuw="6.3100000000000000e+02" nBuw="6.3000000000000000e+01" nEvuw="6.9400000000000000e+02" sepI="2.1768842637538910e-01" sepG="6.5356907844543457e+00" res="-9.9000000000000000e+01" rms="0.0000000000000000e+00" nType="0" CC="0.0000000000000000e+00">
            <Node pos="l" depth="3" Seq="0" IVar="-1" Cut="0.0000000000000000e+00" cType="1" nS="2.9229666137695312e+02" nB="1.0653050231933594e+02" nEv="3.9882714843750000e+02" nSuw="5.5800000000000000e+02" nBuw="5.1000000000000000e+01" nEvuw="6.0900000000000000e+02" sepI="1.9576199352741241e-01" sepG="-1.0000000000000000e+00" res="-9.9000000000000000e+01" rms="0.0000000000000000e+00" nType="1" CC="0.0000000000000000e+00"/>
            <Node pos="r" depth="3" Seq="4" IVar="-1" Cut="0.0000000000000000e+00" cType="1" nS="3.5241508483886719e+01" nB="4.7779285430908203e+01" nEv="8.3020797729492188e+01" nSuw="7.3000000000000000e+01" nBuw="1.2000000000000000e+01" nEvuw="8.5000000000000000e+01" sepI="2.4429826438426971e-01" sepG="-1.0000000000000000e+00" res="-9.9000000000000000e+01" rms="0.0000000000000000e+00" nType="-1" CC="0.0000000000000000e+00"/>
          </Node>
          <Node pos="r" depth="2" Seq="2" IVar="0" Cut="-9.2724380493164062e+01" cType="0" nS="1.4818385009765625e+03" nB="1.4213548583984375e+03" nEv="2.9031933593750000e+03" nSuw="2.7120000000000000e+03" nBuw="7.5200000000000000e+02" nEvuw="3.4640000000000000e+03" sepI="2.4989148974418640e-01" sepG="1.0231531143188477e+01" res="-9.9000000000000000e+01" rms="0.0000000000000000e+00" nType="0" CC="0.0000000000000000e+00">
            <Node pos="l" depth="3" Seq="2" IVar="-1" Cut="0.0000000000000000e+00" cType="1" nS="1.3107858886718750e+03" nB="1.1341761474609375e+03" nEv="2.4449619140625000e+03" nSuw="2.5220000000000000e+03" nBuw="4.8500000000000000e+02" nEvuw="3.0070000000000000e+03" sepI="2.4869555234909058e-01" sepG="-1.0000000000000000e+00" res="-9.9000000000000000e+01" rms="0.0000000000000000e+00" nType="1" CC="0.0000000000000000e+00"/>
            <Node pos="r" depth="3" Seq="6" IVar="-1" Cut="0.0000000000000000e+00" cType="1" nS="1.7105265808105469e+02" nB="2.8717874145507812e+02" nEv="4.5823141479492188e+02" nSuw="1.9000000000000000e+02" nBuw="2.6700000000000000e+02" nEvuw="4.5700000000000000e+02" sepI="2.3394426703453064e-01" sepG="-1.0000000000000000e+00" res="-9.9000000000000000e+01" rms="0.0000000000000000e+00" nType="-1" CC="0.0000000000000000e+00"/>
          </Node>
        </Node>
        <Node pos="r" depth="1" Seq="1" IVar="17" Cut="7.4551528692245483e-01" cType="0" nS="6.5086518554687500e+03" nB="8.8813056640625000e+03" nEv="1.5389958007812500e+04" nSuw="6.4270000000000000e+03" nBuw="8.1900000000000000e+03" nEvuw="1.4617000000000000e+04" sepI="2.4405798316001892e-01" sepG="2.9799570083618164e+01" res="-9.9000000000000000e+01" rms="0.0000000000000000e+00" nType="0" CC="0.0000000000000000e+00">
          <Node pos="l" depth="2" Seq="1" IVar="0" Cut="7.1216112375259399e-01" cType="1" nS="4.2730454101562500e+03" nB="5.0481738281250000e+03" nEv="9.3212197265625000e+03" nSuw="4.3750000000000000e+03" nBuw="4.6320000000000000e+03" nEvuw="9.0070000000000000e+03" sepI="2.4827121198177338e-01" sepG="2.2631845474243164e+01" res="-9.9000000000000000e+01" rms="0.0000000000000000e+00" nType="0" CC="0.0000000000000000e+00">
            <Node pos="l" depth="3" Seq="1" IVar="-1" Cut="0.0000000000000000e+00" cType="1" nS="2.0452307128906250e+03" nB="1.9208697509765625e+03" nEv="3.9661005859375000e+03" nSuw="2.1960000000000000e+03" nBuw="1.3920000000000000e+03" nEvuw="3.5880000000000000e+03" sepI="2.4975420534610748e-01" sepG="-1.0000000000000000e+00" res="-9.9000000000000000e+01" rms="0.0000000000000000e+00" nType="1" CC="0.0000000000000000e+00"/>
            <Node pos="r" depth="3" Seq="5" IVar="-1" Cut="0.0000000000000000e+00" cType="1" nS="2.2278146972656250e+03" nB="3.1273041992187500e+03" nEv="5.3551186523437500e+03" nSuw="2.1790000000000000e+03" nBuw="3.2400000000000000e+03" nEvuw="5.4190000000000000e+03" sepI="2.4294666945934296e-01" sepG="-1.0000000000000000e+00" res="-9.9000000000000000e+01" rms="0.0000000000000000e+00" nType="-1" CC="0.0000000000000000e+00"/>
          </Node>
          <Node pos="r" depth="2" Seq="3" IVar="-1" Cut="1.1612229347229004e+00" cType="1" nS="2.2356064453125000e+03" nB="3.8331320800781250e+03" nEv="6.0687382812500000e+03" nSuw="2.0520000000000000e+03" nBuw="3.5580000000000000e+03" nEvuw="5.6100000000000000e+03" sepI="2.3267637193202972e-01" sepG="-1.0000000000000000e+00" res="-9.9000000000000000e+01" rms="0.0000000000000000e+00" nType="-1" CC="0.0000000000000000e+00"/>
        </Node>
      </Node>
    </BinaryTree>
    <BinaryTree type="DecisionTree" boostWeight="3.2784552010294965e-01" itree="6">
      <Node pos="s" depth="0" Seq="0" IVar="14" Cut="1.1369833946228027e+00" cType="1" nS="8.7271845703125000e+03" nB="1.0047815429687500e+04" nEv="1.8775000000000000e+04" nSuw="9.7700000000000000e+03" nBuw="9.0050000000000000e+03" nEvuw="1.8775000000000000e+04" sepI="2.4876306951045990e-01" sepG="2.6576864242553711e+01" res="-9.9000000000000000e+01" rms="0.0000000000000000e+00" nType="0" CC="0.0000000000000000e+00">
        <Node pos="l" depth="1" Seq="0" IVar="13" Cut="2.5050288438796997e-01" cType="1" nS="8.1693100585937500e+03" nB="8.9778955078125000e+03" nEv="1.7147205078125000e+04" nSuw="9.0100000000000000e+03" nBuw="8.3880000000000000e+03" nEvuw="1.7398000000000000e+04" sepI="2.4944408237934113e-01" sepG="2.0522190093994141e+01" res="-9.9000000000000000e+01" rms="0.0000000000000000e+00" nType="0" CC="0.0000000000000000e+00">
          <Node pos="l" depth="2" Seq="0" IVar="16" Cut="5.8135032653808594e-01" cType="1" nS="4.9771088867187500e+03" nB="4.8538999023437500e+03" nEv="9.8310087890625000e+03" nSuw="3.6310000000000000e+03" nBuw="5.2960000000000000e+03" nEvuw="8.9270000000000000e+03" sepI="2.4996073544025421e-01" sepG="5.0973922729492188e+01" res="-9.9000000000000000e+01" rms="0.0000000000000000e+00" nType="0" CC="0.0000000000000000e+00">
            <Node pos="l" depth="3" Seq="0" IVar="-1" Cut="0.0000000000000000e+00" cType="1" nS="3.1682385253906250e+03" nB="2.3967990722656250e+03" nEv="5.5650375976562500e+03" nSuw="1.5760000000000000e+03" nBuw="3.1300000000000000e+03" nEvuw="4.7060000000000000e+03" sepI="2.4519595503807068e-01" sepG="-1.0000000000000000e+00" res="-9.9000000000000000e+01" rms="0.0000000000000000e+00" nType="1" CC="0.0000000000000000e+00"/>
            <Node pos="r" depth="3" Seq="4" IVar="-1" Cut="0.0000000000000000e+00" cType="1" nS="1.8088706054687500e+03" nB="2.4571005859375000e+03" nEv="4.2659711914062500e+03" nSuw="2.0550000000000000e+03" nBuw="2.1660000000000000e+03" nEvuw="4.2210000000000000e+03" sepI="2.4422751367092133e-01" sepG="-1.0000000000000000e+00" res="-9.9000000000000000e+01" rms="0.0000000000000000e+00" nType="-1" CC="0.0000000000000000e+00"/>
          </Node>
          <Node pos="r" depth="2" Seq="2" IVar="-1" Cut="2.6152065277099609e+01" cType="0" nS="3.1922009277343750e+03" nB="4.1239956054687500e+03" nEv="7.3161962890625000e+03" nSuw="5.3790000000000000e+03" nBuw="3.0920000000000000e+03" nEvuw="8.4710000000000000e+03" sepI="2.4594482779502869e-01" sepG="-1.0000000000000000e+00" res="-9.9000000000000000e+01" rms="0.0000000000000000e+00" nType="-1" CC="0.0000000000000000e+00"/>
        </Node>
        <Node pos="r" depth="1" Seq="1" IVar="18" Cut="8.5241752862930298e-01" cType="0" nS="5.5787408447265625e+02" nB="1.0699196777343750e+03" nEv="1.6277938232421875e+03" nSuw="7.6000000000000000e+02" nBuw="6.1700000000000000e+02" nEvuw="1.3770000000000000e+03" sepI="2.2526234388351440e-01" sepG="3.8762771606445312e+01" res="-9.9000000000000000e+01" rms="0.0000000000000000e+00" nType="0" CC="0.0000000000000000e+00">
          <Node pos="l" depth="2" Seq="1" IVar="-1" Cut="4.8631175994873047e+01" cType="0" nS="2.3483618164062500e+02" nB="1.4140281677246094e+02" nEv="3.7623898315429688e+02" nSuw="2.8700000000000000e+02" nBuw="8.6000000000000000e+01" nEvuw="3.7300000000000000e+02" sepI="2.3458240926265717e-01" sepG="-1.0000000000000000e+00" res="-9.9000000000000000e+01" rms="0.0000000000000000e+00" nType="1" CC="0.0000000000000000e+00"/>
          <Node pos="r" depth="2" Seq="3" IVar="-1" Cut="6.8662846088409424e-01" cType="0" nS="3.2303790283203125e+02" nB="9.2851690673828125e+02" nEv="1.2515548095703125e+03" nSuw="4.7300000000000000e+02" nBuw="5.3100000000000000e+02" nEvuw="1.0040000000000000e+03" sepI="1.9148887693881989e-01" sepG="-1.0000000000000000e+00" res="-9.9000000000000000e+01" rms="0.0000000000000000e+00" nType="-1" CC="0.0000000000000000e+00"/>
        </Node>
      </Node>
    </BinaryTree>
    <BinaryTree type="DecisionTree" boostWeight="2.1034424166820170e-01" itree="7">
      <Node pos="s" depth="0" Seq="0" IVar="16" Cut="2.2310140728950500e-01" cType="0" nS="9.2843701171875000e+03" nB="9.4906289062500000e+03" nEv="1.8775000000000000e+04" nSuw="9.7700000000000000e+03" nBuw="9.0050000000000000e+03" nEvuw="1.8775000000000000e+04" sepI="2.4996982514858246e-01" sepG="3.5341377258300781e+01" res="-9.9000000000000000e+01" rms="0.0000000000000000e+00" nType="0" CC="0.0000000000000000e+00">
        <Node pos="l" depth="1" Seq="0" IVar="5" Cut="-9.2761901855468750e+01" cType="1" nS="7.3894282226562500e+03" nB="6.8484208984375000e+03" nEv="1.4237849609375000e+04" nSuw="8.0350000000000000e+03" nBuw="6.4620000000000000e+03" nEvuw="1.4497000000000000e+04" sepI="2.4963903427124023e-01" sepG="2.0361345291137695e+01" res="-9.9000000000000000e+01" rms="0.0000000000000000e+00" nType="0" CC="0.0000000000000000e+00">
          <Node pos="l" depth="2" Seq="0" IVar="-1" Cut="1.0823861360549927e+00" cType="1" nS="3.6661807250976562e+02" nB="1.4642620849609375e+02" nEv="5.1304431152343750e+02" nSuw="3.7600000000000000e+02" nBuw="9.8000000000000000e+01" nEvuw="4.7400000000000000e+02" sepI="2.0394966006278992e-01" sepG="-1.0000000000000000e+00" res="-9.9000000000000000e+01" rms="0.0000000000000000e+00" nType="1" CC="0.0000000000000000e+00"/>
          <Node pos="r" depth="2" Seq="2" IVar="3" Cut="1.6157373785972595e-01" cType="1" nS="7.0228100585937500e+03" nB="6.7019946289062500e+03" nEv="1.3724804687500000e+04" nSuw="7.6590000000000000e+03" nBuw="6.3640000000000000e+03" nEvuw="1.4023000000000000e+04" sepI="2.4986340105533600e-01" sepG="3.9151306152343750e+01" res="-9.9000000000000000e+01" rms="0.0000000000000000e+00" nType="0" CC="0.0000000000000000e+00">
            <Node pos="l" depth="3" Seq="2" IVar="-1" Cut="0.0000000000000000e+00" cType="1" nS="1.4062301025390625e+03" nB="8.1441784667968750e+02" nEv="2.2206479492187500e+03" nSuw="1.6550000000000000e+03" nBuw="6.3800000000000000e+02" nEvuw="2.2930000000000000e+03" sepI="2.3224386572837830e-01" sepG="-1.0000000000000000e+00" res="-9.9000000000000000e+01" rms="0.0000000000000000e+00" nType="1" CC="0.0000000000000000e+00"/>
            <Node pos="r" depth="3" Seq="6" IVar="-1" Cut="0.0000000000000000e+00" cType="1" nS="5.6165800781250000e+03" nB="5.8875771484375000e+03" nEv="1.1504157226562500e+04" nSuw="6.0040000000000000e+03" nBuw="5.7260000000000000e+03" nEvuw="1.1730000000000000e+04" sepI="2.4986127018928528e-01" sepG="-1.0000000000000000e+00" res="-9.9000000000000000e+01" rms="0.0000000000000000e+00" nType="-1" CC="0.0000000000000000e+00"/>
          </Node>
        </Node>
        <Node pos="r" depth="1" Seq="1" IVar="14" Cut="9.9421387910842896e-01" cType="1" nS="1.8949417724609375e+03" nB="2.6422077636718750e+03" nEv="4.5371494140625000e+03" nSuw="1.7350000000000000e+03" nBuw="2.5430000000000000e+03" nEvuw="4.2780000000000000e+03" sepI="2.4321852624416351e-01" sepG="2.0481031417846680e+01" res="-9.9000000000000000e+01" rms="0.0000000000000000e+00" nType="0" CC="0.0000000000000000e+00">
          <Node pos="l" depth="2" Seq="1" IVar="16" Cut="1.1677070707082748e-01" cType="0" nS="1.2769860839843750e+03" nB="1.4222564697265625e+03" nEv="2.6992424316406250e+03" nSuw="1.3680000000000000e+03" nBuw="1.3990000000000000e+03" nEvuw="2.7670000000000000e+03" sepI="2.4927587807178497e-01" sepG="6.6065135002136230e+00" res="-9.9000000000000000e+01" rms="0.0000000000000000e+00" nType="0" CC="0.0000000000000000e+00">
            <Node pos="l" depth="3" Seq="1" IVar="-1" Cut="0.0000000000000000e+00" cType="1" nS="6.2940838623046875e+02" nB="5.6086291503906250e+02" nEv="1.1902713623046875e+03" nSuw="6.8000000000000000e+02" nBuw="5.9200000000000000e+02" nEvuw="1.2720000000000000e+03" sepI="2.4917089939117432e-01" sepG="-1.0000000000000000e+00" res="-9.9000000000000000e+01" rms="0.0000000000000000e+00" nType="1" CC="0.0000000000000000e+00"/>
            <Node pos="r" depth="3" Seq="5" IVar="-1" Cut="0.0000000000000000e+00" cType="1" nS="6.4757763671875000e+02" nB="8.6139355468750000e+02" nEv="1.5089711914062500e+03" nSuw="6.8800000000000000e+02" nBuw="8.0700000000000000e+02" nEvuw="1.4950000000000000e+03" sepI="2.4498052895069122e-01" sepG="-1.0000000000000000e+00" res="-9.9000000000000000e+01" rms="0.0000000000000000e+00" nType="-1" CC="0.0000000000000000e+00"/>
          </Node>
          <Node pos="r" depth="2" Seq="3" IVar="-1" Cut="5.2998405694961548e-01" cType="0" nS="6.1795568847656250e+02" nB="1.2199514160156250e+03" nEv="1.8379071044921875e+03" nSuw="3.6700000000000000e+02" nBuw="1.1440000000000000e+03" nEvuw="1.5110000000000000e+03" sepI="2.2317871451377869e-01" sepG="-1.0000000000000000e+00" res="-9.9000000000000000e+01" rms="0.0000000000000000e+00" nType="-1" CC="0.0000000000000000e+00"/>
        </Node>
      </Node>
    </BinaryTree>
    <BinaryTree type="DecisionTree" boostWeight="2.3493762721224623e-01" itree="8">
      <Node pos="s" depth="0" Seq="0" IVar="16" Cut="2.2310140728950500e-01" cType="0" nS="9.8620839843750000e+03" nB="8.9129160156250000e+03" nEv="1.8775000000000000e+04" nSuw="9.7700000000000000e+03" nBuw="9.0050000000000000e+03" nEvuw="1.8775000000000000e+04" sepI="2.4936105310916901e-01" sepG="4.1608043670654297e+01" res="-9.9000000000000000e+01" rms="0.0000000000000000e+00" nType="0" CC="0.0000000000000000e+00">
        <Node pos="l" depth="1" Seq="0" IVar="8" Cut="2.3372585773468018e+00" cType="1" nS="7.8787070312500000e+03" nB="6.4024682617187500e+03" nEv="1.4281174804687500e+04" nSuw="8.0350000000000000e+03" nBuw="6.4620000000000000e+03" nEvuw="1.4497000000000000e+04" sepI="2.4732868373394012e-01" sepG="1.7364490509033203e+01" res="-9.9000000000000000e+01" rms="0.0000000000000000e+00" nType="0" CC="0.0000000000000000e+00">
          <Node pos="l" depth="2" Seq="0" IVar="-1" Cut="4.8443916320800781e+01" cType="0" nS="7.8754516601562500e+03" nB="6.3376528320312500e+03" nEv="1.4213104492187500e+04" nSuw="8.0300000000000000e+03" nBuw="6.3910000000000000e+03" nEvuw="1.4421000000000000e+04" sepI="2.4707341194152832e-01" sepG="-1.0000000000000000e+00" res="-9.9000000000000000e+01" rms="0.0000000000000000e+00" nType="1" CC="0.0000000000000000e+00"/>
          <Node pos="r" depth="2" Seq="2" IVar="-1" Cut="0.0000000000000000e+00" cType="1" nS="3.2551536560058594e+00" nB="6.4815437316894531e+01" nEv="6.8070587158203125e+01" nSuw="5.0000000000000000e+00" nBuw="7.1000000000000000e+01" nEvuw="7.6000000000000000e+01" sepI="4.5533489435911179e-02" sepG="-1.0000000000000000e+00" res="-9.9000000000000000e+01" rms="0.0000000000000000e+00" nType="-1" CC="0.0000000000000000e+00"/>
        </Node>
        <Node pos="r" depth="1" Seq="1" IVar="15" Cut="3.9676946401596069e-01" cType="0" nS="1.9833764648437500e+03" nB="2.5104475097656250e+03" nEv="4.4938242187500000e+03" nSuw="1.7350000000000000e+03" nBuw="2.5430000000000000e+03" nEvuw="4.2780000000000000e+03" sepI="2.4656088650226593e-01" sepG="1.7560707092285156e+01" res="-9.9000000000000000e+01" rms="0.0000000000000000e+00" nType="0" CC="0.0000000000000000e+00">
          <Node pos="l" depth="2" Seq="1" IVar="12" Cut="1.1904761791229248e+00" cType="1" nS="1.6794843750000000e+03" nB="1.8660943603515625e+03" nEv="3.5455786132812500e+03" nSuw="1.5220000000000000e+03" nBuw="1.8590000000000000e+03" nEvuw="3.3810000000000000e+03" sepI="2.4930746853351593e-01" sepG="8.2799510955810547e+00" res="-9.9000000000000000e+01" rms="0.0000000000000000e+00" nType="0" CC="0.0000000000000000e+00">
            <Node pos="l" depth="3" Seq="1" IVar="-1" Cut="0.0000000000000000e+00" cType="1" nS="1.2142197265625000e+03" nB="1.1797409667968750e+03" nEv="2.3939606933593750e+03" nSuw="1.0730000000000000e+03" nBuw="1.3590000000000000e+03" nEvuw="2.4320000000000000e+03" sepI="2.4994814395904541e-01" sepG="-1.0000000000000000e+00" res="-9.9000000000000000e+01" rms="0.0000000000000000e+00" nType="1" CC="0.0000000000000000e+00"/>
            <Node pos="r" depth="3" Seq="5" IVar="-1" Cut="0.0000000000000000e+00" cType="1" nS="4.6526464843750000e+02" nB="6.8635339355468750e+02" nEv="1.1516180419921875e+03" nSuw="4.4900000000000000e+02" nBuw="5.0000000000000000e+02" nEvuw="9.4900000000000000e+02" sepI="2.4078582227230072e-01" sepG="-1.0000000000000000e+00" res="-9.9000000000000000e+01" rms="0.0000000000000000e+00" nType="-1" CC="0.0000000000000000e+00"/>
          </Node>
          <Node pos="r" depth="2" Seq="3" IVar="-1" Cut="9.8535388708114624e-01" cType="1" nS="3.0389212036132812e+02" nB="6.4435327148437500e+02" nEv="9.4824536132812500e+02" nSuw="2.1300000000000000e+02" nBuw="6.8400000000000000e+02" nEvuw="8.9700000000000000e+02" sepI="2.1777197718620300e-01" sepG="-1.0000000000000000e+00" res="-9.9000000000000000e+01" rms="0.0000000000000000e+00" nType="-1" CC="0.0000000000000000e+00"/>
        </Node>
      </Node>
    </BinaryTree>
    <BinaryTree type="DecisionTree" boostWeight="1.9227895741419895e-01" itree="9">
      <Node pos="s" depth="0" Seq="0" IVar="10" Cut="7.0738212585449219e+01" cType="0" nS="9.0127656250000000e+03" nB="9.7622333984375000e+03" nEv="1.8775000000000000e+04" nSuw="9.7700000000000000e+03" nBuw="9.0050000000000000e+03" nEvuw="1.8775000000000000e+04" sepI="2.4960163235664368e-01" sepG="2.5128356933593750e+01" res="-9.9000000000000000e+01" rms="0.0000000000000000e+00" nType="0" CC="0.0000000000000000e+00">
        <Node pos="l" depth="1" Seq="0" IVar="16" Cut="1.3459460735321045e+00" cType="0" nS="7.4714416503906250e+02" nB="4.5851843261718750e+02" nEv="1.2056625976562500e+03" nSuw="8.6400000000000000e+02" nBuw="1.9200000000000000e+02" nEvuw="1.0560000000000000e+03" sepI="2.3567289113998413e-01" sepG="9.5130567550659180e+00" res="-9.9000000000000000e+01" rms="0.0000000000000000e+00" nType="0" CC="0.0000000000000000e+00">
          <Node pos="l" depth="2" Seq="0" IVar="18" Cut="8.0900633335113525e-01" cType="0" nS="2.8390240478515625e+02" nB="9.4056373596191406e+01" nEv="3.7795877075195312e+02" nSuw="3.3400000000000000e+02" nBuw="3.6000000000000000e+01" nEvuw="3.7000000000000000e+02" sepI="1.8692545592784882e-01" sepG="6.4057998657226562e+00" res="-9.9000000000000000e+01" rms="0.0000000000000000e+00" nType="0" CC="0.0000000000000000e+00">
            <Node pos="l" depth="3" Seq="0" IVar="-1" Cut="0.0000000000000000e+00" cType="1" nS="2.5548892211914062e+02" nB="6.0369503021240234e+01" nEv="3.1585842895507812e+02" nSuw="2.7900000000000000e+02" nBuw="2.8000000000000000e+01" nEvuw="3.0700000000000000e+02" sepI="1.5459831058979034e-01" sepG="-1.0000000000000000e+00" res="-9.9000000000000000e+01" rms="0.0000000000000000e+00" nType="1" CC="0.0000000000000000e+00"/>
            <Node pos="r" depth="3" Seq="4" IVar="-1" Cut="0.0000000000000000e+00" cType="1" nS="2.8413475036621094e+01" nB="3.3686874389648438e+01" nEv="6.2100349426269531e+01" nSuw="5.5000000000000000e+01" nBuw="8.0000000000000000e+00" nEvuw="6.3000000000000000e+01" sepI="2.4819725751876831e-01" sepG="-1.0000000000000000e+00" res="-9.9000000000000000e+01" rms="0.0000000000000000e+00" nType="-1" CC="0.0000000000000000e+00"/>
          </Node>
          <Node pos="r" depth="2" Seq="2" IVar="16" Cut="5.1858168840408325e-01" cType="1" nS="4.6324179077148438e+02" nB="3.6446203613281250e+02" nEv="8.2770385742187500e+02" nSuw="5.3000000000000000e+02" nBuw="1.5600000000000000e+02" nEvuw="6.8600000000000000e+02" sepI="2.4643938243389130e-01" sepG="4.3559989929199219e+00" res="-9.9000000000000000e+01" rms="0.0000000000000000e+00" nType="0" CC="0.0000000000000000e+00">
            <Node pos="l" depth="3" Seq="2" IVar="-1" Cut="0.0000000000000000e+00" cType="1" nS="2.4236180114746094e+02" nB="1.3722210693359375e+02" nEv="3.7958389282226562e+02" nSuw="2.1200000000000000e+02" nBuw="8.0000000000000000e+01" nEvuw="2.9200000000000000e+02" sepI="2.3081959784030914e-01" sepG="-1.0000000000000000e+00" res="-9.9000000000000000e+01" rms="0.0000000000000000e+00" nType="1" CC="0.0000000000000000e+00"/>
            <Node pos="r" depth="3" Seq="6" IVar="-1" Cut="0.0000000000000000e+00" cType="1" nS="2.2088000488281250e+02" nB="2.2723994445800781e+02" nEv="4.4811993408203125e+02" nSuw="3.1800000000000000e+02" nBuw="7.6000000000000000e+01" nEvuw="3.9400000000000000e+02" sepI="2.4994964897632599e-01" sepG="-1.0000000000000000e+00" res="-9.9000000000000000e+01" rms="0.0000000000000000e+00" nType="-1" CC="0.0000000000000000e+00"/>
          </Node>
        </Node>
        <Node pos="r" depth="1" Seq="1" IVar="14" Cut="1.1746817827224731e+00" cType="1" nS="8.2656210937500000e+03" nB="9.3037148437500000e+03" nEv="1.7569335937500000e+04" nSuw="8.9060000000000000e+03" nBuw="8.8130000000000000e+03" nEvuw="1.7719000000000000e+04" sepI="2.4912722408771515e-01" sepG="1.9763601303100586e+01" res="-9.9000000000000000e+01" rms="0.0000000000000000e+00" nType="0" CC="0.0000000000000000e+00">
          <Node pos="l" depth="2" Seq="1" IVar="14" Cut="2.4493876844644547e-03" cType="0" nS="7.8489565429687500e+03" nB="8.5185283203125000e+03" nEv="1.6367484375000000e+04" nSuw="8.3570000000000000e+03" nBuw="8.3230000000000000e+03" nEvuw="1.6680000000000000e+04" sepI="2.4958162009716034e-01" sepG="2.1407840728759766e+01" res="-9.9000000000000000e+01" rms="0.0000000000000000e+00" nType="0" CC="0.0000000000000000e+00">
            <Node pos="l" depth="3" Seq="1" IVar="-1" Cut="0.0000000000000000e+00" cType="1" nS="4.5711948242187500e+03" nB="4.3464492187500000e+03" nEv="8.9176435546875000e+03" nSuw="5.8160000000000000e+03" nBuw="3.1740000000000000e+03" nEvuw="8.9900000000000000e+03" sepI="2.4984121322631836e-01" sepG="-1.0000000000000000e+00" res="-9.9000000000000000e+01" rms="0.0000000000000000e+00" nType="1" CC="0.0000000000000000e+00"/>
            <Node pos="r" depth="3" Seq="5" IVar="-1" Cut="0.0000000000000000e+00" cType="1" nS="3.2777617187500000e+03" nB="4.1720791015625000e+03" nEv="7.4498408203125000e+03" nSuw="2.5410000000000000e+03" nBuw="5.1490000000000000e+03" nEvuw="7.6900000000000000e+03" sepI="2.4639728665351868e-01" sepG="-1.0000000000000000e+00" res="-9.9000000000000000e+01" rms="0.0000000000000000e+00" nType="-1" CC="0.0000000000000000e+00"/>
          </Node>
          <Node pos="r" depth="2" Seq="3" IVar="-1" Cut="5.3940826654434204e-01" cType="0" nS="4.1666473388671875e+02" nB="7.8518695068359375e+02" nEv="1.2018516845703125e+03" nSuw="5.4900000000000000e+02" nBuw="4.9000000000000000e+02" nEvuw="1.0390000000000000e+03" sepI="2.2649471461772919e-01" sepG="-1.0000000000000000e+00" res="-9.9000000000000000e+01" rms="0.0000000000000000e+00" nType="-1" CC="0.0000000000000000e+00"/>
        </Node>
      </Node>
    </BinaryTree>
    <BinaryTree type="DecisionTree" boostWeight="2.3762051811244531e-01" itree="10">
      <Node pos="s" depth="0" Seq="0" IVar="15" Cut="6.8064051866531372e-01" cType="0" nS="8.9874697265625000e+03" nB="9.7875292968750000e+03" nEv="1.8775000000000000e+04" nSuw="9.7700000000000000e+03" nBuw="9.0050000000000000e+03" nEvuw="1.8775000000000000e+04" sepI="2.4954603612422943e-01" sepG="2.6808349609375000e+01" res="-9.9000000000000000e+01" rms="0.0000000000000000e+00" nType="0" CC="0.0000000000000000e+00">
        <Node pos="l" depth="1" Seq="0" IVar="18" Cut="5.2408617734909058e-01" cType="0" nS="5.4021542968750000e+03" nB="5.1477207031250000e+03" nEv="1.0549875000000000e+04" nSuw="5.7230000000000000e+03" nBuw="5.7340000000000000e+03" nEvuw="1.1457000000000000e+04" sepI="2.4985459446907043e-01" sepG="2.4481529235839844e+01" res="-9.9000000000000000e+01" rms="0.0000000000000000e+00" nType="0" CC="0.0000000000000000e+00">
          <Node pos="l" depth="2" Seq="0" IVar="-1" Cut="4.8443916320800781e+01" cType="0" nS="4.7622333984375000e+03" nB="4.1813725585937500e+03" nEv="8.9436064453125000e+03" nSuw="4.4870000000000000e+03" nBuw="5.1250000000000000e+03" nEvuw="9.6120000000000000e+03" sepI="2.4894547462463379e-01" sepG="-1.0000000000000000e+00" res="-9.9000000000000000e+01" rms="0.0000000000000000e+00" nType="1" CC="0.0000000000000000e+00"/>
          <Node pos="r" depth="2" Seq="2" IVar="-1" Cut="9.0681254863739014e-01" cType="1" nS="6.3992041015625000e+02" nB="9.6634838867187500e+02" nEv="1.6062687988281250e+03" nSuw="1.2360000000000000e+03" nBuw="6.0900000000000000e+02" nEvuw="1.8450000000000000e+03" sepI="2.3967528343200684e-01" sepG="-1.0000000000000000e+00" res="-9.9000000000000000e+01" rms="0.0000000000000000e+00" nType="-1" CC="0.0000000000000000e+00"/>
        </Node>
        <Node pos="r" depth="1" Seq="1" IVar="14" Cut="9.9421387910842896e-01" cType="1" nS="3.5853154296875000e+03" nB="4.6398085937500000e+03" nEv="8.2251240234375000e+03" nSuw="4.0470000000000000e+03" nBuw="3.2710000000000000e+03" nEvuw="7.3180000000000000e+03" sepI="2.4589093029499054e-01" sepG="2.8883298873901367e+01" res="-9.9000000000000000e+01" rms="0.0000000000000000e+00" nType="0" CC="0.0000000000000000e+00">
          <Node pos="l" depth="2" Seq="1" IVar="4" Cut="1.0591420173645020e+01" cType="0" nS="2.4288068847656250e+03" nB="2.5980585937500000e+03" nEv="5.0268657226562500e+03" nSuw="3.0340000000000000e+03" nBuw="1.6790000000000000e+03" nEvuw="4.7130000000000000e+03" sepI="2.4971659481525421e-01" sepG="1.5914938926696777e+01" res="-9.9000000000000000e+01" rms="0.0000000000000000e+00" nType="0" CC="0.0000000000000000e+00">
            <Node pos="l" depth="3" Seq="1" IVar="-1" Cut="0.0000000000000000e+00" cType="1" nS="2.3031533813476562e+02" nB="1.0109377288818359e+02" nEv="3.3140911865234375e+02" nSuw="1.7600000000000000e+02" nBuw="7.1000000000000000e+01" nEvuw="2.4700000000000000e+02" sepI="2.1199147403240204e-01" sepG="-1.0000000000000000e+00" res="-9.9000000000000000e+01" rms="0.0000000000000000e+00" nType="1" CC="0.0000000000000000e+00"/>
            <Node pos="r" depth="3" Seq="5" IVar="-1" Cut="0.0000000000000000e+00" cType="1" nS="2.1984914550781250e+03" nB="2.4969648437500000e+03" nEv="4.6954565429687500e+03" nSuw="2.8580000000000000e+03" nBuw="1.6080000000000000e+03" nEvuw="4.4660000000000000e+03" sepI="2.4898982048034668e-01" sepG="-1.0000000000000000e+00" res="-9.9000000000000000e+01" rms="0.0000000000000000e+00" nType="-1" CC="0.0000000000000000e+00"/>
          </Node>
          <Node pos="r" depth="2" Seq="3" IVar="-1" Cut="7.8183364868164062e-01" cType="0" nS="1.1565085449218750e+03" nB="2.0417501220703125e+03" nEv="3.1982587890625000e+03" nSuw="1.0130000000000000e+03" nBuw="1.5920000000000000e+03" nEvuw="2.6050000000000000e+03" sepI="2.3084701597690582e-01" sepG="-1.0000000000000000e+00" res="-9.9000000000000000e+01" rms="0.0000000000000000e+00" nType="-1" CC="0.0000000000000000e+00"/>
        </Node>
      </Node>
    </BinaryTree>
    <BinaryTree type="DecisionTree" boostWeight="2.8132670751892735e-01" itree="11">
      <Node pos="s" depth="0" Seq="0" IVar="10" Cut="4.8443916320800781e+01" cType="0" nS="8.9952861328125000e+03" nB="9.7797128906250000e+03" nEv="1.8775000000000000e+04" nSuw="9.7700000000000000e+03" nBuw="9.0050000000000000e+03" nEvuw="1.8775000000000000e+04" sepI="2.4956360459327698e-01" sepG="2.0021535873413086e+01" res="-9.9000000000000000e+01" rms="0.0000000000000000e+00" nType="0" CC="0.0000000000000000e+00">
        <Node pos="l" depth="1" Seq="0" IVar="18" Cut="8.0757194757461548e-01" cType="0" nS="1.8117451171875000e+03" nB="1.4829687500000000e+03" nEv="3.2947138671875000e+03" nSuw="2.0400000000000000e+03" nBuw="1.0740000000000000e+03" nEvuw="3.1140000000000000e+03" sepI="2.4751053750514984e-01" sepG="2.8953947067260742e+01" res="-9.9000000000000000e+01" rms="0.0000000000000000e+00" nType="0" CC="0.0000000000000000e+00">
          <Node pos="l" depth="2" Seq="0" IVar="8" Cut="2.0108339786529541e+00" cType="1" nS="1.1740782470703125e+03" nB="6.8245574951171875e+02" nEv="1.8565339355468750e+03" nSuw="1.1460000000000000e+03" nBuw="5.1500000000000000e+02" nEvuw="1.6610000000000000e+03" sepI="2.3246936500072479e-01" sepG="9.1005716323852539e+00" res="-9.9000000000000000e+01" rms="0.0000000000000000e+00" nType="0" CC="0.0000000000000000e+00">
            <Node pos="l" depth="3" Seq="0" IVar="-1" Cut="0.0000000000000000e+00" cType="1" nS="1.0885638427734375e+03" nB="5.6919702148437500e+02" nEv="1.6577608642578125e+03" nSuw="1.0540000000000000e+03" nBuw="4.2300000000000000e+02" nEvuw="1.4770000000000000e+03" sepI="2.2546169161796570e-01" sepG="-1.0000000000000000e+00" res="-9.9000000000000000e+01" rms="0.0000000000000000e+00" nType="1" CC="0.0000000000000000e+00"/>
            <Node pos="r" depth="3" Seq="4" IVar="-1" Cut="0.0000000000000000e+00" cType="1" nS="8.5514335632324219e+01" nB="1.1325876617431641e+02" nEv="1.9877310180664062e+02" nSuw="9.2000000000000000e+01" nBuw="9.2000000000000000e+01" nEvuw="1.8400000000000000e+02" sepI="2.4512946605682373e-01" sepG="-1.0000000000000000e+00" res="-9.9000000000000000e+01" rms="0.0000000000000000e+00" nType="-1" CC="0.0000000000000000e+00"/>
          </Node>
          <Node pos="r" depth="2" Seq="2" IVar="13" Cut="6.2279660254716873e-02" cType="0" nS="6.3766687011718750e+02" nB="8.0051300048828125e+02" nEv="1.4381798095703125e+03" nSuw="8.9400000000000000e+02" nBuw="5.5900000000000000e+02" nEvuw="1.4530000000000000e+03" sepI="2.4679470062255859e-01" sepG="3.0545486450195312e+01" res="-9.9000000000000000e+01" rms="0.0000000000000000e+00" nType="0" CC="0.0000000000000000e+00">
            <Node pos="l" depth="3" Seq="2" IVar="-1" Cut="0.0000000000000000e+00" cType="1" nS="5.2080841064453125e+02" nB="4.3006930541992188e+02" nEv="9.5087774658203125e+02" nSuw="8.1000000000000000e+02" nBuw="2.5000000000000000e+02" nEvuw="1.0600000000000000e+03" sepI="2.4772344529628754e-01" sepG="-1.0000000000000000e+00" res="-9.9000000000000000e+01" rms="0.0000000000000000e+00" nType="1" CC="0.0000000000000000e+00"/>
            <Node pos="r" depth="3" Seq="6" IVar="-1" Cut="0.0000000000000000e+00" cType="1" nS="1.1685845947265625e+02" nB="3.7044369506835938e+02" nEv="4.8730215454101562e+02" nSuw="8.4000000000000000e+01" nBuw="3.0900000000000000e+02" nEvuw="3.9300000000000000e+02" sepI="1.8229959905147552e-01" sepG="-1.0000000000000000e+00" res="-9.9000000000000000e+01" rms="0.0000000000000000e+00" nType="-1" CC="0.0000000000000000e+00"/>
          </Node>
        </Node>
        <Node pos="r" depth="1" Seq="1" IVar="11" Cut="9.0681254863739014e-01" cType="1" nS="7.1835415039062500e+03" nB="8.2967441406250000e+03" nEv="1.5480285156250000e+04" nSuw="7.7300000000000000e+03" nBuw="7.9310000000000000e+03" nEvuw="1.5661000000000000e+04" sepI="2.4870720505714417e-01" sepG="1.9193147659301758e+01" res="-9.9000000000000000e+01" rms="0.0000000000000000e+00" nType="0" CC="0.0000000000000000e+00">
          <Node pos="l" depth="2" Seq="1" IVar="18" Cut="8.0201607942581177e-01" cType="1" nS="4.0296062011718750e+03" nB="4.0673640136718750e+03" nEv="8.0969702148437500e+03" nSuw="5.3480000000000000e+03" nBuw="2.9270000000000000e+03" nEvuw="8.2750000000000000e+03" sepI="2.4999456107616425e-01" sepG="1.3619552612304688e+01" res="-9.9000000000000000e+01" rms="0.0000000000000000e+00" nType="0" CC="0.0000000000000000e+00">
            <Node pos="l" depth="3" Seq="1" IVar="-1" Cut="0.0000000000000000e+00" cType="1" nS="2.3864692382812500e+03" nB="2.0769516601562500e+03" nEv="4.4634208984375000e+03" nSuw="3.9020000000000000e+03" nBuw="1.1810000000000000e+03" nEvuw="5.0830000000000000e+03" sepI="2.4879780411720276e-01" sepG="-1.0000000000000000e+00" res="-9.9000000000000000e+01" rms="0.0000000000000000e+00" nType="1" CC="0.0000000000000000e+00"/>
            <Node pos="r" depth="3" Seq="5" IVar="-1" Cut="0.0000000000000000e+00" cType="1" nS="1.6431370849609375e+03" nB="1.9904122314453125e+03" nEv="3.6335493164062500e+03" nSuw="1.4460000000000000e+03" nBuw="1.7460000000000000e+03" nEvuw="3.1920000000000000e+03" sepI="2.4771636724472046e-01" sepG="-1.0000000000000000e+00" res="-9.9000000000000000e+01" rms="0.0000000000000000e+00" nType="-1" CC="0.0000000000000000e+00"/>
          </Node>
          <Node pos="r" depth="2" Seq="3" IVar="-1" Cut="7.1941251754760742e+00" cType="1" nS="3.1539350585937500e+03" nB="4.2293798828125000e+03" nEv="7.3833149414062500e+03" nSuw="2.3820000000000000e+03" nBuw="5.0040000000000000e+03" nEvuw="7.3860000000000000e+03" sepI="2.4469587206840515e-01" sepG="-1.0000000000000000e+00" res="-9.9000000000000000e+01" rms="0.0000000000000000e+00" nType="-1" CC="0.0000000000000000e+00"/>
        </Node>
      </Node>
    </BinaryTree>
    <BinaryTree type="DecisionTree" boostWeight="2.1227922165552354e-01" itree="12">
      <Node pos="s" depth="0" Seq="0" IVar="18" Cut="6.1701655387878418e-01" cType="0" nS="9.3174853515625000e+03" nB="9.4575136718750000e+03" nEv="1.8775000000000000e+04" nSuw="9.7700000000000000e+03" nBuw="9.0050000000000000e+03" nEvuw="1.8775000000000000e+04" sepI="2.4998609721660614e-01" sepG="2.1972774505615234e+01" res="-9.9000000000000000e+01" rms="0.0000000000000000e+00" nType="0" CC="0.0000000000000000e+00">
        <Node pos="l" depth="1" Seq="0" IVar="8" Cut="2.3143939971923828e+00" cType="1" nS="7.1737309570312500e+03" nB="6.7136127929687500e+03" nEv="1.3887343750000000e+04" nSuw="6.4890000000000000e+03" nBuw="6.7390000000000000e+03" nEvuw="1.3228000000000000e+04" sepI="2.4972556531429291e-01" sepG="1.3750990867614746e+01" res="-9.9000000000000000e+01" rms="0.0000000000000000e+00" nType="0" CC="0.0000000000000000e+00">
          <Node pos="l" depth="2" Seq="0" IVar="13" Cut="2.5050288438796997e-01" cType="1" nS="7.1696855468750000e+03" nB="6.6516376953125000e+03" nEv="1.3821323242187500e+04" nSuw="6.4830000000000000e+03" nBuw="6.6670000000000000e+03" nEvuw="1.3150000000000000e+04" sepI="2.4964877963066101e-01" sepG="1.2954573631286621e+01" res="-9.9000000000000000e+01" rms="0.0000000000000000e+00" nType="0" CC="0.0000000000000000e+00">
            <Node pos="l" depth="3" Seq="0" IVar="-1" Cut="0.0000000000000000e+00" cType="1" nS="4.1514057617187500e+03" nB="3.4456059570312500e+03" nEv="7.5970112304687500e+03" nSuw="3.0020000000000000e+03" nBuw="3.6510000000000000e+03" nEvuw="6.6530000000000000e+03" sepI="2.4784216284751892e-01" sepG="-1.0000000000000000e+00" res="-9.9000000000000000e+01" rms="0.0000000000000000e+00" nType="1" CC="0.0000000000000000e+00"/>
            <Node pos="r" depth="3" Seq="4" IVar="-1" Cut="0.0000000000000000e+00" cType="1" nS="3.0182802734375000e+03" nB="3.2060319824218750e+03" nEv="6.2243120117187500e+03" nSuw="3.4810000000000000e+03" nBuw="3.0160000000000000e+03" nEvuw="6.4970000000000000e+03" sepI="2.4977253377437592e-01" sepG="-1.0000000000000000e+00" res="-9.9000000000000000e+01" rms="0.0000000000000000e+00" nType="-1" CC="0.0000000000000000e+00"/>
          </Node>
          <Node pos="r" depth="2" Seq="2" IVar="-1" Cut="0.0000000000000000e+00" cType="1" nS="4.0450243949890137e+00" nB="6.1975036621093750e+01" nEv="6.6020057678222656e+01" nSuw="6.0000000000000000e+00" nBuw="7.2000000000000000e+01" nEvuw="7.8000000000000000e+01" sepI="5.7515658438205719e-02" sepG="-1.0000000000000000e+00" res="-9.9000000000000000e+01" rms="0.0000000000000000e+00" nType="-1" CC="0.0000000000000000e+00"/>
        </Node>
        <Node pos="r" depth="1" Seq="1" IVar="0" Cut="-9.2724380493164062e+01" cType="0" nS="2.1437548828125000e+03" nB="2.7439006347656250e+03" nEv="4.8876557617187500e+03" nSuw="3.2810000000000000e+03" nBuw="2.2660000000000000e+03" nEvuw="5.5470000000000000e+03" sepI="2.4623076617717743e-01" sepG="3.7360855102539062e+01" res="-9.9000000000000000e+01" rms="0.0000000000000000e+00" nType="0" CC="0.0000000000000000e+00">
          <Node pos="l" depth="2" Seq="1" IVar="16" Cut="1.2255170345306396e+00" cType="1" nS="1.2633076171875000e+03" nB="1.1299354248046875e+03" nEv="2.3932429199218750e+03" nSuw="2.5400000000000000e+03" nBuw="5.4100000000000000e+02" nEvuw="3.0810000000000000e+03" sepI="2.4922357499599457e-01" sepG="1.7583929061889648e+01" res="-9.9000000000000000e+01" rms="0.0000000000000000e+00" nType="0" CC="0.0000000000000000e+00">
            <Node pos="l" depth="3" Seq="1" IVar="-1" Cut="0.0000000000000000e+00" cType="1" nS="1.2439901123046875e+03" nB="1.0271430664062500e+03" nEv="2.2711333007812500e+03" nSuw="2.4890000000000000e+03" nBuw="5.2200000000000000e+02" nEvuw="3.0110000000000000e+03" sepI="2.4772091209888458e-01" sepG="-1.0000000000000000e+00" res="-9.9000000000000000e+01" rms="0.0000000000000000e+00" nType="1" CC="0.0000000000000000e+00"/>
            <Node pos="r" depth="3" Seq="5" IVar="-1" Cut="0.0000000000000000e+00" cType="1" nS="1.9317443847656250e+01" nB="1.0279233551025391e+02" nEv="1.2210977935791016e+02" nSuw="5.1000000000000000e+01" nBuw="1.9000000000000000e+01" nEvuw="7.0000000000000000e+01" sepI="1.3317094743251801e-01" sepG="-1.0000000000000000e+00" res="-9.9000000000000000e+01" rms="0.0000000000000000e+00" nType="-1" CC="0.0000000000000000e+00"/>
          </Node>
          <Node pos="r" depth="2" Seq="3" IVar="-1" Cut="2.3661755025386810e-01" cType="1" nS="8.8044726562500000e+02" nB="1.6139652099609375e+03" nEv="2.4944125976562500e+03" nSuw="7.4100000000000000e+02" nBuw="1.7250000000000000e+03" nEvuw="2.4660000000000000e+03" sepI="2.2838152945041656e-01" sepG="-1.0000000000000000e+00" res="-9.9000000000000000e+01" rms="0.0000000000000000e+00" nType="-1" CC="0.0000000000000000e+00"/>
        </Node>
      </Node>
    </BinaryTree>
    <BinaryTree type="DecisionTree" boostWeight="3.0792502700077634e-01" itree="13">
      <Node pos="s" depth="0" Seq="0" IVar="18" Cut="7.5641202926635742e-01" cType="0" nS="9.2652939453125000e+03" nB="9.5097050781250000e+03" nEv="1.8775000000000000e+04" nSuw="9.7700000000000000e+03" nBuw="9.0050000000000000e+03" nEvuw="1.8775000000000000e+04" sepI="2.4995763599872589e-01" sepG="2.0130094528198242e+01" res="-9.9000000000000000e+01" rms="0.0000000000000000e+00" nType="0" CC="0.0000000000000000e+00">
        <Node pos="l" depth="1" Seq="0" IVar="10" Cut="2.6149625778198242e+01" cType="0" nS="6.0547377929687500e+03" nB="5.6101855468750000e+03" nEv="1.1664923828125000e+04" nSuw="4.8460000000000000e+03" nBuw="6.2230000000000000e+03" nEvuw="1.1069000000000000e+04" sepI="2.4963690340518951e-01" sepG="2.1146169662475586e+01" res="-9.9000000000000000e+01" rms="0.0000000000000000e+00" nType="0" CC="0.0000000000000000e+00">
          <Node pos="l" depth="2" Seq="0" IVar="18" Cut="9.6661710739135742e-01" cType="1" nS="4.2225410156250000e+03" nB="3.4587612304687500e+03" nEv="7.6813017578125000e+03" nSuw="3.4620000000000000e+03" nBuw="4.2100000000000000e+03" nEvuw="7.6720000000000000e+03" sepI="2.4752824008464813e-01" sepG="1.7272249221801758e+01" res="-9.9000000000000000e+01" rms="0.0000000000000000e+00" nType="0" CC="0.0000000000000000e+00">
            <Node pos="l" depth="3" Seq="0" IVar="-1" Cut="0.0000000000000000e+00" cType="1" nS="3.4804479980468750e+03" nB="2.5805744628906250e+03" nEv="6.0610224609375000e+03" nSuw="3.2680000000000000e+03" nBuw="1.8530000000000000e+03" nEvuw="5.1210000000000000e+03" sepI="2.4448923766613007e-01" sepG="-1.0000000000000000e+00" res="-9.9000000000000000e+01" rms="0.0000000000000000e+00" nType="1" CC="0.0000000000000000e+00"/>
            <Node pos="r" depth="3" Seq="4" IVar="-1" Cut="0.0000000000000000e+00" cType="1" nS="7.4209271240234375e+02" nB="8.7818664550781250e+02" nEv="1.6202792968750000e+03" nSuw="1.9400000000000000e+02" nBuw="2.3570000000000000e+03" nEvuw="2.5510000000000000e+03" sepI="2.4823623895645142e-01" sepG="-1.0000000000000000e+00" res="-9.9000000000000000e+01" rms="0.0000000000000000e+00" nType="-1" CC="0.0000000000000000e+00"/>
          </Node>
          <Node pos="r" depth="2" Seq="2" IVar="18" Cut="9.0626198053359985e-01" cType="1" nS="1.8321971435546875e+03" nB="2.1514245605468750e+03" nEv="3.9836215820312500e+03" nSuw="1.3840000000000000e+03" nBuw="2.0130000000000000e+03" nEvuw="3.3970000000000000e+03" sepI="2.4839459359645844e-01" sepG="2.3520685195922852e+01" res="-9.9000000000000000e+01" rms="0.0000000000000000e+00" nType="0" CC="0.0000000000000000e+00">
            <Node pos="l" depth="3" Seq="2" IVar="-1" Cut="0.0000000000000000e+00" cType="1" nS="9.6664758300781250e+02" nB="8.0435296630859375e+02" nEv="1.7710004882812500e+03" nSuw="1.0310000000000000e+03" nBuw="3.4900000000000000e+02" nEvuw="1.3800000000000000e+03" sepI="2.4790051579475403e-01" sepG="-1.0000000000000000e+00" res="-9.9000000000000000e+01" rms="0.0000000000000000e+00" nType="1" CC="0.0000000000000000e+00"/>
            <Node pos="r" depth="3" Seq="6" IVar="-1" Cut="0.0000000000000000e+00" cType="1" nS="8.6554956054687500e+02" nB="1.3470715332031250e+03" nEv="2.2126210937500000e+03" nSuw="3.5300000000000000e+02" nBuw="1.6640000000000000e+03" nEvuw="2.0170000000000000e+03" sepI="2.3815982043743134e-01" sepG="-1.0000000000000000e+00" res="-9.9000000000000000e+01" rms="0.0000000000000000e+00" nType="-1" CC="0.0000000000000000e+00"/>
          </Node>
        </Node>
        <Node pos="r" depth="1" Seq="1" IVar="14" Cut="1.0127382278442383e+00" cType="1" nS="3.2105563964843750e+03" nB="3.8995190429687500e+03" nEv="7.1100756835937500e+03" nSuw="4.9240000000000000e+03" nBuw="2.7820000000000000e+03" nEvuw="7.7060000000000000e+03" sepI="2.4765262007713318e-01" sepG="2.7506530761718750e+01" res="-9.9000000000000000e+01" rms="0.0000000000000000e+00" nType="0" CC="0.0000000000000000e+00">
          <Node pos="l" depth="2" Seq="1" IVar="14" Cut="4.8220537602901459e-02" cType="0" nS="2.6464704589843750e+03" nB="2.7997346191406250e+03" nEv="5.4462050781250000e+03" nSuw="4.3820000000000000e+03" nBuw="1.9110000000000000e+03" nEvuw="6.2930000000000000e+03" sepI="2.4980200827121735e-01" sepG="2.2742372512817383e+01" res="-9.9000000000000000e+01" rms="0.0000000000000000e+00" nType="0" CC="0.0000000000000000e+00">
            <Node pos="l" depth="3" Seq="1" IVar="-1" Cut="0.0000000000000000e+00" cType="1" nS="1.7875384521484375e+03" nB="1.5379018554687500e+03" nEv="3.3254404296875000e+03" nSuw="3.2810000000000000e+03" nBuw="8.0300000000000000e+02" nEvuw="4.0840000000000000e+03" sepI="2.4859116971492767e-01" sepG="-1.0000000000000000e+00" res="-9.9000000000000000e+01" rms="0.0000000000000000e+00" nType="1" CC="0.0000000000000000e+00"/>
            <Node pos="r" depth="3" Seq="5" IVar="-1" Cut="0.0000000000000000e+00" cType="1" nS="8.5893206787109375e+02" nB="1.2618326416015625e+03" nEv="2.1207646484375000e+03" nSuw="1.1010000000000000e+03" nBuw="1.1080000000000000e+03" nEvuw="2.2090000000000000e+03" sepI="2.4097700417041779e-01" sepG="-1.0000000000000000e+00" res="-9.9000000000000000e+01" rms="0.0000000000000000e+00" nType="-1" CC="0.0000000000000000e+00"/>
          </Node>
          <Node pos="r" depth="2" Seq="3" IVar="-1" Cut="3.7874433398246765e-01" cType="0" nS="5.6408593750000000e+02" nB="1.0997845458984375e+03" nEv="1.6638704833984375e+03" nSuw="5.4200000000000000e+02" nBuw="8.7100000000000000e+02" nEvuw="1.4130000000000000e+03" sepI="2.2408553957939148e-01" sepG="-1.0000000000000000e+00" res="-9.9000000000000000e+01" rms="0.0000000000000000e+00" nType="-1" CC="0.0000000000000000e+00"/>
        </Node>
      </Node>
    </BinaryTree>
    <BinaryTree type="DecisionTree" boostWeight="2.9762235849736846e-01" itree="14">
      <Node pos="s" depth="0" Seq="0" IVar="18" Cut="9.4227272272109985e-01" cType="0" nS="8.9855400390625000e+03" nB="9.7894599609375000e+03" nEv="1.8775000000000000e+04" nSuw="9.7700000000000000e+03" nBuw="9.0050000000000000e+03" nEvuw="1.8775000000000000e+04" sepI="2.4954164028167725e-01" sepG="4.0454032897949219e+01" res="-9.9000000000000000e+01" rms="0.0000000000000000e+00" nType="0" CC="0.0000000000000000e+00">
        <Node pos="l" depth="1" Seq="0" IVar="18" Cut="9.5117330551147461e-01" cType="1" nS="2.5943752441406250e+03" nB="2.0412602539062500e+03" nEv="4.6356352539062500e+03" nSuw="8.3100000000000000e+02" nBuw="4.5220000000000000e+03" nEvuw="5.3530000000000000e+03" sepI="2.4644079804420471e-01" sepG="3.1918607711791992e+01" res="-9.9000000000000000e+01" rms="0.0000000000000000e+00" nType="0" CC="0.0000000000000000e+00">
          <Node pos="l" depth="2" Seq="0" IVar="10" Cut="6.2755241394042969e+01" cType="1" nS="6.8658166503906250e+02" nB="2.6283221435546875e+02" nEv="9.4941387939453125e+02" nSuw="2.5400000000000000e+02" nBuw="3.9300000000000000e+02" nEvuw="6.4700000000000000e+02" sepI="2.0019795000553131e-01" sepG="9.2846355438232422e+00" res="-9.9000000000000000e+01" rms="0.0000000000000000e+00" nType="0" CC="0.0000000000000000e+00">
            <Node pos="l" depth="3" Seq="0" IVar="-1" Cut="0.0000000000000000e+00" cType="1" nS="6.5044744873046875e+02" nB="2.1144079589843750e+02" nEv="8.6188824462890625e+02" nSuw="1.9900000000000000e+02" nBuw="3.7900000000000000e+02" nEvuw="5.7800000000000000e+02" sepI="1.8513950705528259e-01" sepG="-1.0000000000000000e+00" res="-9.9000000000000000e+01" rms="0.0000000000000000e+00" nType="1" CC="0.0000000000000000e+00"/>
            <Node pos="r" depth="3" Seq="4" IVar="-1" Cut="0.0000000000000000e+00" cType="1" nS="3.6134265899658203e+01" nB="5.1391414642333984e+01" nEv="8.7525680541992188e+01" nSuw="5.5000000000000000e+01" nBuw="1.4000000000000000e+01" nEvuw="6.9000000000000000e+01" sepI="2.4240346252918243e-01" sepG="-1.0000000000000000e+00" res="-9.9000000000000000e+01" rms="0.0000000000000000e+00" nType="-1" CC="0.0000000000000000e+00"/>
          </Node>
          <Node pos="r" depth="2" Seq="2" IVar="12" Cut="1.2380952835083008e+00" cType="0" nS="1.9077934570312500e+03" nB="1.7784281005859375e+03" nEv="3.6862214355468750e+03" nSuw="5.7700000000000000e+02" nBuw="4.1290000000000000e+03" nEvuw="4.7060000000000000e+03" sepI="2.4969209730625153e-01" sepG="2.4765251159667969e+01" res="-9.9000000000000000e+01" rms="0.0000000000000000e+00" nType="0" CC="0.0000000000000000e+00">
            <Node pos="l" depth="3" Seq="2" IVar="-1" Cut="0.0000000000000000e+00" cType="1" nS="5.6877099609375000e+02" nB="2.8402011108398438e+02" nEv="8.5279113769531250e+02" nSuw="1.9800000000000000e+02" nBuw="4.8900000000000000e+02" nEvuw="6.8700000000000000e+02" sepI="2.2212693095207214e-01" sepG="-1.0000000000000000e+00" res="-9.9000000000000000e+01" rms="0.0000000000000000e+00" nType="1" CC="0.0000000000000000e+00"/>
            <Node pos="r" depth="3" Seq="6" IVar="-1" Cut="0.0000000000000000e+00" cType="1" nS="1.3390224609375000e+03" nB="1.4944079589843750e+03" nEv="2.8334304199218750e+03" nSuw="3.7900000000000000e+02" nBuw="3.6400000000000000e+03" nEvuw="4.0190000000000000e+03" sepI="2.4924814701080322e-01" sepG="-1.0000000000000000e+00" res="-9.9000000000000000e+01" rms="0.0000000000000000e+00" nType="-1" CC="0.0000000000000000e+00"/>
          </Node>
        </Node>
        <Node pos="r" depth="1" Seq="1" IVar="14" Cut="1.7455607652664185e-01" cType="1" nS="6.3911645507812500e+03" nB="7.7481992187500000e+03" nEv="1.4139363281250000e+04" nSuw="8.9390000000000000e+03" nBuw="4.4830000000000000e+03" nEvuw="1.3422000000000000e+04" sepI="2.4769717454910278e-01" sepG="1.8758602142333984e+01" res="-9.9000000000000000e+01" rms="0.0000000000000000e+00" nType="0" CC="0.0000000000000000e+00">
          <Node pos="l" depth="2" Seq="1" IVar="9" Cut="1.6389099359512329e+00" cType="0" nS="2.5881152343750000e+03" nB="2.5887617187500000e+03" nEv="5.1768769531250000e+03" nSuw="2.9600000000000000e+03" nBuw="1.9300000000000000e+03" nEvuw="4.8900000000000000e+03" sepI="2.5000000000000000e-01" sepG="1.5682626724243164e+01" res="-9.9000000000000000e+01" rms="0.0000000000000000e+00" nType="0" CC="0.0000000000000000e+00">
            <Node pos="l" depth="3" Seq="1" IVar="-1" Cut="0.0000000000000000e+00" cType="1" nS="9.0782080078125000e+02" nB="6.4679467773437500e+02" nEv="1.5546154785156250e+03" nSuw="9.1600000000000000e+02" nBuw="5.2100000000000000e+02" nEvuw="1.4370000000000000e+03" sepI="2.4295206367969513e-01" sepG="-1.0000000000000000e+00" res="-9.9000000000000000e+01" rms="0.0000000000000000e+00" nType="1" CC="0.0000000000000000e+00"/>
            <Node pos="r" depth="3" Seq="5" IVar="-1" Cut="0.0000000000000000e+00" cType="1" nS="1.6802945556640625e+03" nB="1.9419671630859375e+03" nEv="3.6222617187500000e+03" nSuw="2.0440000000000000e+03" nBuw="1.4090000000000000e+03" nEvuw="3.4530000000000000e+03" sepI="2.4869534373283386e-01" sepG="-1.0000000000000000e+00" res="-9.9000000000000000e+01" rms="0.0000000000000000e+00" nType="-1" CC="0.0000000000000000e+00"/>
          </Node>
          <Node pos="r" depth="2" Seq="3" IVar="-1" Cut="5.1530127525329590e+00" cType="1" nS="3.8030490722656250e+03" nB="5.1594375000000000e+03" nEv="8.9624863281250000e+03" nSuw="5.9790000000000000e+03" nBuw="2.5530000000000000e+03" nEvuw="8.5320000000000000e+03" sepI="2.4427400529384613e-01" sepG="-1.0000000000000000e+00" res="-9.9000000000000000e+01" rms="0.0000000000000000e+00" nType="-1" CC="0.0000000000000000e+00"/>
        </Node>
      </Node>
    </BinaryTree>
    <BinaryTree type="DecisionTree" boostWeight="2.9008329059237331e-01" itree="15">
      <Node pos="s" depth="0" Seq="0" IVar="18" Cut="9.4227272272109985e-01" cType="0" nS="9.9005302734375000e+03" nB="8.8744687500000000e+03" nEv="1.8775000000000000e+04" nSuw="9.7700000000000000e+03" nBuw="9.0050000000000000e+03" nEvuw="1.8775000000000000e+04" sepI="2.4925333261489868e-01" sepG="1.7699996948242188e+01" res="-9.9000000000000000e+01" rms="0.0000000000000000e+00" nType="0" CC="0.0000000000000000e+00">
        <Node pos="l" depth="1" Seq="0" IVar="16" Cut="4.4646751880645752e-01" cType="0" nS="2.6758017578125000e+03" nB="1.9281783447265625e+03" nEv="4.6039799804687500e+03" nSuw="8.3100000000000000e+02" nBuw="4.5220000000000000e+03" nEvuw="5.3530000000000000e+03" sepI="2.4340766668319702e-01" sepG="2.0285764694213867e+01" res="-9.9000000000000000e+01" rms="0.0000000000000000e+00" nType="0" CC="0.0000000000000000e+00">
          <Node pos="l" depth="2" Seq="0" IVar="-1" Cut="9.5781391859054565e-01" cType="1" nS="2.1218908691406250e+03" nB="1.2992824707031250e+03" nEv="3.4211733398437500e+03" nSuw="6.4200000000000000e+02" nBuw="3.4080000000000000e+03" nEvuw="4.0500000000000000e+03" sepI="2.3554639518260956e-01" sepG="-1.0000000000000000e+00" res="-9.9000000000000000e+01" rms="0.0000000000000000e+00" nType="1" CC="0.0000000000000000e+00"/>
          <Node pos="r" depth="2" Seq="2" IVar="17" Cut="7.9155236482620239e-01" cType="1" nS="5.5391082763671875e+02" nB="6.2889581298828125e+02" nEv="1.1828066406250000e+03" nSuw="1.8900000000000000e+02" nBuw="1.1140000000000000e+03" nEvuw="1.3030000000000000e+03" sepI="2.4899524450302124e-01" sepG="8.5720958709716797e+00" res="-9.9000000000000000e+01" rms="0.0000000000000000e+00" nType="0" CC="0.0000000000000000e+00">
            <Node pos="l" depth="3" Seq="2" IVar="-1" Cut="0.0000000000000000e+00" cType="1" nS="2.3627259826660156e+02" nB="1.6637185668945312e+02" nEv="4.0264443969726562e+02" nSuw="5.9000000000000000e+01" nBuw="3.5300000000000000e+02" nEvuw="4.1200000000000000e+02" sepI="2.4246540665626526e-01" sepG="-1.0000000000000000e+00" res="-9.9000000000000000e+01" rms="0.0000000000000000e+00" nType="1" CC="0.0000000000000000e+00"/>
            <Node pos="r" depth="3" Seq="6" IVar="-1" Cut="0.0000000000000000e+00" cType="1" nS="3.1763821411132812e+02" nB="4.6252395629882812e+02" nEv="7.8016217041015625e+02" nSuw="1.3000000000000000e+02" nBuw="7.6100000000000000e+02" nEvuw="8.9100000000000000e+02" sepI="2.4137772619724274e-01" sepG="-1.0000000000000000e+00" res="-9.9000000000000000e+01" rms="0.0000000000000000e+00" nType="-1" CC="0.0000000000000000e+00"/>
          </Node>
        </Node>
        <Node pos="r" depth="1" Seq="1" IVar="16" Cut="5.9977310895919800e-01" cType="1" nS="7.2247290039062500e+03" nB="6.9462900390625000e+03" nEv="1.4171019531250000e+04" nSuw="8.9390000000000000e+03" nBuw="4.4830000000000000e+03" nEvuw="1.3422000000000000e+04" sepI="2.4990348517894745e-01" sepG="1.2479716300964355e+01" res="-9.9000000000000000e+01" rms="0.0000000000000000e+00" nType="0" CC="0.0000000000000000e+00">
          <Node pos="l" depth="2" Seq="1" IVar="13" Cut="1.7799881100654602e-01" cType="1" nS="4.3170659179687500e+03" nB="3.7421684570312500e+03" nEv="8.0592343750000000e+03" nSuw="4.2260000000000000e+03" nBuw="3.3240000000000000e+03" nEvuw="7.5500000000000000e+03" sepI="2.4872787296772003e-01" sepG="2.3904457092285156e+01" res="-9.9000000000000000e+01" rms="0.0000000000000000e+00" nType="0" CC="0.0000000000000000e+00">
            <Node pos="l" depth="3" Seq="1" IVar="-1" Cut="0.0000000000000000e+00" cType="1" nS="2.7825412597656250e+03" nB="2.0097027587890625e+03" nEv="4.7922441406250000e+03" nSuw="1.3410000000000000e+03" nBuw="2.6890000000000000e+03" nEvuw="4.0300000000000000e+03" sepI="2.4349810183048248e-01" sepG="-1.0000000000000000e+00" res="-9.9000000000000000e+01" rms="0.0000000000000000e+00" nType="1" CC="0.0000000000000000e+00"/>
            <Node pos="r" depth="3" Seq="5" IVar="-1" Cut="0.0000000000000000e+00" cType="1" nS="1.5345244140625000e+03" nB="1.7324656982421875e+03" nEv="3.2669899902343750e+03" nSuw="2.8850000000000000e+03" nBuw="6.3500000000000000e+02" nEvuw="3.5200000000000000e+03" sepI="2.4908226728439331e-01" sepG="-1.0000000000000000e+00" res="-9.9000000000000000e+01" rms="0.0000000000000000e+00" nType="-1" CC="0.0000000000000000e+00"/>
          </Node>
          <Node pos="r" depth="2" Seq="3" IVar="13" Cut="1.0779079049825668e-01" cType="0" nS="2.9076630859375000e+03" nB="3.2041218261718750e+03" nEv="6.1117846679687500e+03" nSuw="4.7130000000000000e+03" nBuw="1.1590000000000000e+03" nEvuw="5.8720000000000000e+03" sepI="2.4941179156303406e-01" sepG="2.6448902130126953e+01" res="-9.9000000000000000e+01" rms="0.0000000000000000e+00" nType="0" CC="0.0000000000000000e+00">
            <Node pos="l" depth="3" Seq="3" IVar="-1" Cut="0.0000000000000000e+00" cType="1" nS="2.0349871826171875e+03" nB="1.8351937255859375e+03" nEv="3.8701809082031250e+03" nSuw="3.4820000000000000e+03" nBuw="5.6600000000000000e+02" nEvuw="4.0480000000000000e+03" sepI="2.4933373928070068e-01" sepG="-1.0000000000000000e+00" res="-9.9000000000000000e+01" rms="0.0000000000000000e+00" nType="1" CC="0.0000000000000000e+00"/>
            <Node pos="r" depth="3" Seq="7" IVar="-1" Cut="0.0000000000000000e+00" cType="1" nS="8.7267596435546875e+02" nB="1.3689281005859375e+03" nEv="2.2416040039062500e+03" nSuw="1.2310000000000000e+03" nBuw="5.9300000000000000e+02" nEvuw="1.8240000000000000e+03" sepI="2.3774744570255280e-01" sepG="-1.0000000000000000e+00" res="-9.9000000000000000e+01" rms="0.0000000000000000e+00" nType="-1" CC="0.0000000000000000e+00"/>
          </Node>
        </Node>
      </Node>
    </BinaryTree>
    <BinaryTree type="DecisionTree" boostWeight="2.0087503284891225e-01" itree="16">
      <Node pos="s" depth="0" Seq="0" IVar="11" Cut="9.5340627431869507e-01" cType="1" nS="9.4556220703125000e+03" nB="9.3193769531250000e+03" nEv="1.8775000000000000e+04" nSuw="9.7700000000000000e+03" nBuw="9.0050000000000000e+03" nEvuw="1.8775000000000000e+04" sepI="2.4998684227466583e-01" sepG="1.5965569496154785e+01" res="-9.9000000000000000e+01" rms="0.0000000000000000e+00" nType="0" CC="0.0000000000000000e+00">
        <Node pos="l" depth="1" Seq="0" IVar="8" Cut="-1.3876892328262329e+00" cType="1" nS="7.0548496093750000e+03" nB="6.4651435546875000e+03" nEv="1.3519993164062500e+04" nSuw="8.0590000000000000e+03" nBuw="5.4280000000000000e+03" nEvuw="1.3487000000000000e+04" sepI="2.4952438473701477e-01" sepG="1.0812138557434082e+01" res="-9.9000000000000000e+01" rms="0.0000000000000000e+00" nType="0" CC="0.0000000000000000e+00">
          <Node pos="l" depth="2" Seq="0" IVar="8" Cut="-1.9802799224853516e+00" cType="0" nS="3.5825322265625000e+03" nB="2.9169892578125000e+03" nEv="6.4995214843750000e+03" nSuw="4.0110000000000000e+03" nBuw="2.5020000000000000e+03" nEvuw="6.5130000000000000e+03" sepI="2.4737861752510071e-01" sepG="1.3446829795837402e+01" res="-9.9000000000000000e+01" rms="0.0000000000000000e+00" nType="0" CC="0.0000000000000000e+00">
            <Node pos="l" depth="3" Seq="0" IVar="-1" Cut="0.0000000000000000e+00" cType="1" nS="2.7071674804687500e+03" nB="1.9630479736328125e+03" nEv="4.6702153320312500e+03" nSuw="3.0300000000000000e+03" nBuw="1.7380000000000000e+03" nEvuw="4.7680000000000000e+03" sepI="2.4365325272083282e-01" sepG="-1.0000000000000000e+00" res="-9.9000000000000000e+01" rms="0.0000000000000000e+00" nType="1" CC="0.0000000000000000e+00"/>
            <Node pos="r" depth="3" Seq="4" IVar="-1" Cut="0.0000000000000000e+00" cType="1" nS="8.7536456298828125e+02" nB="9.5394140625000000e+02" nEv="1.8293059082031250e+03" nSuw="9.8100000000000000e+02" nBuw="7.6400000000000000e+02" nEvuw="1.7450000000000000e+03" sepI="2.4953873455524445e-01" sepG="-1.0000000000000000e+00" res="-9.9000000000000000e+01" rms="0.0000000000000000e+00" nType="-1" CC="0.0000000000000000e+00"/>
          </Node>
          <Node pos="r" depth="2" Seq="2" IVar="9" Cut="-1.4117720127105713e+00" cType="0" nS="3.4723176269531250e+03" nB="3.5481545410156250e+03" nEv="7.0204721679687500e+03" nSuw="4.0480000000000000e+03" nBuw="2.9260000000000000e+03" nEvuw="6.9740000000000000e+03" sepI="2.4997082352638245e-01" sepG="3.9735946655273438e+01" res="-9.9000000000000000e+01" rms="0.0000000000000000e+00" nType="0" CC="0.0000000000000000e+00">
            <Node pos="l" depth="3" Seq="2" IVar="-1" Cut="0.0000000000000000e+00" cType="1" nS="3.4049721679687500e+03" nB="3.2386599121093750e+03" nEv="6.6436323242187500e+03" nSuw="3.9520000000000000e+03" nBuw="2.6040000000000000e+03" nEvuw="6.5560000000000000e+03" sepI="2.4984332919120789e-01" sepG="-1.0000000000000000e+00" res="-9.9000000000000000e+01" rms="0.0000000000000000e+00" nType="1" CC="0.0000000000000000e+00"/>
            <Node pos="r" depth="3" Seq="6" IVar="-1" Cut="0.0000000000000000e+00" cType="1" nS="6.7345436096191406e+01" nB="3.0949447631835938e+02" nEv="3.7683990478515625e+02" nSuw="9.6000000000000000e+01" nBuw="3.2200000000000000e+02" nEvuw="4.1800000000000000e+02" sepI="1.4677338302135468e-01" sepG="-1.0000000000000000e+00" res="-9.9000000000000000e+01" rms="0.0000000000000000e+00" nType="-1" CC="0.0000000000000000e+00"/>
          </Node>
        </Node>
        <Node pos="r" depth="1" Seq="1" IVar="7" Cut="7.1941251754760742e+00" cType="1" nS="2.4007727050781250e+03" nB="2.8542329101562500e+03" nEv="5.2550058593750000e+03" nSuw="1.7110000000000000e+03" nBuw="3.5770000000000000e+03" nEvuw="5.2880000000000000e+03" sepI="2.4813845753669739e-01" sepG="1.8302078247070312e+01" res="-9.9000000000000000e+01" rms="0.0000000000000000e+00" nType="0" CC="0.0000000000000000e+00">
          <Node pos="l" depth="2" Seq="1" IVar="17" Cut="2.3446094989776611e+00" cType="0" nS="1.5869880371093750e+03" nB="1.5538675537109375e+03" nEv="3.1408554687500000e+03" nSuw="1.2740000000000000e+03" nBuw="1.3140000000000000e+03" nEvuw="2.5880000000000000e+03" sepI="2.4997219443321228e-01" sepG="1.1562227249145508e+01" res="-9.9000000000000000e+01" rms="0.0000000000000000e+00" nType="0" CC="0.0000000000000000e+00">
            <Node pos="l" depth="3" Seq="1" IVar="-1" Cut="0.0000000000000000e+00" cType="1" nS="1.5364273071289062e+02" nB="5.6252216339111328e+01" nEv="2.0989494323730469e+02" nSuw="1.2300000000000000e+02" nBuw="3.9000000000000000e+01" nEvuw="1.6200000000000000e+02" sepI="1.9617682695388794e-01" sepG="-1.0000000000000000e+00" res="-9.9000000000000000e+01" rms="0.0000000000000000e+00" nType="1" CC="0.0000000000000000e+00"/>
            <Node pos="r" depth="3" Seq="5" IVar="-1" Cut="0.0000000000000000e+00" cType="1" nS="1.4333453369140625e+03" nB="1.4976153564453125e+03" nEv="2.9309606933593750e+03" nSuw="1.1510000000000000e+03" nBuw="1.2750000000000000e+03" nEvuw="2.4260000000000000e+03" sepI="2.4987979233264923e-01" sepG="-1.0000000000000000e+00" res="-9.9000000000000000e+01" rms="0.0000000000000000e+00" nType="-1" CC="0.0000000000000000e+00"/>
          </Node>
          <Node pos="r" depth="2" Seq="3" IVar="-1" Cut="6.2047833204269409e-01" cType="0" nS="8.1378466796875000e+02" nB="1.3003654785156250e+03" nEv="2.1141501464843750e+03" nSuw="4.3700000000000000e+02" nBuw="2.2630000000000000e+03" nEvuw="2.7000000000000000e+03" sepI="2.3675724864006042e-01" sepG="-1.0000000000000000e+00" res="-9.9000000000000000e+01" rms="0.0000000000000000e+00" nType="-1" CC="0.0000000000000000e+00"/>
        </Node>
      </Node>
    </BinaryTree>
    <BinaryTree type="DecisionTree" boostWeight="1.7242638091386905e-01" itree="17">
      <Node pos="s" depth="0" Seq="0" IVar="8" Cut="-1.3876892328262329e+00" cType="1" nS="9.2403076171875000e+03" nB="9.5346923828125000e+03" nEv="1.8775000000000000e+04" nSuw="9.7700000000000000e+03" nBuw="9.0050000000000000e+03" nEvuw="1.8775000000000000e+04" sepI="2.4993853271007538e-01" sepG="1.5445010185241699e+01" res="-9.9000000000000000e+01" rms="0.0000000000000000e+00" nType="0" CC="0.0000000000000000e+00">
        <Node pos="l" depth="1" Seq="0" IVar="8" Cut="-1.5067378282546997e+00" cType="1" nS="4.6714619140625000e+03" nB="4.2738203125000000e+03" nEv="8.9452822265625000e+03" nSuw="4.8630000000000000e+03" nBuw="4.1740000000000000e+03" nEvuw="9.0370000000000000e+03" sepI="2.4950599670410156e-01" sepG="1.3951037406921387e+01" res="-9.9000000000000000e+01" rms="0.0000000000000000e+00" nType="0" CC="0.0000000000000000e+00">
          <Node pos="l" depth="2" Seq="0" IVar="15" Cut="1.1138875484466553e+00" cType="1" nS="4.5461269531250000e+03" nB="4.0234660644531250e+03" nEv="8.5695927734375000e+03" nSuw="4.7140000000000000e+03" nBuw="3.8760000000000000e+03" nEvuw="8.5900000000000000e+03" sepI="2.4907004833221436e-01" sepG="1.0067131996154785e+01" res="-9.9000000000000000e+01" rms="0.0000000000000000e+00" nType="0" CC="0.0000000000000000e+00">
            <Node pos="l" depth="3" Seq="0" IVar="-1" Cut="0.0000000000000000e+00" cType="1" nS="4.4314594726562500e+03" nB="3.8167968750000000e+03" nEv="8.2482568359375000e+03" nSuw="4.5430000000000000e+03" nBuw="3.5620000000000000e+03" nEvuw="8.1050000000000000e+03" sepI="2.4861168861389160e-01" sepG="-1.0000000000000000e+00" res="-9.9000000000000000e+01" rms="0.0000000000000000e+00" nType="1" CC="0.0000000000000000e+00"/>
            <Node pos="r" depth="3" Seq="4" IVar="-1" Cut="0.0000000000000000e+00" cType="1" nS="1.1466750335693359e+02" nB="2.0666906738281250e+02" nEv="3.2133654785156250e+02" nSuw="1.7100000000000000e+02" nBuw="3.1400000000000000e+02" nEvuw="4.8500000000000000e+02" sepI="2.2950679063796997e-01" sepG="-1.0000000000000000e+00" res="-9.9000000000000000e+01" rms="0.0000000000000000e+00" nType="-1" CC="0.0000000000000000e+00"/>
          </Node>
          <Node pos="r" depth="2" Seq="2" IVar="0" Cut="-9.2724380493164062e+01" cType="0" nS="1.2533484649658203e+02" nB="2.5035430908203125e+02" nEv="3.7568914794921875e+02" nSuw="1.4900000000000000e+02" nBuw="2.9800000000000000e+02" nEvuw="4.4700000000000000e+02" sepI="2.2231541574001312e-01" sepG="1.4549183845520020e+01" res="-9.9000000000000000e+01" rms="0.0000000000000000e+00" nType="0" CC="0.0000000000000000e+00">
            <Node pos="l" depth="3" Seq="2" IVar="-1" Cut="0.0000000000000000e+00" cType="1" nS="1.0478404235839844e+02" nB="9.8893432617187500e+01" nEv="2.0367747497558594e+02" nSuw="1.3100000000000000e+02" nBuw="9.0000000000000000e+01" nEvuw="2.2100000000000000e+02" sepI="2.4979089200496674e-01" sepG="-1.0000000000000000e+00" res="-9.9000000000000000e+01" rms="0.0000000000000000e+00" nType="1" CC="0.0000000000000000e+00"/>
            <Node pos="r" depth="3" Seq="6" IVar="-1" Cut="0.0000000000000000e+00" cType="1" nS="2.0550802230834961e+01" nB="1.5146087646484375e+02" nEv="1.7201167297363281e+02" nSuw="1.8000000000000000e+01" nBuw="2.0800000000000000e+02" nEvuw="2.2600000000000000e+02" sepI="1.0519942641258240e-01" sepG="-1.0000000000000000e+00" res="-9.9000000000000000e+01" rms="0.0000000000000000e+00" nType="-1" CC="0.0000000000000000e+00"/>
          </Node>
        </Node>
        <Node pos="r" depth="1" Seq="1" IVar="9" Cut="-1.4227091073989868e+00" cType="0" nS="4.5688452148437500e+03" nB="5.2608715820312500e+03" nEv="9.8297167968750000e+03" nSuw="4.9070000000000000e+03" nBuw="4.8310000000000000e+03" nEvuw="9.7380000000000000e+03" sepI="2.4876090884208679e-01" sepG="4.4255535125732422e+01" res="-9.9000000000000000e+01" rms="0.0000000000000000e+00" nType="0" CC="0.0000000000000000e+00">
          <Node pos="l" depth="2" Seq="1" IVar="-1" Cut="1.5180692672729492e+00" cType="0" nS="4.4744838867187500e+03" nB="4.8343300781250000e+03" nEv="9.3088134765625000e+03" nSuw="4.7920000000000000e+03" nBuw="4.2930000000000000e+03" nEvuw="9.0850000000000000e+03" sepI="2.4962641298770905e-01" sepG="-1.0000000000000000e+00" res="-9.9000000000000000e+01" rms="0.0000000000000000e+00" nType="-1" CC="0.0000000000000000e+00"/>
          <Node pos="r" depth="2" Seq="3" IVar="0" Cut="-9.3464996337890625e+01" cType="1" nS="9.4361526489257812e+01" nB="4.2654168701171875e+02" nEv="5.2090319824218750e+02" nSuw="1.1500000000000000e+02" nBuw="5.3800000000000000e+02" nEvuw="6.5300000000000000e+02" sepI="1.4833456277847290e-01" sepG="2.8281820297241211e+01" res="-9.9000000000000000e+01" rms="0.0000000000000000e+00" nType="0" CC="0.0000000000000000e+00">
            <Node pos="l" depth="3" Seq="3" IVar="-1" Cut="0.0000000000000000e+00" cType="1" nS="4.3345928192138672e+01" nB="3.7644386291503906e+00" nEv="4.7110366821289062e+01" nSuw="5.8000000000000000e+01" nBuw="9.0000000000000000e+00" nEvuw="6.7000000000000000e+01" sepI="7.3521703481674194e-02" sepG="-1.0000000000000000e+00" res="-9.9000000000000000e+01" rms="0.0000000000000000e+00" nType="1" CC="0.0000000000000000e+00"/>
            <Node pos="r" depth="3" Seq="7" IVar="-1" Cut="0.0000000000000000e+00" cType="1" nS="5.1015598297119141e+01" nB="4.2277725219726562e+02" nEv="4.7379284667968750e+02" nSuw="5.7000000000000000e+01" nBuw="5.2900000000000000e+02" nEvuw="5.8600000000000000e+02" sepI="9.6081018447875977e-02" sepG="-1.0000000000000000e+00" res="-9.9000000000000000e+01" rms="0.0000000000000000e+00" nType="-1" CC="0.0000000000000000e+00"/>
          </Node>
        </Node>
      </Node>
    </BinaryTree>
    <BinaryTree type="DecisionTree" boostWeight="1.4815104258910669e-01" itree="18">
