<?xml version="1.0"?>
<MethodSetup Method="BDT::BDT">
  <GeneralInfo>
    <Info name="TMVA Release" value="4.0.7 [262151]"/>
    <Info name="ROOT Release" value="5.27/06 [334598]"/>
    <Info name="Creator" value="ivo"/>
    <Info name="Date" value="Mon Apr 16 14:24:14 2012"/>
    <Info name="Host" value="Linux lxbuild051.cern.ch 2.6.18-238.1.1.el5 #1 SMP Wed Jan 19 11:06:36 CET 2011 x86_64 x86_64 x86_64 GNU/Linux"/>
    <Info name="Dir" value="/grid_mnt/vol__vol1__u/llr/cms/ivo/PFAntiElecMVA/CMSSW_4_2_8_patch7/src/IvoNaranjo/ElectronsStudies/test/Macros/tmva"/>
    <Info name="Training events" value="22000"/>
    <Info name="TrainingTime" value="24.0703"/>
    <Info name="AnalysisType" value="Classification"/>
  </GeneralInfo>
  <Options>
    <Option name="V" modified="Yes">False</Option>
    <Option name="VerbosityLevel" modified="No">Default</Option>
    <Option name="VarTransform" modified="No">None</Option>
    <Option name="H" modified="Yes">False</Option>
    <Option name="CreateMVAPdfs" modified="No">False</Option>
    <Option name="IgnoreNegWeightsInTraining" modified="No">False</Option>
    <Option name="NTrees" modified="Yes">400</Option>
    <Option name="BoostType" modified="Yes">AdaBoost</Option>
    <Option name="AdaBoostR2Loss" modified="No">quadratic</Option>
    <Option name="UseBaggedGrad" modified="No">False</Option>
    <Option name="GradBaggingFraction" modified="No">6.000000e-01</Option>
    <Option name="Shrinkage" modified="No">1.000000e+00</Option>
    <Option name="AdaBoostBeta" modified="No">1.000000e+00</Option>
    <Option name="UseRandomisedTrees" modified="No">False</Option>
    <Option name="UseNvars" modified="No">2</Option>
    <Option name="UseNTrainEvents" modified="No">22000</Option>
    <Option name="UseWeightedTrees" modified="No">True</Option>
    <Option name="UseYesNoLeaf" modified="No">True</Option>
    <Option name="NodePurityLimit" modified="No">5.000000e-01</Option>
    <Option name="SeparationType" modified="Yes">giniindex</Option>
    <Option name="nEventsMin" modified="No">40</Option>
    <Option name="nCuts" modified="Yes">20</Option>
    <Option name="PruneStrength" modified="No">-1.000000e+00</Option>
    <Option name="PruneMethod" modified="Yes">nopruning</Option>
    <Option name="PruneBeforeBoost" modified="No">False</Option>
    <Option name="PruningValFraction" modified="No">5.000000e-01</Option>
    <Option name="NNodesMax" modified="No">100000</Option>
    <Option name="MaxDepth" modified="No">3</Option>
  </Options>
  <Variables NVar="19">
    <Variable VarIndex="0" Expression="Elec_EtotOverPin" Label="Elec_EtotOverPin" Title="EtotOverPin" Unit="     " Internal="Elec_EtotOverPin" Type="F" Min="0.000410168" Max="75.3057"/>
    <Variable VarIndex="1" Expression="Elec_EeOverPout" Label="Elec_EeOverPout" Title="EeOverPout" Unit="     " Internal="Elec_EeOverPout" Type="F" Min="0.0316534" Max="268.027"/>
    <Variable VarIndex="2" Expression="Elec_EarlyBrem" Label="Elec_EarlyBrem" Title="EarlyBrem" Unit="     " Internal="Elec_EarlyBrem" Type="I" Min="-1" Max="1"/>
    <Variable VarIndex="3" Expression="Elec_LateBrem" Label="Elec_LateBrem" Title="LateBrem" Unit="     " Internal="Elec_LateBrem" Type="I" Min="-1" Max="1"/>
    <Variable VarIndex="4" Expression="Elec_Chi2GSF" Label="Elec_Chi2GSF" Title="Elec_Chi2GSF" Unit="     " Internal="Elec_Chi2GSF" Type="F" Min="0.082751" Max="782.491"/>
    <Variable VarIndex="5" Expression="Elec_NumHits" Label="Elec_NumHits" Title="NumHits" Unit="     " Internal="Elec_NumHits" Type="I" Min="-99" Max="23"/>
    <Variable VarIndex="6" Expression="Elec_GSFTrackResol" Label="Elec_GSFTrackResol" Title="Elec_GSFTrackResol" Unit="     " Internal="Elec_GSFTrackResol" Type="F" Min="0.0267543" Max="682.328"/>
    <Variable VarIndex="7" Expression="Elec_GSFTracklnPt" Label="Elec_GSFTracklnPt" Title="Elec_GSFTracklnPt" Unit="     " Internal="Elec_GSFTracklnPt" Type="F" Min="-1.68812" Max="25.7315"/>
    <Variable VarIndex="8" Expression="Elec_GSFTrackEta" Label="Elec_GSFTrackEta" Title="Elec_GSFTrackEta" Unit="     " Internal="Elec_GSFTrackEta" Type="F" Min="-1.47886" Max="1.47873"/>
    <Variable VarIndex="9" Expression="Tau_AbsEta" Label="Tau_AbsEta" Title="PFTauEta" Unit="     " Internal="Tau_AbsEta" Type="F" Min="2.59211e-05" Max="1.47865"/>
    <Variable VarIndex="10" Expression="Tau_Pt" Label="Tau_Pt" Title="TauPt" Unit="     " Internal="Tau_Pt" Type="F" Min="7.07216" Max="315.587"/>
    <Variable VarIndex="11" Expression="Tau_EmFraction" Label="Tau_EmFraction" Title="TauEmFraction" Unit="     " Internal="Tau_EmFraction" Type="F" Min="0" Max="1"/>
    <Variable VarIndex="12" Expression="Tau_NumGammaCands" Label="Tau_NumGammaCands" Title="TauNumGammaCands" Unit="     " Internal="Tau_NumGammaCands" Type="I" Min="1" Max="7"/>
    <Variable VarIndex="13" Expression="Tau_HadrHoP" Label="Tau_HadrHoP" Title="TauHadrHoP" Unit="     " Internal="Tau_HadrHoP" Type="F" Min="0" Max="26.478"/>
    <Variable VarIndex="14" Expression="Tau_HadrEoP" Label="Tau_HadrEoP" Title="TauHadrEoP" Unit="     " Internal="Tau_HadrEoP" Type="F" Min="0" Max="3.93241"/>
    <Variable VarIndex="15" Expression="Tau_VisMass" Label="Tau_VisMass" Title="TauVisMass" Unit="     " Internal="Tau_VisMass" Type="F" Min="0.00794172" Max="9.04164"/>
    <Variable VarIndex="16" Expression="Tau_GammaEtaMom" Label="Tau_GammaEtaMom" Title="Tau_GammaEtaMom" Unit="     " Internal="Tau_GammaEtaMom" Type="F" Min="2.60856e-05" Max="4.01654"/>
    <Variable VarIndex="17" Expression="Tau_GammaPhiMom" Label="Tau_GammaPhiMom" Title="Tau_GammaPhiMom" Unit="     " Internal="Tau_GammaPhiMom" Type="F" Min="2.00449e-05" Max="9.0169"/>
    <Variable VarIndex="18" Expression="Tau_GammaEnFrac" Label="Tau_GammaEnFrac" Title="GammaEnFrac" Unit="     " Internal="Tau_GammaEnFrac" Type="F" Min="0.0108837" Max="0.968363"/>
  </Variables>
  <Spectators NSpec="0"/>
  <Transformations NTransformations="0"/>
  <MVAPdfs/>
  <Weights NTrees="400" TreeType="0">
    <BinaryTree type="DecisionTree" boostWeight="3.4667676526450393e+00" itree="0">
      <Node pos="s" depth="0" Seq="0" IVar="-1" Cut="6.1460452079772949e+00" cType="1" nS="6.6600000000000000e+02" nB="2.1334000000000000e+04" nEv="2.2000000000000000e+04" nSuw="6.6600000000000000e+02" nBuw="2.1334000000000000e+04" nEvuw="2.2000000000000000e+04" sepI="2.9356289654970169e-02" sepG="-1.0000000000000000e+00" res="-9.9000000000000000e+01" rms="0.0000000000000000e+00" nType="-1" CC="0.0000000000000000e+00"/>
    </BinaryTree>
    <BinaryTree type="DecisionTree" boostWeight="1.1117028171853551e+00" itree="1">
      <Node pos="s" depth="0" Seq="0" IVar="7" Cut="6.1460452079772949e+00" cType="1" nS="1.0999999023437500e+04" nB="1.1000000000000000e+04" nEv="2.2000000000000000e+04" nSuw="6.6600000000000000e+02" nBuw="2.1334000000000000e+04" nEvuw="2.2000000000000000e+04" sepI="2.5000000000000000e-01" sepG="1.0415067138671875e+03" res="-9.9000000000000000e+01" rms="0.0000000000000000e+00" nType="0" CC="0.0000000000000000e+00">
        <Node pos="l" depth="1" Seq="0" IVar="10" Cut="3.5258201599121094e+01" cType="1" nS="5.4174169921875000e+03" nB="1.0549357910156250e+03" nEv="6.4723530273437500e+03" nSuw="3.2800000000000000e+02" nBuw="2.0460000000000000e+03" nEvuw="2.3740000000000000e+03" sepI="1.3642498850822449e-01" sepG="5.5444507598876953e+01" res="-9.9000000000000000e+01" rms="0.0000000000000000e+00" nType="0" CC="0.0000000000000000e+00">
          <Node pos="l" depth="2" Seq="0" IVar="-1" Cut="1.2380952835083008e+00" cType="0" nS="4.8558554687500000e+03" nB="6.9555639648437500e+02" nEv="5.5514121093750000e+03" nSuw="2.9400000000000000e+02" nBuw="1.3490000000000000e+03" nEvuw="1.6430000000000000e+03" sepI="1.0959511250257492e-01" sepG="-1.0000000000000000e+00" res="-9.9000000000000000e+01" rms="0.0000000000000000e+00" nType="1" CC="0.0000000000000000e+00"/>
          <Node pos="r" depth="2" Seq="2" IVar="12" Cut="1.2380952835083008e+00" cType="0" nS="5.6156152343750000e+02" nB="3.5937939453125000e+02" nEv="9.2094091796875000e+02" nSuw="3.4000000000000000e+01" nBuw="6.9700000000000000e+02" nEvuw="7.3100000000000000e+02" sepI="2.3795069754123688e-01" sepG="2.3833646774291992e+01" res="-9.9000000000000000e+01" rms="0.0000000000000000e+00" nType="0" CC="0.0000000000000000e+00">
            <Node pos="l" depth="3" Seq="2" IVar="-1" Cut="0.0000000000000000e+00" cType="1" nS="2.4774774169921875e+02" nB="4.5373584747314453e+01" nEv="2.9312130737304688e+02" nSuw="1.5000000000000000e+01" nBuw="8.8000000000000000e+01" nEvuw="1.0300000000000000e+02" sepI="1.3083319365978241e-01" sepG="-1.0000000000000000e+00" res="-9.9000000000000000e+01" rms="0.0000000000000000e+00" nType="1" CC="0.0000000000000000e+00"/>
            <Node pos="r" depth="3" Seq="6" IVar="-1" Cut="0.0000000000000000e+00" cType="1" nS="3.1381381225585938e+02" nB="3.1400582885742188e+02" nEv="6.2781964111328125e+02" nSuw="1.9000000000000000e+01" nBuw="6.0900000000000000e+02" nEvuw="6.2800000000000000e+02" sepI="2.4999997019767761e-01" sepG="-1.0000000000000000e+00" res="-9.9000000000000000e+01" rms="0.0000000000000000e+00" nType="-1" CC="0.0000000000000000e+00"/>
          </Node>
        </Node>
        <Node pos="r" depth="1" Seq="1" IVar="11" Cut="9.5238095521926880e-01" cType="1" nS="5.5825825195312500e+03" nB="9.9450644531250000e+03" nEv="1.5527646484375000e+04" nSuw="3.3800000000000000e+02" nBuw="1.9288000000000000e+04" nEvuw="1.9626000000000000e+04" sepI="2.3026686906814575e-01" sepG="3.6545724487304688e+02" res="-9.9000000000000000e+01" rms="0.0000000000000000e+00" nType="0" CC="0.0000000000000000e+00">
          <Node pos="l" depth="2" Seq="1" IVar="10" Cut="3.1800727844238281e+01" cType="1" nS="3.8153151855468750e+03" nB="3.4896411132812500e+03" nEv="7.3049560546875000e+03" nSuw="2.3100000000000000e+02" nBuw="6.7680000000000000e+03" nEvuw="6.9990000000000000e+03" sepI="2.4950309097766876e-01" sepG="1.4826393127441406e+02" res="-9.9000000000000000e+01" rms="0.0000000000000000e+00" nType="0" CC="0.0000000000000000e+00">
            <Node pos="l" depth="3" Seq="1" IVar="-1" Cut="0.0000000000000000e+00" cType="1" nS="3.0885883789062500e+03" nB="1.8974407958984375e+03" nEv="4.9860292968750000e+03" nSuw="1.8700000000000000e+02" nBuw="3.6800000000000000e+03" nEvuw="3.8670000000000000e+03" sepI="2.3573204874992371e-01" sepG="-1.0000000000000000e+00" res="-9.9000000000000000e+01" rms="0.0000000000000000e+00" nType="1" CC="0.0000000000000000e+00"/>
            <Node pos="r" depth="3" Seq="5" IVar="-1" Cut="0.0000000000000000e+00" cType="1" nS="7.2672668457031250e+02" nB="1.5922003173828125e+03" nEv="2.3189270019531250e+03" nSuw="4.4000000000000000e+01" nBuw="3.0880000000000000e+03" nEvuw="3.1320000000000000e+03" sepI="2.1517641842365265e-01" sepG="-1.0000000000000000e+00" res="-9.9000000000000000e+01" rms="0.0000000000000000e+00" nType="-1" CC="0.0000000000000000e+00"/>
          </Node>
          <Node pos="r" depth="2" Seq="3" IVar="-1" Cut="7.0802817344665527e+00" cType="1" nS="1.7672672119140625e+03" nB="6.4554233398437500e+03" nEv="8.2226904296875000e+03" nSuw="1.0700000000000000e+02" nBuw="1.2520000000000000e+04" nEvuw="1.2627000000000000e+04" sepI="1.6873261332511902e-01" sepG="-1.0000000000000000e+00" res="-9.9000000000000000e+01" rms="0.0000000000000000e+00" nType="-1" CC="0.0000000000000000e+00"/>
        </Node>
      </Node>
    </BinaryTree>
    <BinaryTree type="DecisionTree" boostWeight="8.6443087258579066e-01" itree="2">
      <Node pos="s" depth="0" Seq="0" IVar="18" Cut="5.6477971374988556e-02" cType="0" nS="1.1114815429687500e+04" nB="1.0885183593750000e+04" nEv="2.2000000000000000e+04" nSuw="6.6600000000000000e+02" nBuw="2.1334000000000000e+04" nEvuw="2.2000000000000000e+04" sepI="2.4997276067733765e-01" sepG="4.5251370239257812e+02" res="-9.9000000000000000e+01" rms="0.0000000000000000e+00" nType="0" CC="0.0000000000000000e+00">
        <Node pos="l" depth="1" Seq="0" IVar="16" Cut="1.9128876924514771e-01" cType="0" nS="8.5038408203125000e+03" nB="5.3093906250000000e+03" nEv="1.3813232421875000e+04" nSuw="5.2600000000000000e+02" nBuw="1.0318000000000000e+04" nEvuw="1.0844000000000000e+04" sepI="2.3662967979907990e-01" sepG="2.1427607727050781e+02" res="-9.9000000000000000e+01" rms="0.0000000000000000e+00" nType="0" CC="0.0000000000000000e+00">
          <Node pos="l" depth="2" Seq="0" IVar="-1" Cut="1.2857142686843872e+00" cType="0" nS="7.1245644531250000e+03" nB="3.2385229492187500e+03" nEv="1.0363087890625000e+04" nSuw="4.3500000000000000e+02" nBuw="6.6050000000000000e+03" nEvuw="7.0400000000000000e+03" sepI="2.1484585106372833e-01" sepG="-1.0000000000000000e+00" res="-9.9000000000000000e+01" rms="0.0000000000000000e+00" nType="1" CC="0.0000000000000000e+00"/>
          <Node pos="r" depth="2" Seq="2" IVar="7" Cut="5.6417946815490723e+00" cType="1" nS="1.3792767333984375e+03" nB="2.0708679199218750e+03" nEv="3.4501445312500000e+03" nSuw="9.1000000000000000e+01" nBuw="3.7130000000000000e+03" nEvuw="3.8040000000000000e+03" sepI="2.3995466530323029e-01" sepG="1.4155393981933594e+02" res="-9.9000000000000000e+01" rms="0.0000000000000000e+00" nType="0" CC="0.0000000000000000e+00">
            <Node pos="l" depth="3" Seq="2" IVar="-1" Cut="0.0000000000000000e+00" cType="1" nS="6.8263226318359375e+02" nB="2.4884654235839844e+02" nEv="9.3147882080078125e+02" nSuw="5.2000000000000000e+01" nBuw="2.9800000000000000e+02" nEvuw="3.5000000000000000e+02" sepI="1.9578187167644501e-01" sepG="-1.0000000000000000e+00" res="-9.9000000000000000e+01" rms="0.0000000000000000e+00" nType="1" CC="0.0000000000000000e+00"/>
            <Node pos="r" depth="3" Seq="6" IVar="-1" Cut="0.0000000000000000e+00" cType="1" nS="6.9664440917968750e+02" nB="1.8220213623046875e+03" nEv="2.5186657714843750e+03" nSuw="3.9000000000000000e+01" nBuw="3.4150000000000000e+03" nEvuw="3.4540000000000000e+03" sepI="2.0008915662765503e-01" sepG="-1.0000000000000000e+00" res="-9.9000000000000000e+01" rms="0.0000000000000000e+00" nType="-1" CC="0.0000000000000000e+00"/>
          </Node>
        </Node>
        <Node pos="r" depth="1" Seq="1" IVar="9" Cut="1.0561866760253906e+00" cType="0" nS="2.6109743652343750e+03" nB="5.5757934570312500e+03" nEv="8.1867675781250000e+03" nSuw="1.4000000000000000e+02" nBuw="1.1016000000000000e+04" nEvuw="1.1156000000000000e+04" sepI="2.1721225976943970e-01" sepG="1.7467292785644531e+02" res="-9.9000000000000000e+01" rms="0.0000000000000000e+00" nType="0" CC="0.0000000000000000e+00">
          <Node pos="l" depth="2" Seq="1" IVar="10" Cut="4.2970752716064453e+01" cType="1" nS="1.4275159912109375e+03" nB="1.2838084716796875e+03" nEv="2.7113244628906250e+03" nSuw="7.5000000000000000e+01" nBuw="2.2500000000000000e+03" nEvuw="2.3250000000000000e+03" sepI="2.4929767847061157e-01" sepG="3.5095996856689453e+01" res="-9.9000000000000000e+01" rms="0.0000000000000000e+00" nType="0" CC="0.0000000000000000e+00">
            <Node pos="l" depth="3" Seq="1" IVar="-1" Cut="0.0000000000000000e+00" cType="1" nS="1.4275159912109375e+03" nB="1.1628494873046875e+03" nEv="2.5903654785156250e+03" nSuw="7.5000000000000000e+01" nBuw="1.8990000000000000e+03" nEvuw="1.9740000000000000e+03" sepI="2.4739015102386475e-01" sepG="-1.0000000000000000e+00" res="-9.9000000000000000e+01" rms="0.0000000000000000e+00" nType="1" CC="0.0000000000000000e+00"/>
            <Node pos="r" depth="3" Seq="5" IVar="-1" Cut="0.0000000000000000e+00" cType="1" nS="0.0000000000000000e+00" nB="1.2095898437500000e+02" nEv="1.2095898437500000e+02" nSuw="0.0000000000000000e+00" nBuw="3.5100000000000000e+02" nEvuw="3.5100000000000000e+02" sepI="0.0000000000000000e+00" sepG="-1.0000000000000000e+00" res="-9.9000000000000000e+01" rms="0.0000000000000000e+00" nType="-1" CC="0.0000000000000000e+00"/>
          </Node>
          <Node pos="r" depth="2" Seq="3" IVar="0" Cut="1.7824184894561768e+00" cType="0" nS="1.1834582519531250e+03" nB="4.2919848632812500e+03" nEv="5.4754433593750000e+03" nSuw="6.5000000000000000e+01" nBuw="8.7660000000000000e+03" nEvuw="8.8310000000000000e+03" sepI="1.6942308843135834e-01" sepG="8.1950889587402344e+01" res="-9.9000000000000000e+01" rms="0.0000000000000000e+00" nType="0" CC="0.0000000000000000e+00">
            <Node pos="l" depth="3" Seq="3" IVar="-1" Cut="0.0000000000000000e+00" cType="1" nS="4.1966107177734375e+02" nB="4.1045709228515625e+02" nEv="8.3011816406250000e+02" nSuw="2.6000000000000000e+01" nBuw="6.3100000000000000e+02" nEvuw="6.5700000000000000e+02" sepI="2.4996927380561829e-01" sepG="-1.0000000000000000e+00" res="-9.9000000000000000e+01" rms="0.0000000000000000e+00" nType="1" CC="0.0000000000000000e+00"/>
            <Node pos="r" depth="3" Seq="7" IVar="-1" Cut="0.0000000000000000e+00" cType="1" nS="7.6379724121093750e+02" nB="3.8815278320312500e+03" nEv="4.6453251953125000e+03" nSuw="3.9000000000000000e+01" nBuw="8.1350000000000000e+03" nEvuw="8.1740000000000000e+03" sepI="1.3738793134689331e-01" sepG="-1.0000000000000000e+00" res="-9.9000000000000000e+01" rms="0.0000000000000000e+00" nType="-1" CC="0.0000000000000000e+00"/>
          </Node>
        </Node>
      </Node>
    </BinaryTree>
    <BinaryTree type="DecisionTree" boostWeight="5.8649288891169116e-01" itree="3">
      <Node pos="s" depth="0" Seq="0" IVar="12" Cut="1.2857142686843872e+00" cType="0" nS="9.3243515625000000e+03" nB="1.2675648437500000e+04" nEv="2.2000000000000000e+04" nSuw="6.6600000000000000e+02" nBuw="2.1334000000000000e+04" nEvuw="2.2000000000000000e+04" sepI="2.4419876933097839e-01" sepG="2.4401814270019531e+02" res="-9.9000000000000000e+01" rms="0.0000000000000000e+00" nType="0" CC="0.0000000000000000e+00">
        <Node pos="l" depth="1" Seq="0" IVar="18" Cut="6.0714531689882278e-02" cType="0" nS="3.0510065917968750e+03" nB="1.8696020507812500e+03" nEv="4.9206088867187500e+03" nSuw="2.7200000000000000e+02" nBuw="2.4080000000000000e+03" nEvuw="2.6800000000000000e+03" sepI="2.3558881878852844e-01" sepG="5.5762798309326172e+01" res="-9.9000000000000000e+01" rms="0.0000000000000000e+00" nType="0" CC="0.0000000000000000e+00">
          <Node pos="l" depth="2" Seq="0" IVar="16" Cut="2.7566689252853394e-01" cType="0" nS="2.9879941406250000e+03" nB="1.6271336669921875e+03" nEv="4.6151279296875000e+03" nSuw="2.6800000000000000e+02" nBuw="1.9210000000000000e+03" nEvuw="2.1890000000000000e+03" sepI="2.2826299071311951e-01" sepG="4.5647636413574219e+01" res="-9.9000000000000000e+01" rms="0.0000000000000000e+00" nType="0" CC="0.0000000000000000e+00">
            <Node pos="l" depth="3" Seq="0" IVar="-1" Cut="0.0000000000000000e+00" cType="1" nS="2.5649223632812500e+03" nB="1.1113682861328125e+03" nEv="3.6762905273437500e+03" nSuw="2.3300000000000000e+02" nBuw="1.0990000000000000e+03" nEvuw="1.3320000000000000e+03" sepI="2.1091747283935547e-01" sepG="-1.0000000000000000e+00" res="-9.9000000000000000e+01" rms="0.0000000000000000e+00" nType="1" CC="0.0000000000000000e+00"/>
            <Node pos="r" depth="3" Seq="4" IVar="-1" Cut="0.0000000000000000e+00" cType="1" nS="4.2307186889648438e+02" nB="5.1576538085937500e+02" nEv="9.3883721923828125e+02" nSuw="3.5000000000000000e+01" nBuw="8.2200000000000000e+02" nEvuw="8.5700000000000000e+02" sepI="2.4756298959255219e-01" sepG="-1.0000000000000000e+00" res="-9.9000000000000000e+01" rms="0.0000000000000000e+00" nType="-1" CC="0.0000000000000000e+00"/>
          </Node>
          <Node pos="r" depth="2" Seq="2" IVar="13" Cut="1.5264742076396942e-01" cType="0" nS="6.3012504577636719e+01" nB="2.4246844482421875e+02" nEv="3.0548095703125000e+02" nSuw="4.0000000000000000e+00" nBuw="4.8700000000000000e+02" nEvuw="4.9100000000000000e+02" sepI="1.6372451186180115e-01" sepG="1.3750438690185547e+01" res="-9.9000000000000000e+01" rms="0.0000000000000000e+00" nType="0" CC="0.0000000000000000e+00">
            <Node pos="l" depth="3" Seq="2" IVar="-1" Cut="0.0000000000000000e+00" cType="1" nS="4.7413532257080078e+01" nB="4.0294868469238281e+01" nEv="8.7708404541015625e+01" nSuw="2.0000000000000000e+00" nBuw="5.0000000000000000e+01" nEvuw="5.2000000000000000e+01" sepI="2.4835315346717834e-01" sepG="-1.0000000000000000e+00" res="-9.9000000000000000e+01" rms="0.0000000000000000e+00" nType="1" CC="0.0000000000000000e+00"/>
            <Node pos="r" depth="3" Seq="6" IVar="-1" Cut="0.0000000000000000e+00" cType="1" nS="1.5598970413208008e+01" nB="2.0217356872558594e+02" nEv="2.1777255249023438e+02" nSuw="2.0000000000000000e+00" nBuw="4.3700000000000000e+02" nEvuw="4.3900000000000000e+02" sepI="6.6498838365077972e-02" sepG="-1.0000000000000000e+00" res="-9.9000000000000000e+01" rms="0.0000000000000000e+00" nType="-1" CC="0.0000000000000000e+00"/>
          </Node>
        </Node>
        <Node pos="r" depth="1" Seq="1" IVar="-1" Cut="7.4517393112182617e+00" cType="1" nS="6.2733447265625000e+03" nB="1.0806045898437500e+04" nEv="1.7079390625000000e+04" nSuw="3.9400000000000000e+02" nBuw="1.8926000000000000e+04" nEvuw="1.9320000000000000e+04" sepI="2.3239202797412872e-01" sepG="-1.0000000000000000e+00" res="-9.9000000000000000e+01" rms="0.0000000000000000e+00" nType="-1" CC="0.0000000000000000e+00"/>
      </Node>
    </BinaryTree>
    <BinaryTree type="DecisionTree" boostWeight="4.9020911629171854e-01" itree="4">
      <Node pos="s" depth="0" Seq="0" IVar="7" Cut="7.4517393112182617e+00" cType="1" nS="1.1421767578125000e+04" nB="1.0578231445312500e+04" nEv="2.2000000000000000e+04" nSuw="6.6600000000000000e+02" nBuw="2.1334000000000000e+04" nEvuw="2.2000000000000000e+04" sepI="2.4963246285915375e-01" sepG="1.3990605163574219e+02" res="-9.9000000000000000e+01" rms="0.0000000000000000e+00" nType="0" CC="0.0000000000000000e+00">
        <Node pos="l" depth="1" Seq="0" IVar="7" Cut="3.0993461608886719e+00" cType="1" nS="7.6060830078125000e+03" nB="5.3825693359375000e+03" nEv="1.2988652343750000e+04" nSuw="5.1300000000000000e+02" nBuw="7.7980000000000000e+03" nEvuw="8.3110000000000000e+03" sepI="2.4267359077930450e-01" sepG="5.6504352569580078e+01" res="-9.9000000000000000e+01" rms="0.0000000000000000e+00" nType="0" CC="0.0000000000000000e+00">
          <Node pos="l" depth="2" Seq="0" IVar="18" Cut="9.0649569034576416e-01" cType="1" nS="8.7856884765625000e+02" nB="2.1543357849121094e+02" nEv="1.0940024414062500e+03" nSuw="7.3000000000000000e+01" nBuw="2.0000000000000000e+02" nEvuw="2.7300000000000000e+02" sepI="1.5814396739006042e-01" sepG="2.9009227752685547e+01" res="-9.9000000000000000e+01" rms="0.0000000000000000e+00" nType="0" CC="0.0000000000000000e+00">
            <Node pos="l" depth="3" Seq="0" IVar="-1" Cut="0.0000000000000000e+00" cType="1" nS="8.7856884765625000e+02" nB="1.7222973632812500e+02" nEv="1.0507985839843750e+03" nSuw="7.3000000000000000e+01" nBuw="1.5800000000000000e+02" nEvuw="2.3100000000000000e+02" sepI="1.3703925907611847e-01" sepG="-1.0000000000000000e+00" res="-9.9000000000000000e+01" rms="0.0000000000000000e+00" nType="1" CC="0.0000000000000000e+00"/>
            <Node pos="r" depth="3" Seq="4" IVar="-1" Cut="0.0000000000000000e+00" cType="1" nS="0.0000000000000000e+00" nB="4.3203838348388672e+01" nEv="4.3203838348388672e+01" nSuw="0.0000000000000000e+00" nBuw="4.2000000000000000e+01" nEvuw="4.2000000000000000e+01" sepI="0.0000000000000000e+00" sepG="-1.0000000000000000e+00" res="-9.9000000000000000e+01" rms="0.0000000000000000e+00" nType="-1" CC="0.0000000000000000e+00"/>
          </Node>
          <Node pos="r" depth="2" Seq="2" IVar="9" Cut="5.6357425451278687e-01" cType="0" nS="6.7275136718750000e+03" nB="5.1671357421875000e+03" nEv="1.1894649414062500e+04" nSuw="4.4000000000000000e+02" nBuw="7.5980000000000000e+03" nEvuw="8.0380000000000000e+03" sepI="2.4569773674011230e-01" sepG="6.2482707977294922e+01" res="-9.9000000000000000e+01" rms="0.0000000000000000e+00" nType="0" CC="0.0000000000000000e+00">
            <Node pos="l" depth="3" Seq="2" IVar="-1" Cut="0.0000000000000000e+00" cType="1" nS="5.3328828125000000e+03" nB="3.4242770996093750e+03" nEv="8.7571601562500000e+03" nSuw="3.5400000000000000e+02" nBuw="4.7350000000000000e+03" nEvuw="5.0890000000000000e+03" sepI="2.3812466859817505e-01" sepG="-1.0000000000000000e+00" res="-9.9000000000000000e+01" rms="0.0000000000000000e+00" nType="1" CC="0.0000000000000000e+00"/>
            <Node pos="r" depth="3" Seq="6" IVar="-1" Cut="0.0000000000000000e+00" cType="1" nS="1.3946312255859375e+03" nB="1.7428585205078125e+03" nEv="3.1374897460937500e+03" nSuw="8.6000000000000000e+01" nBuw="2.8630000000000000e+03" nEvuw="2.9490000000000000e+03" sepI="2.4692034721374512e-01" sepG="-1.0000000000000000e+00" res="-9.9000000000000000e+01" rms="0.0000000000000000e+00" nType="-1" CC="0.0000000000000000e+00"/>
          </Node>
        </Node>
        <Node pos="r" depth="1" Seq="1" IVar="18" Cut="4.2123180627822876e-01" cType="1" nS="3.8156848144531250e+03" nB="5.1956621093750000e+03" nEv="9.0113476562500000e+03" nSuw="1.5300000000000000e+02" nBuw="1.3536000000000000e+04" nEvuw="1.3689000000000000e+04" sepI="2.4413721263408661e-01" sepG="1.2540300750732422e+02" res="-9.9000000000000000e+01" rms="0.0000000000000000e+00" nType="0" CC="0.0000000000000000e+00">
          <Node pos="l" depth="2" Seq="1" IVar="14" Cut="9.1281819343566895e-01" cType="1" nS="3.7850996093750000e+03" nB="4.4493710937500000e+03" nEv="8.2344707031250000e+03" nSuw="1.5000000000000000e+02" nBuw="1.1775000000000000e+04" nEvuw="1.1925000000000000e+04" sepI="2.4837310612201691e-01" sepG="7.7711547851562500e+01" res="-9.9000000000000000e+01" rms="0.0000000000000000e+00" nType="0" CC="0.0000000000000000e+00">
            <Node pos="l" depth="3" Seq="1" IVar="-1" Cut="0.0000000000000000e+00" cType="1" nS="7.5496899414062500e+02" nB="3.0472052001953125e+02" nEv="1.0596895751953125e+03" nSuw="3.5000000000000000e+01" nBuw="5.6500000000000000e+02" nEvuw="6.0000000000000000e+02" sepI="2.0486772060394287e-01" sepG="-1.0000000000000000e+00" res="-9.9000000000000000e+01" rms="0.0000000000000000e+00" nType="1" CC="0.0000000000000000e+00"/>
            <Node pos="r" depth="3" Seq="5" IVar="-1" Cut="0.0000000000000000e+00" cType="1" nS="3.0301306152343750e+03" nB="4.1446503906250000e+03" nEv="7.1747807617187500e+03" nSuw="1.1500000000000000e+02" nBuw="1.1210000000000000e+04" nEvuw="1.1325000000000000e+04" sepI="2.4396748840808868e-01" sepG="-1.0000000000000000e+00" res="-9.9000000000000000e+01" rms="0.0000000000000000e+00" nType="-1" CC="0.0000000000000000e+00"/>
          </Node>
          <Node pos="r" depth="2" Seq="3" IVar="-1" Cut="1.2380952835083008e+00" cType="0" nS="3.0585262298583984e+01" nB="7.4629150390625000e+02" nEv="7.7687677001953125e+02" nSuw="3.0000000000000000e+00" nBuw="1.7610000000000000e+03" nEvuw="1.7640000000000000e+03" sepI="3.7819560617208481e-02" sepG="-1.0000000000000000e+00" res="-9.9000000000000000e+01" rms="0.0000000000000000e+00" nType="-1" CC="0.0000000000000000e+00"/>
        </Node>
      </Node>
    </BinaryTree>
    <BinaryTree type="DecisionTree" boostWeight="3.5774631830250303e-01" itree="5">
      <Node pos="s" depth="0" Seq="0" IVar="11" Cut="3.3333334326744080e-01" cType="0" nS="1.1481372070312500e+04" nB="1.0518626953125000e+04" nEv="2.2000000000000000e+04" nSuw="6.6600000000000000e+02" nBuw="2.1334000000000000e+04" nEvuw="2.2000000000000000e+04" sepI="2.4952124059200287e-01" sepG="7.4330482482910156e+01" res="-9.9000000000000000e+01" rms="0.0000000000000000e+00" nType="0" CC="0.0000000000000000e+00">
        <Node pos="l" depth="1" Seq="0" IVar="11" Cut="8.7330967187881470e-01" cType="1" nS="1.1350721679687500e+04" nB="9.9772714843750000e+03" nEv="2.1327992187500000e+04" nSuw="6.5200000000000000e+02" nBuw="2.0669000000000000e+04" nEvuw="2.1321000000000000e+04" sepI="2.4896326661109924e-01" sepG="6.2838672637939453e+01" res="-9.9000000000000000e+01" rms="0.0000000000000000e+00" nType="0" CC="0.0000000000000000e+00">
          <Node pos="l" depth="2" Seq="0" IVar="-1" Cut="3.5882717132568359e+01" cType="0" nS="3.0675935058593750e+03" nB="1.7844968261718750e+03" nEv="4.8520903320312500e+03" nSuw="2.0200000000000000e+02" nBuw="2.2650000000000000e+03" nEvuw="2.4670000000000000e+03" sepI="2.3251760005950928e-01" sepG="-1.0000000000000000e+00" res="-9.9000000000000000e+01" rms="0.0000000000000000e+00" nType="1" CC="0.0000000000000000e+00"/>
          <Node pos="r" depth="2" Seq="2" IVar="10" Cut="3.7833061218261719e+01" cType="1" nS="8.2831279296875000e+03" nB="8.1927744140625000e+03" nEv="1.6475902343750000e+04" nSuw="4.5000000000000000e+02" nBuw="1.8404000000000000e+04" nEvuw="1.8854000000000000e+04" sepI="2.4999247491359711e-01" sepG="1.0227238464355469e+02" res="-9.9000000000000000e+01" rms="0.0000000000000000e+00" nType="0" CC="0.0000000000000000e+00">
            <Node pos="l" depth="3" Seq="2" IVar="-1" Cut="0.0000000000000000e+00" cType="1" nS="7.2092011718750000e+03" nB="6.1150107421875000e+03" nEv="1.3324211914062500e+04" nSuw="4.1100000000000000e+02" nBuw="1.1773000000000000e+04" nEvuw="1.2184000000000000e+04" sepI="2.4831405282020569e-01" sepG="-1.0000000000000000e+00" res="-9.9000000000000000e+01" rms="0.0000000000000000e+00" nType="1" CC="0.0000000000000000e+00"/>
            <Node pos="r" depth="3" Seq="6" IVar="-1" Cut="0.0000000000000000e+00" cType="1" nS="1.0739265136718750e+03" nB="2.0777634277343750e+03" nEv="3.1516899414062500e+03" nSuw="3.9000000000000000e+01" nBuw="6.6310000000000000e+03" nEvuw="6.6700000000000000e+03" sepI="2.2463823854923248e-01" sepG="-1.0000000000000000e+00" res="-9.9000000000000000e+01" rms="0.0000000000000000e+00" nType="-1" CC="0.0000000000000000e+00"/>
          </Node>
        </Node>
        <Node pos="r" depth="1" Seq="1" IVar="4" Cut="9.4800701141357422e+00" cType="0" nS="1.3065090942382812e+02" nB="5.4135589599609375e+02" nEv="6.7200677490234375e+02" nSuw="1.4000000000000000e+01" nBuw="6.6500000000000000e+02" nEvuw="6.7900000000000000e+02" sepI="1.5662027895450592e-01" sepG="2.8022956848144531e+01" res="-9.9000000000000000e+01" rms="0.0000000000000000e+00" nType="0" CC="0.0000000000000000e+00">
          <Node pos="l" depth="2" Seq="1" IVar="8" Cut="7.6407468318939209e-01" cType="1" nS="9.9186126708984375e+01" nB="9.2348701477050781e+01" nEv="1.9153483581542969e+02" nSuw="9.0000000000000000e+00" nBuw="1.0500000000000000e+02" nEvuw="1.1400000000000000e+02" sepI="2.4968141317367554e-01" sepG="1.5378526687622070e+01" res="-9.9000000000000000e+01" rms="0.0000000000000000e+00" nType="0" CC="0.0000000000000000e+00">
            <Node pos="l" depth="3" Seq="1" IVar="-1" Cut="0.0000000000000000e+00" cType="1" nS="9.9186126708984375e+01" nB="4.8215698242187500e+01" nEv="1.4740182495117188e+02" nSuw="9.0000000000000000e+00" nBuw="6.0000000000000000e+01" nEvuw="6.9000000000000000e+01" sepI="2.2010691463947296e-01" sepG="-1.0000000000000000e+00" res="-9.9000000000000000e+01" rms="0.0000000000000000e+00" nType="1" CC="0.0000000000000000e+00"/>
            <Node pos="r" depth="3" Seq="5" IVar="-1" Cut="0.0000000000000000e+00" cType="1" nS="0.0000000000000000e+00" nB="4.4133003234863281e+01" nEv="4.4133003234863281e+01" nSuw="0.0000000000000000e+00" nBuw="4.5000000000000000e+01" nEvuw="4.5000000000000000e+01" sepI="0.0000000000000000e+00" sepG="-1.0000000000000000e+00" res="-9.9000000000000000e+01" rms="0.0000000000000000e+00" nType="-1" CC="0.0000000000000000e+00"/>
          </Node>
          <Node pos="r" depth="2" Seq="3" IVar="-1" Cut="9.3931365013122559e-01" cType="0" nS="3.1464786529541016e+01" nB="4.4900717163085938e+02" nEv="4.8047195434570312e+02" nSuw="5.0000000000000000e+00" nBuw="5.6000000000000000e+02" nEvuw="5.6500000000000000e+02" sepI="6.1198666691780090e-02" sepG="-1.0000000000000000e+00" res="-9.9000000000000000e+01" rms="0.0000000000000000e+00" nType="-1" CC="0.0000000000000000e+00"/>
        </Node>
      </Node>
    </BinaryTree>
    <BinaryTree type="DecisionTree" boostWeight="2.5519952580360422e-01" itree="6">
      <Node pos="s" depth="0" Seq="0" IVar="10" Cut="6.5836891174316406e+01" cType="0" nS="1.0158802734375000e+04" nB="1.1841197265625000e+04" nEv="2.2000000000000000e+04" nSuw="6.6600000000000000e+02" nBuw="2.1334000000000000e+04" nEvuw="2.2000000000000000e+04" sepI="2.4853798747062683e-01" sepG="5.2523918151855469e+01" res="-9.9000000000000000e+01" rms="0.0000000000000000e+00" nType="0" CC="0.0000000000000000e+00">
        <Node pos="l" depth="1" Seq="0" IVar="18" Cut="6.4938318729400635e-01" cType="1" nS="3.4316152954101562e+02" nB="8.0185554504394531e+01" nEv="4.2334707641601562e+02" nSuw="9.0000000000000000e+00" nBuw="2.8600000000000000e+02" nEvuw="2.9500000000000000e+02" sepI="1.5353295207023621e-01" sepG="1.9219167709350586e+01" res="-9.9000000000000000e+01" rms="0.0000000000000000e+00" nType="0" CC="0.0000000000000000e+00">
          <Node pos="l" depth="2" Seq="0" IVar="-1" Cut="3.4126773476600647e-01" cType="1" nS="3.4316152954101562e+02" nB="5.2825618743896484e+01" nEv="3.9598715209960938e+02" nSuw="9.0000000000000000e+00" nBuw="2.0400000000000000e+02" nEvuw="2.1300000000000000e+02" sepI="1.1560616642236710e-01" sepG="-1.0000000000000000e+00" res="-9.9000000000000000e+01" rms="0.0000000000000000e+00" nType="1" CC="0.0000000000000000e+00"/>
          <Node pos="r" depth="2" Seq="2" IVar="0" Cut="1.8759399652481079e-01" cType="0" nS="0.0000000000000000e+00" nB="2.7359935760498047e+01" nEv="2.7359935760498047e+01" nSuw="0.0000000000000000e+00" nBuw="8.2000000000000000e+01" nEvuw="8.2000000000000000e+01" sepI="0.0000000000000000e+00" sepG="0.0000000000000000e+00" res="-9.9000000000000000e+01" rms="0.0000000000000000e+00" nType="-1" CC="0.0000000000000000e+00"/>
        </Node>
        <Node pos="r" depth="1" Seq="1" IVar="10" Cut="5.7433742523193359e+01" cType="0" nS="9.8156406250000000e+03" nB="1.1761011718750000e+04" nEv="2.1576652343750000e+04" nSuw="6.5700000000000000e+02" nBuw="2.1048000000000000e+04" nEvuw="2.1705000000000000e+04" sepI="2.4796774983406067e-01" sepG="4.1340202331542969e+01" res="-9.9000000000000000e+01" rms="0.0000000000000000e+00" nType="0" CC="0.0000000000000000e+00">
          <Node pos="l" depth="2" Seq="1" IVar="0" Cut="1.0854407548904419e+00" cType="0" nS="2.8504150390625000e+02" nB="7.5440292358398438e+01" nEv="3.6048181152343750e+02" nSuw="4.0000000000000000e+00" nBuw="2.7700000000000000e+02" nEvuw="2.8100000000000000e+02" sepI="1.6547971963882446e-01" sepG="4.0487987518310547e+01" res="-9.9000000000000000e+01" rms="0.0000000000000000e+00" nType="0" CC="0.0000000000000000e+00">
            <Node pos="l" depth="3" Seq="1" IVar="-1" Cut="0.0000000000000000e+00" cType="1" nS="2.8504150390625000e+02" nB="2.0545818328857422e+01" nEv="3.0558734130859375e+02" nSuw="4.0000000000000000e+00" nBuw="6.4000000000000000e+01" nEvuw="6.8000000000000000e+01" sepI="6.2713474035263062e-02" sepG="-1.0000000000000000e+00" res="-9.9000000000000000e+01" rms="0.0000000000000000e+00" nType="1" CC="0.0000000000000000e+00"/>
            <Node pos="r" depth="3" Seq="5" IVar="-1" Cut="0.0000000000000000e+00" cType="1" nS="0.0000000000000000e+00" nB="5.4894477844238281e+01" nEv="5.4894477844238281e+01" nSuw="0.0000000000000000e+00" nBuw="2.1300000000000000e+02" nEvuw="2.1300000000000000e+02" sepI="0.0000000000000000e+00" sepG="-1.0000000000000000e+00" res="-9.9000000000000000e+01" rms="0.0000000000000000e+00" nType="-1" CC="0.0000000000000000e+00"/>
          </Node>
          <Node pos="r" depth="2" Seq="3" IVar="-1" Cut="5.3939968347549438e-01" cType="0" nS="9.5305996093750000e+03" nB="1.1685571289062500e+04" nEv="2.1216169921875000e+04" nSuw="6.5300000000000000e+02" nBuw="2.0771000000000000e+04" nEvuw="2.1424000000000000e+04" sepI="2.4742077291011810e-01" sepG="-1.0000000000000000e+00" res="-9.9000000000000000e+01" rms="0.0000000000000000e+00" nType="-1" CC="0.0000000000000000e+00"/>
        </Node>
      </Node>
    </BinaryTree>
    <BinaryTree type="DecisionTree" boostWeight="2.1924720887569812e-01" itree="7">
      <Node pos="s" depth="0" Seq="0" IVar="11" Cut="3.3333334326744080e-01" cType="0" nS="1.1473417968750000e+04" nB="1.0526581054687500e+04" nEv="2.2000000000000000e+04" nSuw="6.6600000000000000e+02" nBuw="2.1334000000000000e+04" nEvuw="2.2000000000000000e+04" sepI="2.4953693151473999e-01" sepG="4.3191364288330078e+01" res="-9.9000000000000000e+01" rms="0.0000000000000000e+00" nType="0" CC="0.0000000000000000e+00">
        <Node pos="l" depth="1" Seq="0" IVar="7" Cut="3.3019304275512695e+00" cType="1" nS="1.1333109375000000e+04" nB="1.0102284179687500e+04" nEv="2.1435392578125000e+04" nSuw="6.5200000000000000e+02" nBuw="2.0669000000000000e+04" nEvuw="2.1321000000000000e+04" sepI="2.4917572736740112e-01" sepG="4.2301345825195312e+01" res="-9.9000000000000000e+01" rms="0.0000000000000000e+00" nType="0" CC="0.0000000000000000e+00">
          <Node pos="l" depth="2" Seq="0" IVar="15" Cut="3.3931198716163635e-01" cType="0" nS="8.0546252441406250e+02" nB="3.1681274414062500e+02" nEv="1.1222752685546875e+03" nSuw="8.1000000000000000e+01" nBuw="2.3100000000000000e+02" nEvuw="3.1200000000000000e+02" sepI="2.0260454714298248e-01" sepG="2.1144979476928711e+01" res="-9.9000000000000000e+01" rms="0.0000000000000000e+00" nType="0" CC="0.0000000000000000e+00">
            <Node pos="l" depth="3" Seq="0" IVar="-1" Cut="0.0000000000000000e+00" cType="1" nS="7.9690258789062500e+02" nB="2.6503335571289062e+02" nEv="1.0619359130859375e+03" nSuw="8.0000000000000000e+01" nBuw="1.8900000000000000e+02" nEvuw="2.6900000000000000e+02" sepI="1.8728764355182648e-01" sepG="-1.0000000000000000e+00" res="-9.9000000000000000e+01" rms="0.0000000000000000e+00" nType="1" CC="0.0000000000000000e+00"/>
            <Node pos="r" depth="3" Seq="4" IVar="-1" Cut="0.0000000000000000e+00" cType="1" nS="8.5599527359008789e+00" nB="5.1779373168945312e+01" nEv="6.0339324951171875e+01" nSuw="1.0000000000000000e+00" nBuw="4.2000000000000000e+01" nEvuw="4.3000000000000000e+01" sepI="1.2173829972743988e-01" sepG="-1.0000000000000000e+00" res="-9.9000000000000000e+01" rms="0.0000000000000000e+00" nType="-1" CC="0.0000000000000000e+00"/>
          </Node>
          <Node pos="r" depth="2" Seq="2" IVar="0" Cut="1.5946024656295776e+00" cType="0" nS="1.0527646484375000e+04" nB="9.7854707031250000e+03" nEv="2.0313117187500000e+04" nSuw="5.7100000000000000e+02" nBuw="2.0438000000000000e+04" nEvuw="2.1009000000000000e+04" sepI="2.4966627359390259e-01" sepG="6.6917991638183594e+01" res="-9.9000000000000000e+01" rms="0.0000000000000000e+00" nType="0" CC="0.0000000000000000e+00">
            <Node pos="l" depth="3" Seq="2" IVar="-1" Cut="0.0000000000000000e+00" cType="1" nS="2.6666791992187500e+03" nB="1.5650952148437500e+03" nEv="4.2317744140625000e+03" nSuw="1.7000000000000000e+02" nBuw="1.8510000000000000e+03" nEvuw="2.0210000000000000e+03" sepI="2.3305934667587280e-01" sepG="-1.0000000000000000e+00" res="-9.9000000000000000e+01" rms="0.0000000000000000e+00" nType="1" CC="0.0000000000000000e+00"/>
            <Node pos="r" depth="3" Seq="6" IVar="-1" Cut="0.0000000000000000e+00" cType="1" nS="7.8609672851562500e+03" nB="8.2203759765625000e+03" nEv="1.6081343750000000e+04" nSuw="4.0100000000000000e+02" nBuw="1.8587000000000000e+04" nEvuw="1.8988000000000000e+04" sepI="2.4987512826919556e-01" sepG="-1.0000000000000000e+00" res="-9.9000000000000000e+01" rms="0.0000000000000000e+00" nType="-1" CC="0.0000000000000000e+00"/>
          </Node>
        </Node>
        <Node pos="r" depth="1" Seq="1" IVar="4" Cut="4.8251919746398926e+00" cType="0" nS="1.4030926513671875e+02" nB="4.2429705810546875e+02" nEv="5.6460632324218750e+02" nSuw="1.4000000000000000e+01" nBuw="6.6500000000000000e+02" nEvuw="6.7900000000000000e+02" sepI="1.8675184249877930e-01" sepG="2.3406286239624023e+01" res="-9.9000000000000000e+01" rms="0.0000000000000000e+00" nType="0" CC="0.0000000000000000e+00">
          <Node pos="l" depth="2" Seq="1" IVar="10" Cut="2.9043478012084961e+01" cType="1" nS="1.2125794982910156e+02" nB="1.3628106689453125e+02" nEv="2.5753900146484375e+02" nSuw="1.2000000000000000e+01" nBuw="1.9600000000000000e+02" nEvuw="2.0800000000000000e+02" sepI="2.4914930760860443e-01" sepG="1.1552474021911621e+01" res="-9.9000000000000000e+01" rms="0.0000000000000000e+00" nType="0" CC="0.0000000000000000e+00">
            <Node pos="l" depth="3" Seq="1" IVar="-1" Cut="0.0000000000000000e+00" cType="1" nS="1.0728247070312500e+02" nB="6.6264549255371094e+01" nEv="1.7354702758789062e+02" nSuw="1.1000000000000000e+01" nBuw="6.0000000000000000e+01" nEvuw="7.1000000000000000e+01" sepI="2.3603461682796478e-01" sepG="-1.0000000000000000e+00" res="-9.9000000000000000e+01" rms="0.0000000000000000e+00" nType="1" CC="0.0000000000000000e+00"/>
            <Node pos="r" depth="3" Seq="5" IVar="-1" Cut="0.0000000000000000e+00" cType="1" nS="1.3975471496582031e+01" nB="7.0016510009765625e+01" nEv="8.3991981506347656e+01" nSuw="1.0000000000000000e+00" nBuw="1.3600000000000000e+02" nEvuw="1.3700000000000000e+02" sepI="1.3870473206043243e-01" sepG="-1.0000000000000000e+00" res="-9.9000000000000000e+01" rms="0.0000000000000000e+00" nType="-1" CC="0.0000000000000000e+00"/>
          </Node>
          <Node pos="r" depth="2" Seq="3" IVar="-1" Cut="7.0453792810440063e-01" cType="0" nS="1.9051311492919922e+01" nB="2.8801599121093750e+02" nEv="3.0706729125976562e+02" nSuw="2.0000000000000000e+00" nBuw="4.6900000000000000e+02" nEvuw="4.7100000000000000e+02" sepI="5.8193482458591461e-02" sepG="-1.0000000000000000e+00" res="-9.9000000000000000e+01" rms="0.0000000000000000e+00" nType="-1" CC="0.0000000000000000e+00"/>
        </Node>
      </Node>
    </BinaryTree>
    <BinaryTree type="DecisionTree" boostWeight="2.8905596119722815e-01" itree="8">
      <Node pos="s" depth="0" Seq="0" IVar="11" Cut="3.3333334326744080e-01" cType="0" nS="1.2090520507812500e+04" nB="9.9094785156250000e+03" nEv="2.2000000000000000e+04" nSuw="6.6600000000000000e+02" nBuw="2.1334000000000000e+04" nEvuw="2.2000000000000000e+04" sepI="2.4754290282726288e-01" sepG="4.8183948516845703e+01" res="-9.9000000000000000e+01" rms="0.0000000000000000e+00" nType="0" CC="0.0000000000000000e+00">
        <Node pos="l" depth="1" Seq="0" IVar="14" Cut="9.3628913164138794e-01" cType="1" nS="1.1956723632812500e+04" nB="9.5123037109375000e+03" nEv="2.1469027343750000e+04" nSuw="6.5200000000000000e+02" nBuw="2.0669000000000000e+04" nEvuw="2.1321000000000000e+04" sepI="2.4675908684730530e-01" sepG="4.3629489898681641e+01" res="-9.9000000000000000e+01" rms="0.0000000000000000e+00" nType="0" CC="0.0000000000000000e+00">
          <Node pos="l" depth="2" Seq="0" IVar="16" Cut="1.4221557974815369e-01" cType="0" nS="2.4388383789062500e+03" nB="1.2824333496093750e+03" nEv="3.7212717285156250e+03" nSuw="1.6100000000000000e+02" nBuw="2.2230000000000000e+03" nEvuw="2.3840000000000000e+03" sepI="2.2585777938365936e-01" sepG="7.1051612854003906e+01" res="-9.9000000000000000e+01" rms="0.0000000000000000e+00" nType="0" CC="0.0000000000000000e+00">
            <Node pos="l" depth="3" Seq="0" IVar="-1" Cut="0.0000000000000000e+00" cType="1" nS="2.2756970214843750e+03" nB="9.2435266113281250e+02" nEv="3.2000498046875000e+03" nSuw="1.5200000000000000e+02" nBuw="1.3570000000000000e+03" nEvuw="1.5090000000000000e+03" sepI="2.0541809499263763e-01" sepG="-1.0000000000000000e+00" res="-9.9000000000000000e+01" rms="0.0000000000000000e+00" nType="1" CC="0.0000000000000000e+00"/>
            <Node pos="r" depth="3" Seq="4" IVar="-1" Cut="0.0000000000000000e+00" cType="1" nS="1.6314131164550781e+02" nB="3.5808065795898438e+02" nEv="5.2122198486328125e+02" nSuw="9.0000000000000000e+00" nBuw="8.6600000000000000e+02" nEvuw="8.7500000000000000e+02" sepI="2.1503016352653503e-01" sepG="-1.0000000000000000e+00" res="-9.9000000000000000e+01" rms="0.0000000000000000e+00" nType="-1" CC="0.0000000000000000e+00"/>
          </Node>
          <Node pos="r" depth="2" Seq="2" IVar="-1" Cut="8.7330967187881470e-01" cType="1" nS="9.5178857421875000e+03" nB="8.2298710937500000e+03" nEv="1.7747755859375000e+04" nSuw="4.9100000000000000e+02" nBuw="1.8446000000000000e+04" nEvuw="1.8937000000000000e+04" sepI="2.4868327379226685e-01" sepG="-1.0000000000000000e+00" res="-9.9000000000000000e+01" rms="0.0000000000000000e+00" nType="1" CC="0.0000000000000000e+00"/>
        </Node>
        <Node pos="r" depth="1" Seq="1" IVar="4" Cut="4.8251919746398926e+00" cType="0" nS="1.3379661560058594e+02" nB="3.9717489624023438e+02" nEv="5.3097149658203125e+02" nSuw="1.4000000000000000e+01" nBuw="6.6500000000000000e+02" nEvuw="6.7900000000000000e+02" sepI="1.8848833441734314e-01" sepG="1.8472904205322266e+01" res="-9.9000000000000000e+01" rms="0.0000000000000000e+00" nType="0" CC="0.0000000000000000e+00">
          <Node pos="l" depth="2" Seq="1" IVar="15" Cut="6.8080633878707886e-01" cType="0" nS="1.1241019439697266e+02" nB="1.3751075744628906e+02" nEv="2.4992094421386719e+02" nSuw="1.2000000000000000e+01" nBuw="1.9600000000000000e+02" nEvuw="2.0800000000000000e+02" sepI="2.4747824668884277e-01" sepG="1.0145791053771973e+01" res="-9.9000000000000000e+01" rms="0.0000000000000000e+00" nType="0" CC="0.0000000000000000e+00">
            <Node pos="l" depth="3" Seq="1" IVar="-1" Cut="0.0000000000000000e+00" cType="1" nS="9.9810447692871094e+01" nB="6.9818939208984375e+01" nEv="1.6962937927246094e+02" nSuw="1.1000000000000000e+01" nBuw="9.8000000000000000e+01" nEvuw="1.0900000000000000e+02" sepI="2.4218490719795227e-01" sepG="-1.0000000000000000e+00" res="-9.9000000000000000e+01" rms="0.0000000000000000e+00" nType="1" CC="0.0000000000000000e+00"/>
            <Node pos="r" depth="3" Seq="5" IVar="-1" Cut="0.0000000000000000e+00" cType="1" nS="1.2599747657775879e+01" nB="6.7691818237304688e+01" nEv="8.0291564941406250e+01" nSuw="1.0000000000000000e+00" nBuw="9.8000000000000000e+01" nEvuw="9.9000000000000000e+01" sepI="1.3229948282241821e-01" sepG="-1.0000000000000000e+00" res="-9.9000000000000000e+01" rms="0.0000000000000000e+00" nType="-1" CC="0.0000000000000000e+00"/>
          </Node>
          <Node pos="r" depth="2" Seq="3" IVar="-1" Cut="7.0453792810440063e-01" cType="0" nS="2.1386423110961914e+01" nB="2.5966415405273438e+02" nEv="2.8105056762695312e+02" nSuw="2.0000000000000000e+00" nBuw="4.6900000000000000e+02" nEvuw="4.7100000000000000e+02" sepI="7.0304185152053833e-02" sepG="-1.0000000000000000e+00" res="-9.9000000000000000e+01" rms="0.0000000000000000e+00" nType="-1" CC="0.0000000000000000e+00"/>
        </Node>
      </Node>
    </BinaryTree>
    <BinaryTree type="DecisionTree" boostWeight="3.1592214119878587e-01" itree="9">
      <Node pos="s" depth="0" Seq="0" IVar="14" Cut="9.3628913164138794e-01" cType="1" nS="1.0630757812500000e+04" nB="1.1369241210937500e+04" nEv="2.2000000000000000e+04" nSuw="6.6600000000000000e+02" nBuw="2.1334000000000000e+04" nEvuw="2.2000000000000000e+04" sepI="2.4971830844879150e-01" sepG="6.6744491577148438e+01" res="-9.9000000000000000e+01" rms="0.0000000000000000e+00" nType="0" CC="0.0000000000000000e+00">
        <Node pos="l" depth="1" Seq="0" IVar="0" Cut="4.0646743774414062e-01" cType="0" nS="2.1805444335937500e+03" nB="1.4057286376953125e+03" nEv="3.5862729492187500e+03" nSuw="1.6100000000000000e+02" nBuw="2.2400000000000000e+03" nEvuw="2.4010000000000000e+03" sepI="2.3833055794239044e-01" sepG="6.8300376892089844e+01" res="-9.9000000000000000e+01" rms="0.0000000000000000e+00" nType="0" CC="0.0000000000000000e+00">
          <Node pos="l" depth="2" Seq="0" IVar="-1" Cut="6.1518139839172363e+00" cType="0" nS="1.9906604003906250e+03" nB="9.7549194335937500e+02" nEv="2.9661523437500000e+03" nSuw="1.4100000000000000e+02" nBuw="1.2550000000000000e+03" nEvuw="1.3960000000000000e+03" sepI="2.2071607410907745e-01" sepG="-1.0000000000000000e+00" res="-9.9000000000000000e+01" rms="0.0000000000000000e+00" nType="1" CC="0.0000000000000000e+00"/>
          <Node pos="r" depth="2" Seq="2" IVar="10" Cut="2.8997636795043945e+01" cType="1" nS="1.8988397216796875e+02" nB="4.3023672485351562e+02" nEv="6.2012066650390625e+02" nSuw="2.0000000000000000e+01" nBuw="9.8500000000000000e+02" nEvuw="1.0050000000000000e+03" sepI="2.1244344115257263e-01" sepG="4.0168605804443359e+01" res="-9.9000000000000000e+01" rms="0.0000000000000000e+00" nType="0" CC="0.0000000000000000e+00">
            <Node pos="l" depth="3" Seq="2" IVar="-1" Cut="0.0000000000000000e+00" cType="1" nS="1.7567597961425781e+02" nB="1.4037774658203125e+02" nEv="3.1605371093750000e+02" nSuw="1.9000000000000000e+01" nBuw="1.5000000000000000e+02" nEvuw="1.6900000000000000e+02" sepI="2.4688164889812469e-01" sepG="-1.0000000000000000e+00" res="-9.9000000000000000e+01" rms="0.0000000000000000e+00" nType="1" CC="0.0000000000000000e+00"/>
            <Node pos="r" depth="3" Seq="6" IVar="-1" Cut="0.0000000000000000e+00" cType="1" nS="1.4207995414733887e+01" nB="2.8985897827148438e+02" nEv="3.0406695556640625e+02" nSuw="1.0000000000000000e+00" nBuw="8.3500000000000000e+02" nEvuw="8.3600000000000000e+02" sepI="4.4543165713548660e-02" sepG="-1.0000000000000000e+00" res="-9.9000000000000000e+01" rms="0.0000000000000000e+00" nType="-1" CC="0.0000000000000000e+00"/>
          </Node>
        </Node>
        <Node pos="r" depth="1" Seq="1" IVar="10" Cut="5.1145706176757812e+01" cType="0" nS="8.4502138671875000e+03" nB="9.9635126953125000e+03" nEv="1.8413726562500000e+04" nSuw="5.0500000000000000e+02" nBuw="1.9094000000000000e+04" nEvuw="1.9599000000000000e+04" sepI="2.4831147491931915e-01" sepG="3.5738460540771484e+01" res="-9.9000000000000000e+01" rms="0.0000000000000000e+00" nType="0" CC="0.0000000000000000e+00">
          <Node pos="l" depth="2" Seq="1" IVar="5" Cut="1.5285714149475098e+01" cType="0" nS="4.8894531250000000e+02" nB="2.3333952331542969e+02" nEv="7.2228485107421875e+02" nSuw="1.3000000000000000e+01" nBuw="8.2900000000000000e+02" nEvuw="8.4200000000000000e+02" sepI="2.1869134902954102e-01" sepG="3.4866249084472656e+01" res="-9.9000000000000000e+01" rms="0.0000000000000000e+00" nType="0" CC="0.0000000000000000e+00">
            <Node pos="l" depth="3" Seq="1" IVar="-1" Cut="0.0000000000000000e+00" cType="1" nS="3.5888543701171875e+02" nB="5.5330867767333984e+01" nEv="4.1421630859375000e+02" nSuw="7.0000000000000000e+00" nBuw="2.3500000000000000e+02" nEvuw="2.4200000000000000e+02" sepI="1.1573611944913864e-01" sepG="-1.0000000000000000e+00" res="-9.9000000000000000e+01" rms="0.0000000000000000e+00" nType="1" CC="0.0000000000000000e+00"/>
            <Node pos="r" depth="3" Seq="5" IVar="-1" Cut="0.0000000000000000e+00" cType="1" nS="1.3005987548828125e+02" nB="1.7800865173339844e+02" nEv="3.0806854248046875e+02" nSuw="6.0000000000000000e+00" nBuw="5.9400000000000000e+02" nEvuw="6.0000000000000000e+02" sepI="2.4394379556179047e-01" sepG="-1.0000000000000000e+00" res="-9.9000000000000000e+01" rms="0.0000000000000000e+00" nType="-1" CC="0.0000000000000000e+00"/>
          </Node>
          <Node pos="r" depth="2" Seq="3" IVar="-1" Cut="5.6546095758676529e-02" cType="0" nS="7.9612685546875000e+03" nB="9.7301728515625000e+03" nEv="1.7691441406250000e+04" nSuw="4.9200000000000000e+02" nBuw="1.8265000000000000e+04" nEvuw="1.8757000000000000e+04" sepI="2.4750067293643951e-01" sepG="-1.0000000000000000e+00" res="-9.9000000000000000e+01" rms="0.0000000000000000e+00" nType="-1" CC="0.0000000000000000e+00"/>
        </Node>
      </Node>
    </BinaryTree>
    <BinaryTree type="DecisionTree" boostWeight="4.2904234468801822e-01" itree="10">
      <Node pos="s" depth="0" Seq="0" IVar="15" Cut="4.3811801075935364e-01" cType="0" nS="1.1794435546875000e+04" nB="1.0205563476562500e+04" nEv="2.2000000000000000e+04" nSuw="6.6600000000000000e+02" nBuw="2.1334000000000000e+04" nEvuw="2.2000000000000000e+04" sepI="2.4869601428508759e-01" sepG="4.3757583618164062e+01" res="-9.9000000000000000e+01" rms="0.0000000000000000e+00" nType="0" CC="0.0000000000000000e+00">
        <Node pos="l" depth="1" Seq="0" IVar="4" Cut="2.4324277877807617e+01" cType="0" nS="9.9174687500000000e+03" nB="7.8607529296875000e+03" nEv="1.7778222656250000e+04" nSuw="5.8600000000000000e+02" nBuw="1.5143000000000000e+04" nEvuw="1.5729000000000000e+04" sepI="2.4665410816669464e-01" sepG="4.1734657287597656e+01" res="-9.9000000000000000e+01" rms="0.0000000000000000e+00" nType="0" CC="0.0000000000000000e+00">
          <Node pos="l" depth="2" Seq="0" IVar="9" Cut="1.1907042264938354e+00" cType="1" nS="7.7010394287109375e+02" nB="2.5110546875000000e+02" nEv="1.0212094116210938e+03" nSuw="3.9000000000000000e+01" nBuw="3.7500000000000000e+02" nEvuw="4.1400000000000000e+02" sepI="1.8542824685573578e-01" sepG="2.7228490829467773e+01" res="-9.9000000000000000e+01" rms="0.0000000000000000e+00" nType="0" CC="0.0000000000000000e+00">
            <Node pos="l" depth="3" Seq="0" IVar="-1" Cut="0.0000000000000000e+00" cType="1" nS="7.7010394287109375e+02" nB="2.0536976623535156e+02" nEv="9.7547375488281250e+02" nSuw="3.9000000000000000e+01" nBuw="3.2200000000000000e+02" nEvuw="3.6100000000000000e+02" sepI="1.6620907187461853e-01" sepG="-1.0000000000000000e+00" res="-9.9000000000000000e+01" rms="0.0000000000000000e+00" nType="1" CC="0.0000000000000000e+00"/>
            <Node pos="r" depth="3" Seq="4" IVar="-1" Cut="0.0000000000000000e+00" cType="1" nS="0.0000000000000000e+00" nB="4.5735691070556641e+01" nEv="4.5735691070556641e+01" nSuw="0.0000000000000000e+00" nBuw="5.3000000000000000e+01" nEvuw="5.3000000000000000e+01" sepI="0.0000000000000000e+00" sepG="-1.0000000000000000e+00" res="-9.9000000000000000e+01" rms="0.0000000000000000e+00" nType="-1" CC="0.0000000000000000e+00"/>
          </Node>
          <Node pos="r" depth="2" Seq="2" IVar="4" Cut="1.2345676422119141e+00" cType="0" nS="9.1473652343750000e+03" nB="7.6096474609375000e+03" nEv="1.6757011718750000e+04" nSuw="5.4700000000000000e+02" nBuw="1.4768000000000000e+04" nEvuw="1.5315000000000000e+04" sepI="2.4789476394653320e-01" sepG="1.6088386535644531e+02" res="-9.9000000000000000e+01" rms="0.0000000000000000e+00" nType="0" CC="0.0000000000000000e+00">
            <Node pos="l" depth="3" Seq="2" IVar="-1" Cut="0.0000000000000000e+00" cType="1" nS="4.7528696289062500e+03" nB="2.4644799804687500e+03" nEv="7.2173496093750000e+03" nSuw="2.7900000000000000e+02" nBuw="4.5520000000000000e+03" nEvuw="4.8310000000000000e+03" sepI="2.2486698627471924e-01" sepG="-1.0000000000000000e+00" res="-9.9000000000000000e+01" rms="0.0000000000000000e+00" nType="1" CC="0.0000000000000000e+00"/>
            <Node pos="r" depth="3" Seq="6" IVar="-1" Cut="0.0000000000000000e+00" cType="1" nS="4.3944951171875000e+03" nB="5.1451674804687500e+03" nEv="9.5396630859375000e+03" nSuw="2.6800000000000000e+02" nBuw="1.0216000000000000e+04" nEvuw="1.0484000000000000e+04" sepI="2.4845199286937714e-01" sepG="-1.0000000000000000e+00" res="-9.9000000000000000e+01" rms="0.0000000000000000e+00" nType="-1" CC="0.0000000000000000e+00"/>
          </Node>
        </Node>
        <Node pos="r" depth="1" Seq="1" IVar="18" Cut="3.7563759088516235e-01" cType="1" nS="1.8769667968750000e+03" nB="2.3448103027343750e+03" nEv="4.2217773437500000e+03" nSuw="8.0000000000000000e+01" nBuw="6.1910000000000000e+03" nEvuw="6.2710000000000000e+03" sepI="2.4692991375923157e-01" sepG="4.1077133178710938e+01" res="-9.9000000000000000e+01" rms="0.0000000000000000e+00" nType="0" CC="0.0000000000000000e+00">
          <Node pos="l" depth="2" Seq="1" IVar="18" Cut="2.8251279145479202e-02" cType="0" nS="1.7634841308593750e+03" nB="1.8812951660156250e+03" nEv="3.6447792968750000e+03" nSuw="7.0000000000000000e+01" nBuw="4.9730000000000000e+03" nEvuw="5.0430000000000000e+03" sepI="2.4973879754543304e-01" sepG="4.0370895385742188e+01" res="-9.9000000000000000e+01" rms="0.0000000000000000e+00" nType="0" CC="0.0000000000000000e+00">
            <Node pos="l" depth="3" Seq="1" IVar="-1" Cut="0.0000000000000000e+00" cType="1" nS="1.4226668701171875e+03" nB="1.1571656494140625e+03" nEv="2.5798325195312500e+03" nSuw="5.4000000000000000e+01" nBuw="2.4740000000000000e+03" nEvuw="2.5280000000000000e+03" sepI="2.4735216796398163e-01" sepG="-1.0000000000000000e+00" res="-9.9000000000000000e+01" rms="0.0000000000000000e+00" nType="1" CC="0.0000000000000000e+00"/>
            <Node pos="r" depth="3" Seq="5" IVar="-1" Cut="0.0000000000000000e+00" cType="1" nS="3.4081719970703125e+02" nB="7.2412951660156250e+02" nEv="1.0649466552734375e+03" nSuw="1.6000000000000000e+01" nBuw="2.4990000000000000e+03" nEvuw="2.5150000000000000e+03" sepI="2.1761158108711243e-01" sepG="-1.0000000000000000e+00" res="-9.9000000000000000e+01" rms="0.0000000000000000e+00" nType="-1" CC="0.0000000000000000e+00"/>
          </Node>
          <Node pos="r" depth="2" Seq="3" IVar="-1" Cut="2.7317378997802734e+01" cType="1" nS="1.1348262023925781e+02" nB="4.6351528930664062e+02" nEv="5.7699792480468750e+02" nSuw="1.0000000000000000e+01" nBuw="1.2180000000000000e+03" nEvuw="1.2280000000000000e+03" sepI="1.5799558162689209e-01" sepG="-1.0000000000000000e+00" res="-9.9000000000000000e+01" rms="0.0000000000000000e+00" nType="-1" CC="0.0000000000000000e+00"/>
        </Node>
      </Node>
    </BinaryTree>
    <BinaryTree type="DecisionTree" boostWeight="4.7628847034638822e-01" itree="11">
      <Node pos="s" depth="0" Seq="0" IVar="5" Cut="1.1380952835083008e+01" cType="0" nS="1.1881839843750000e+04" nB="1.0118159179687500e+04" nEv="2.2000000000000000e+04" nSuw="6.6600000000000000e+02" nBuw="2.1334000000000000e+04" nEvuw="2.2000000000000000e+04" sepI="2.4839329719543457e-01" sepG="1.4350360107421875e+02" res="-9.9000000000000000e+01" rms="0.0000000000000000e+00" nType="0" CC="0.0000000000000000e+00">
        <Node pos="l" depth="1" Seq="0" IVar="9" Cut="1.1265974044799805e+00" cType="0" nS="7.9005576171875000e+03" nB="5.1106206054687500e+03" nEv="1.3011178710937500e+04" nSuw="3.7400000000000000e+02" nBuw="1.3118000000000000e+04" nEvuw="1.3492000000000000e+04" sepI="2.3850534856319427e-01" sepG="9.7021781921386719e+01" res="-9.9000000000000000e+01" rms="0.0000000000000000e+00" nType="0" CC="0.0000000000000000e+00">
          <Node pos="l" depth="2" Seq="0" IVar="-1" Cut="1.4095237731933594e+01" cType="0" nS="2.7828007812500000e+03" nB="9.6235131835937500e+02" nEv="3.7451520996093750e+03" nSuw="1.4600000000000000e+02" nBuw="1.7010000000000000e+03" nEvuw="1.8470000000000000e+03" sepI="1.9093117117881775e-01" sepG="-1.0000000000000000e+00" res="-9.9000000000000000e+01" rms="0.0000000000000000e+00" nType="1" CC="0.0000000000000000e+00"/>
          <Node pos="r" depth="2" Seq="2" IVar="15" Cut="4.2366963624954224e-01" cType="0" nS="5.1177568359375000e+03" nB="4.1482690429687500e+03" nEv="9.2660263671875000e+03" nSuw="2.2800000000000000e+02" nBuw="1.1417000000000000e+04" nEvuw="1.1645000000000000e+04" sepI="2.4726323783397675e-01" sepG="7.9404037475585938e+01" res="-9.9000000000000000e+01" rms="0.0000000000000000e+00" nType="0" CC="0.0000000000000000e+00">
            <Node pos="l" depth="3" Seq="2" IVar="-1" Cut="0.0000000000000000e+00" cType="1" nS="4.6635312500000000e+03" nB="3.2281057128906250e+03" nEv="7.8916372070312500e+03" nSuw="2.0700000000000000e+02" nBuw="8.3650000000000000e+03" nEvuw="8.5720000000000000e+03" sepI="2.4172882735729218e-01" sepG="-1.0000000000000000e+00" res="-9.9000000000000000e+01" rms="0.0000000000000000e+00" nType="1" CC="0.0000000000000000e+00"/>
            <Node pos="r" depth="3" Seq="6" IVar="-1" Cut="0.0000000000000000e+00" cType="1" nS="4.5422570800781250e+02" nB="9.2016339111328125e+02" nEv="1.3743890380859375e+03" nSuw="2.1000000000000000e+01" nBuw="3.0520000000000000e+03" nEvuw="3.0730000000000000e+03" sepI="2.2126731276512146e-01" sepG="-1.0000000000000000e+00" res="-9.9000000000000000e+01" rms="0.0000000000000000e+00" nType="-1" CC="0.0000000000000000e+00"/>
          </Node>
        </Node>
        <Node pos="r" depth="1" Seq="1" IVar="10" Cut="3.7089965820312500e+01" cType="1" nS="3.9812817382812500e+03" nB="5.0075390625000000e+03" nEv="8.9888212890625000e+03" nSuw="2.9200000000000000e+02" nBuw="8.2160000000000000e+03" nEvuw="8.5080000000000000e+03" sepI="2.4674127995967865e-01" sepG="2.4447677612304688e+01" res="-9.9000000000000000e+01" rms="0.0000000000000000e+00" nType="0" CC="0.0000000000000000e+00">
          <Node pos="l" depth="2" Seq="1" IVar="15" Cut="5.4935592412948608e-01" cType="0" nS="3.5577280273437500e+03" nB="4.0987329101562500e+03" nEv="7.6564609375000000e+03" nSuw="2.7400000000000000e+02" nBuw="4.9450000000000000e+03" nEvuw="5.2190000000000000e+03" sepI="2.4875178933143616e-01" sepG="3.2894542694091797e+01" res="-9.9000000000000000e+01" rms="0.0000000000000000e+00" nType="0" CC="0.0000000000000000e+00">
            <Node pos="l" depth="3" Seq="1" IVar="-1" Cut="0.0000000000000000e+00" cType="1" nS="2.8246479492187500e+03" nB="2.7754941406250000e+03" nEv="5.6001420898437500e+03" nSuw="2.3100000000000000e+02" nBuw="3.1630000000000000e+03" nEvuw="3.3940000000000000e+03" sepI="2.4998073279857635e-01" sepG="-1.0000000000000000e+00" res="-9.9000000000000000e+01" rms="0.0000000000000000e+00" nType="1" CC="0.0000000000000000e+00"/>
            <Node pos="r" depth="3" Seq="5" IVar="-1" Cut="0.0000000000000000e+00" cType="1" nS="7.3308001708984375e+02" nB="1.3232385253906250e+03" nEv="2.0563186035156250e+03" nSuw="4.3000000000000000e+01" nBuw="1.7820000000000000e+03" nEvuw="1.8250000000000000e+03" sepI="2.2940810024738312e-01" sepG="-1.0000000000000000e+00" res="-9.9000000000000000e+01" rms="0.0000000000000000e+00" nType="-1" CC="0.0000000000000000e+00"/>
          </Node>
          <Node pos="r" depth="2" Seq="3" IVar="1" Cut="2.0858436584472656e+01" cType="0" nS="4.2355380249023438e+02" nB="9.0880645751953125e+02" nEv="1.3323602294921875e+03" nSuw="1.8000000000000000e+01" nBuw="3.2710000000000000e+03" nEvuw="3.2890000000000000e+03" sepI="2.1683862805366516e-01" sepG="7.1311470031738281e+01" res="-9.9000000000000000e+01" rms="0.0000000000000000e+00" nType="0" CC="0.0000000000000000e+00">
            <Node pos="l" depth="3" Seq="3" IVar="-1" Cut="0.0000000000000000e+00" cType="1" nS="1.7777874755859375e+02" nB="2.9804134368896484e+01" nEv="2.0758288574218750e+02" nSuw="5.0000000000000000e+00" nBuw="8.3000000000000000e+01" nEvuw="8.8000000000000000e+01" sepI="1.2296266853809357e-01" sepG="-1.0000000000000000e+00" res="-9.9000000000000000e+01" rms="0.0000000000000000e+00" nType="1" CC="0.0000000000000000e+00"/>
            <Node pos="r" depth="3" Seq="7" IVar="-1" Cut="0.0000000000000000e+00" cType="1" nS="2.4577505493164062e+02" nB="8.7900231933593750e+02" nEv="1.1247773437500000e+03" nSuw="1.3000000000000000e+01" nBuw="3.1880000000000000e+03" nEvuw="3.2010000000000000e+03" sepI="1.7076335847377777e-01" sepG="-1.0000000000000000e+00" res="-9.9000000000000000e+01" rms="0.0000000000000000e+00" nType="-1" CC="0.0000000000000000e+00"/>
          </Node>
        </Node>
      </Node>
    </BinaryTree>
    <BinaryTree type="DecisionTree" boostWeight="4.1601589999132665e-01" itree="12">
      <Node pos="s" depth="0" Seq="0" IVar="5" Cut="1.1380952835083008e+01" cType="0" nS="1.0339392578125000e+04" nB="1.1660606445312500e+04" nEv="2.2000000000000000e+04" nSuw="6.6600000000000000e+02" nBuw="2.1334000000000000e+04" nEvuw="2.2000000000000000e+04" sepI="2.4909834563732147e-01" sepG="6.5679847717285156e+01" res="-9.9000000000000000e+01" rms="0.0000000000000000e+00" nType="0" CC="0.0000000000000000e+00">
        <Node pos="l" depth="1" Seq="0" IVar="9" Cut="1.0561866760253906e+00" cType="0" nS="6.6283505859375000e+03" nB="6.2145610351562500e+03" nEv="1.2842911132812500e+04" nSuw="3.7400000000000000e+02" nBuw="1.3118000000000000e+04" nEvuw="1.3492000000000000e+04" sepI="2.4974048137664795e-01" sepG="8.0413421630859375e+01" res="-9.9000000000000000e+01" rms="0.0000000000000000e+00" nType="0" CC="0.0000000000000000e+00">
          <Node pos="l" depth="2" Seq="0" IVar="-1" Cut="1.4095237731933594e+01" cType="0" nS="2.7279626464843750e+03" nB="1.6255904541015625e+03" nEv="4.3535532226562500e+03" nSuw="1.7300000000000000e+02" nBuw="2.2160000000000000e+03" nEvuw="2.3890000000000000e+03" sepI="2.3397091031074524e-01" sepG="-1.0000000000000000e+00" res="-9.9000000000000000e+01" rms="0.0000000000000000e+00" nType="1" CC="0.0000000000000000e+00"/>
          <Node pos="r" depth="2" Seq="2" IVar="14" Cut="9.9644720554351807e-01" cType="1" nS="3.9003879394531250e+03" nB="4.5889702148437500e+03" nEv="8.4893583984375000e+03" nSuw="2.0100000000000000e+02" nBuw="1.0902000000000000e+04" nEvuw="1.1103000000000000e+04" sepI="2.4835523962974548e-01" sepG="5.0144916534423828e+01" res="-9.9000000000000000e+01" rms="0.0000000000000000e+00" nType="0" CC="0.0000000000000000e+00">
            <Node pos="l" depth="3" Seq="2" IVar="-1" Cut="0.0000000000000000e+00" cType="1" nS="1.3489478759765625e+03" nB="9.5555987548828125e+02" nEv="2.3045078125000000e+03" nSuw="7.3000000000000000e+01" nBuw="1.7110000000000000e+03" nEvuw="1.7840000000000000e+03" sepI="2.4271506071090698e-01" sepG="-1.0000000000000000e+00" res="-9.9000000000000000e+01" rms="0.0000000000000000e+00" nType="1" CC="0.0000000000000000e+00"/>
            <Node pos="r" depth="3" Seq="6" IVar="-1" Cut="0.0000000000000000e+00" cType="1" nS="2.5514399414062500e+03" nB="3.6334104003906250e+03" nEv="6.1848505859375000e+03" nSuw="1.2800000000000000e+02" nBuw="9.1910000000000000e+03" nEvuw="9.3190000000000000e+03" sepI="2.4234910309314728e-01" sepG="-1.0000000000000000e+00" res="-9.9000000000000000e+01" rms="0.0000000000000000e+00" nType="-1" CC="0.0000000000000000e+00"/>
          </Node>
        </Node>
        <Node pos="r" depth="1" Seq="1" IVar="11" Cut="4.2857143282890320e-01" cType="0" nS="3.7110419921875000e+03" nB="5.4460458984375000e+03" nEv="9.1570878906250000e+03" nSuw="2.9200000000000000e+02" nBuw="8.2160000000000000e+03" nEvuw="8.5080000000000000e+03" sepI="2.4102516472339630e-01" sepG="2.4345657348632812e+01" res="-9.9000000000000000e+01" rms="0.0000000000000000e+00" nType="0" CC="0.0000000000000000e+00">
          <Node pos="l" depth="2" Seq="1" IVar="11" Cut="5.1063853502273560e-01" cType="1" nS="3.6383222656250000e+03" nB="5.0943994140625000e+03" nEv="8.7327216796875000e+03" nSuw="2.8000000000000000e+02" nBuw="7.7080000000000000e+03" nEvuw="7.9880000000000000e+03" sepI="2.4304960668087006e-01" sepG="2.4610736846923828e+01" res="-9.9000000000000000e+01" rms="0.0000000000000000e+00" nType="0" CC="0.0000000000000000e+00">
            <Node pos="l" depth="3" Seq="1" IVar="-1" Cut="0.0000000000000000e+00" cType="1" nS="1.3348196411132812e+02" nB="3.4200366973876953e+01" nEv="1.6768234252929688e+02" nSuw="3.0000000000000000e+00" nBuw="4.1000000000000000e+01" nEvuw="4.4000000000000000e+01" sepI="1.6235989332199097e-01" sepG="-1.0000000000000000e+00" res="-9.9000000000000000e+01" rms="0.0000000000000000e+00" nType="1" CC="0.0000000000000000e+00"/>
            <Node pos="r" depth="3" Seq="5" IVar="-1" Cut="0.0000000000000000e+00" cType="1" nS="3.5048403320312500e+03" nB="5.0601992187500000e+03" nEv="8.5650390625000000e+03" nSuw="2.7700000000000000e+02" nBuw="7.6670000000000000e+03" nEvuw="7.9440000000000000e+03" sepI="2.4175591766834259e-01" sepG="-1.0000000000000000e+00" res="-9.9000000000000000e+01" rms="0.0000000000000000e+00" nType="-1" CC="0.0000000000000000e+00"/>
          </Node>
          <Node pos="r" depth="2" Seq="3" IVar="-1" Cut="2.3385866165161133e+01" cType="1" nS="7.2719818115234375e+01" nB="3.5164630126953125e+02" nEv="4.2436611938476562e+02" nSuw="1.2000000000000000e+01" nBuw="5.0800000000000000e+02" nEvuw="5.2000000000000000e+02" sepI="1.4199642837047577e-01" sepG="-1.0000000000000000e+00" res="-9.9000000000000000e+01" rms="0.0000000000000000e+00" nType="-1" CC="0.0000000000000000e+00"/>
        </Node>
      </Node>
    </BinaryTree>
    <BinaryTree type="DecisionTree" boostWeight="2.5219248506639719e-01" itree="13">
      <Node pos="s" depth="0" Seq="0" IVar="11" Cut="3.8095238804817200e-01" cType="0" nS="1.1203936523437500e+04" nB="1.0796062500000000e+04" nEv="2.2000000000000000e+04" nSuw="6.6600000000000000e+02" nBuw="2.1334000000000000e+04" nEvuw="2.2000000000000000e+04" sepI="2.4991406500339508e-01" sepG="3.0132339477539062e+01" res="-9.9000000000000000e+01" rms="0.0000000000000000e+00" nType="0" CC="0.0000000000000000e+00">
        <Node pos="l" depth="1" Seq="0" IVar="8" Cut="4.9280849099159241e-01" cType="0" nS="1.1059724609375000e+04" nB="1.0412454101562500e+04" nEv="2.1472177734375000e+04" nSuw="6.5000000000000000e+02" nBuw="2.0641000000000000e+04" nEvuw="2.1291000000000000e+04" sepI="2.4977283179759979e-01" sepG="3.0843879699707031e+01" res="-9.9000000000000000e+01" rms="0.0000000000000000e+00" nType="0" CC="0.0000000000000000e+00">
          <Node pos="l" depth="2" Seq="0" IVar="-1" Cut="5.8693516254425049e-01" cType="1" nS="4.9238784179687500e+03" nB="3.8588984375000000e+03" nEv="8.7827763671875000e+03" nSuw="2.9200000000000000e+02" nBuw="6.5120000000000000e+03" nEvuw="6.8040000000000000e+03" sepI="2.4632413685321808e-01" sepG="-1.0000000000000000e+00" res="-9.9000000000000000e+01" rms="0.0000000000000000e+00" nType="1" CC="0.0000000000000000e+00"/>
          <Node pos="r" depth="2" Seq="2" IVar="7" Cut="7.0553774833679199e+00" cType="1" nS="6.1358461914062500e+03" nB="6.5535556640625000e+03" nEv="1.2689401367187500e+04" nSuw="3.5800000000000000e+02" nBuw="1.4129000000000000e+04" nEvuw="1.4487000000000000e+04" sepI="2.4972909688949585e-01" sepG="3.8771461486816406e+01" res="-9.9000000000000000e+01" rms="0.0000000000000000e+00" nType="0" CC="0.0000000000000000e+00">
            <Node pos="l" depth="3" Seq="2" IVar="-1" Cut="0.0000000000000000e+00" cType="1" nS="3.5211948242187500e+03" nB="3.0360212402343750e+03" nEv="6.5572158203125000e+03" nSuw="2.4900000000000000e+02" nBuw="3.3350000000000000e+03" nEvuw="3.5840000000000000e+03" sepI="2.4863134324550629e-01" sepG="-1.0000000000000000e+00" res="-9.9000000000000000e+01" rms="0.0000000000000000e+00" nType="1" CC="0.0000000000000000e+00"/>
            <Node pos="r" depth="3" Seq="6" IVar="-1" Cut="0.0000000000000000e+00" cType="1" nS="2.6146511230468750e+03" nB="3.5175344238281250e+03" nEv="6.1321855468750000e+03" nSuw="1.0900000000000000e+02" nBuw="1.0794000000000000e+04" nEvuw="1.0903000000000000e+04" sepI="2.4458032846450806e-01" sepG="-1.0000000000000000e+00" res="-9.9000000000000000e+01" rms="0.0000000000000000e+00" nType="-1" CC="0.0000000000000000e+00"/>
          </Node>
        </Node>
        <Node pos="r" depth="1" Seq="1" IVar="9" Cut="2.1697217226028442e-01" cType="1" nS="1.4421244812011719e+02" nB="3.8360870361328125e+02" nEv="5.2782116699218750e+02" nSuw="1.6000000000000000e+01" nBuw="6.9300000000000000e+02" nEvuw="7.0900000000000000e+02" sepI="1.9857181608676910e-01" sepG="1.7385555267333984e+01" res="-9.9000000000000000e+01" rms="0.0000000000000000e+00" nType="0" CC="0.0000000000000000e+00">
          <Node pos="l" depth="2" Seq="1" IVar="-1" Cut="0.0000000000000000e+00" cType="1" nS="4.8333774566650391e+01" nB="1.4796738624572754e+01" nEv="6.3130512237548828e+01" nSuw="3.0000000000000000e+00" nBuw="4.7000000000000000e+01" nEvuw="5.0000000000000000e+01" sepI="1.7944777011871338e-01" sepG="-1.0000000000000000e+00" res="-9.9000000000000000e+01" rms="0.0000000000000000e+00" nType="1" CC="0.0000000000000000e+00"/>
          <Node pos="r" depth="2" Seq="3" IVar="-1" Cut="2.3385866165161133e+01" cType="1" nS="9.5878669738769531e+01" nB="3.6881195068359375e+02" nEv="4.6469064331054688e+02" nSuw="1.3000000000000000e+01" nBuw="6.4600000000000000e+02" nEvuw="6.5900000000000000e+02" sepI="1.6375672817230225e-01" sepG="-1.0000000000000000e+00" res="-9.9000000000000000e+01" rms="0.0000000000000000e+00" nType="-1" CC="0.0000000000000000e+00"/>
        </Node>
      </Node>
    </BinaryTree>
    <BinaryTree type="DecisionTree" boostWeight="2.8222945477178202e-01" itree="14">
      <Node pos="s" depth="0" Seq="0" IVar="14" Cut="3.7451565265655518e-01" cType="0" nS="1.0646075195312500e+04" nB="1.1353923828125000e+04" nEv="2.2000000000000000e+04" nSuw="6.6600000000000000e+02" nBuw="2.1334000000000000e+04" nEvuw="2.2000000000000000e+04" sepI="2.4974119663238525e-01" sepG="2.9004472732543945e+01" res="-9.9000000000000000e+01" rms="0.0000000000000000e+00" nType="0" CC="0.0000000000000000e+00">
        <Node pos="l" depth="1" Seq="0" IVar="15" Cut="8.6829435825347900e-01" cType="1" nS="1.0542125976562500e+04" nB="1.1009924804687500e+04" nEv="2.1552050781250000e+04" nSuw="6.5000000000000000e+02" nBuw="2.0502000000000000e+04" nEvuw="2.1152000000000000e+04" sepI="2.4988222122192383e-01" sepG="3.0021780014038086e+01" res="-9.9000000000000000e+01" rms="0.0000000000000000e+00" nType="0" CC="0.0000000000000000e+00">
          <Node pos="l" depth="2" Seq="0" IVar="10" Cut="2.2175170898437500e+01" cType="0" nS="7.3770971679687500e+03" nB="6.9275532226562500e+03" nEv="1.4304650390625000e+04" nSuw="4.1000000000000000e+02" nBuw="1.3246000000000000e+04" nEvuw="1.3656000000000000e+04" sepI="2.4975308775901794e-01" sepG="4.3430477142333984e+01" res="-9.9000000000000000e+01" rms="0.0000000000000000e+00" nType="0" CC="0.0000000000000000e+00">
            <Node pos="l" depth="3" Seq="0" IVar="-1" Cut="0.0000000000000000e+00" cType="1" nS="5.8520131835937500e+03" nB="4.8308090820312500e+03" nEv="1.0682822265625000e+04" nSuw="2.7600000000000000e+02" nBuw="1.1128000000000000e+04" nEvuw="1.1404000000000000e+04" sepI="2.4771548807621002e-01" sepG="-1.0000000000000000e+00" res="-9.9000000000000000e+01" rms="0.0000000000000000e+00" nType="1" CC="0.0000000000000000e+00"/>
            <Node pos="r" depth="3" Seq="4" IVar="-1" Cut="0.0000000000000000e+00" cType="1" nS="1.5250839843750000e+03" nB="2.0967441406250000e+03" nEv="3.6218281250000000e+03" nSuw="1.3400000000000000e+02" nBuw="2.1180000000000000e+03" nEvuw="2.2520000000000000e+03" sepI="2.4377183616161346e-01" sepG="-1.0000000000000000e+00" res="-9.9000000000000000e+01" rms="0.0000000000000000e+00" nType="-1" CC="0.0000000000000000e+00"/>
          </Node>
          <Node pos="r" depth="2" Seq="2" IVar="17" Cut="1.7175523042678833e+00" cType="0" nS="3.1650280761718750e+03" nB="4.0823723144531250e+03" nEv="7.2474003906250000e+03" nSuw="2.4000000000000000e+02" nBuw="7.2560000000000000e+03" nEvuw="7.4960000000000000e+03" sepI="2.4599465727806091e-01" sepG="1.8077749252319336e+01" res="-9.9000000000000000e+01" rms="0.0000000000000000e+00" nType="0" CC="0.0000000000000000e+00">
            <Node pos="l" depth="3" Seq="2" IVar="-1" Cut="0.0000000000000000e+00" cType="1" nS="3.0547866821289062e+02" nB="1.8568760681152344e+02" nEv="4.9116625976562500e+02" nSuw="2.2000000000000000e+01" nBuw="2.0600000000000000e+02" nEvuw="2.2800000000000000e+02" sepI="2.3512929677963257e-01" sepG="-1.0000000000000000e+00" res="-9.9000000000000000e+01" rms="0.0000000000000000e+00" nType="1" CC="0.0000000000000000e+00"/>
            <Node pos="r" depth="3" Seq="6" IVar="-1" Cut="0.0000000000000000e+00" cType="1" nS="2.8595495605468750e+03" nB="3.8966845703125000e+03" nEv="6.7562343750000000e+03" nSuw="2.1800000000000000e+02" nBuw="7.0500000000000000e+03" nEvuw="7.2680000000000000e+03" sepI="2.4410882592201233e-01" sepG="-1.0000000000000000e+00" res="-9.9000000000000000e+01" rms="0.0000000000000000e+00" nType="-1" CC="0.0000000000000000e+00"/>
          </Node>
        </Node>
        <Node pos="r" depth="1" Seq="1" IVar="7" Cut="6.9187855720520020e+00" cType="1" nS="1.0394959259033203e+02" nB="3.4399887084960938e+02" nEv="4.4794848632812500e+02" nSuw="1.6000000000000000e+01" nBuw="8.3200000000000000e+02" nEvuw="8.4800000000000000e+02" sepI="1.7820656299591064e-01" sepG="1.9514789581298828e+01" res="-9.9000000000000000e+01" rms="0.0000000000000000e+00" nType="0" CC="0.0000000000000000e+00">
          <Node pos="l" depth="2" Seq="1" IVar="16" Cut="4.5008307695388794e-01" cType="0" nS="1.0394959259033203e+02" nB="1.4367312622070312e+02" nEv="2.4762271118164062e+02" nSuw="1.6000000000000000e+01" nBuw="1.7200000000000000e+02" nEvuw="1.8800000000000000e+02" sepI="2.4356639385223389e-01" sepG="1.7545429229736328e+01" res="-9.9000000000000000e+01" rms="0.0000000000000000e+00" nType="0" CC="0.0000000000000000e+00">
            <Node pos="l" depth="3" Seq="1" IVar="-1" Cut="0.0000000000000000e+00" cType="1" nS="8.1772148132324219e+01" nB="3.4652400970458984e+01" nEv="1.1642454528808594e+02" nSuw="1.1000000000000000e+01" nBuw="4.8000000000000000e+01" nEvuw="5.9000000000000000e+01" sepI="2.0904973149299622e-01" sepG="-1.0000000000000000e+00" res="-9.9000000000000000e+01" rms="0.0000000000000000e+00" nType="1" CC="0.0000000000000000e+00"/>
            <Node pos="r" depth="3" Seq="5" IVar="-1" Cut="0.0000000000000000e+00" cType="1" nS="2.2177450180053711e+01" nB="1.0902072143554688e+02" nEv="1.3119816589355469e+02" nSuw="5.0000000000000000e+00" nBuw="1.2400000000000000e+02" nEvuw="1.2900000000000000e+02" sepI="1.4046402275562286e-01" sepG="-1.0000000000000000e+00" res="-9.9000000000000000e+01" rms="0.0000000000000000e+00" nType="-1" CC="0.0000000000000000e+00"/>
          </Node>
          <Node pos="r" depth="2" Seq="3" IVar="0" Cut="1.1025026440620422e-01" cType="0" nS="0.0000000000000000e+00" nB="2.0032575988769531e+02" nEv="2.0032575988769531e+02" nSuw="0.0000000000000000e+00" nBuw="6.6000000000000000e+02" nEvuw="6.6000000000000000e+02" sepI="0.0000000000000000e+00" sepG="0.0000000000000000e+00" res="-9.9000000000000000e+01" rms="0.0000000000000000e+00" nType="-1" CC="0.0000000000000000e+00"/>
        </Node>
      </Node>
    </BinaryTree>
    <BinaryTree type="DecisionTree" boostWeight="1.7792629506035657e-01" itree="15">
      <Node pos="s" depth="0" Seq="0" IVar="12" Cut="2.1428570747375488e+00" cType="0" nS="1.0597452148437500e+04" nB="1.1402546875000000e+04" nEv="2.2000000000000000e+04" nSuw="6.6600000000000000e+02" nBuw="2.1334000000000000e+04" nEvuw="2.2000000000000000e+04" sepI="2.4966520071029663e-01" sepG="2.6813127517700195e+01" res="-9.9000000000000000e+01" rms="0.0000000000000000e+00" nType="0" CC="0.0000000000000000e+00">
        <Node pos="l" depth="1" Seq="0" IVar="9" Cut="1.4060441255569458e+00" cType="1" nS="1.0510290527343750e+03" nB="6.9939392089843750e+02" nEv="1.7504229736328125e+03" nSuw="1.0800000000000000e+02" nBuw="5.3100000000000000e+02" nEvuw="6.3900000000000000e+02" sepI="2.3991122841835022e-01" sepG="1.0890908241271973e+01" res="-9.9000000000000000e+01" rms="0.0000000000000000e+00" nType="0" CC="0.0000000000000000e+00">
          <Node pos="l" depth="2" Seq="0" IVar="-1" Cut="8.2700794935226440e-01" cType="1" nS="1.0236793823242188e+03" nB="6.2818988037109375e+02" nEv="1.6518692626953125e+03" nSuw="1.0400000000000000e+02" nBuw="4.8900000000000000e+02" nEvuw="5.9300000000000000e+02" sepI="2.3566959798336029e-01" sepG="-1.0000000000000000e+00" res="-9.9000000000000000e+01" rms="0.0000000000000000e+00" nType="1" CC="0.0000000000000000e+00"/>
          <Node pos="r" depth="2" Seq="2" IVar="-1" Cut="0.0000000000000000e+00" cType="1" nS="2.7349678039550781e+01" nB="7.1204048156738281e+01" nEv="9.8553733825683594e+01" nSuw="4.0000000000000000e+00" nBuw="4.2000000000000000e+01" nEvuw="4.6000000000000000e+01" sepI="2.0049834251403809e-01" sepG="-1.0000000000000000e+00" res="-9.9000000000000000e+01" rms="0.0000000000000000e+00" nType="-1" CC="0.0000000000000000e+00"/>
        </Node>
        <Node pos="r" depth="1" Seq="1" IVar="14" Cut="3.7451565265655518e-01" cType="0" nS="9.5464238281250000e+03" nB="1.0703153320312500e+04" nEv="2.0249576171875000e+04" nSuw="5.5800000000000000e+02" nBuw="2.0803000000000000e+04" nEvuw="2.1361000000000000e+04" sepI="2.4918422102928162e-01" sepG="2.5878841400146484e+01" res="-9.9000000000000000e+01" rms="0.0000000000000000e+00" nType="0" CC="0.0000000000000000e+00">
          <Node pos="l" depth="2" Seq="1" IVar="10" Cut="5.3242885589599609e+01" cType="0" nS="9.4713779296875000e+03" nB="1.0415305664062500e+04" nEv="1.9886683593750000e+04" nSuw="5.4700000000000000e+02" nBuw="1.9984000000000000e+04" nEvuw="2.0531000000000000e+04" sepI="2.4943676590919495e-01" sepG="1.9985330581665039e+01" res="-9.9000000000000000e+01" rms="0.0000000000000000e+00" nType="0" CC="0.0000000000000000e+00">
            <Node pos="l" depth="3" Seq="1" IVar="-1" Cut="0.0000000000000000e+00" cType="1" nS="3.5422769165039062e+02" nB="1.7624325561523438e+02" nEv="5.3047094726562500e+02" nSuw="1.0000000000000000e+01" nBuw="6.7500000000000000e+02" nEvuw="6.8500000000000000e+02" sepI="2.2185632586479187e-01" sepG="-1.0000000000000000e+00" res="-9.9000000000000000e+01" rms="0.0000000000000000e+00" nType="1" CC="0.0000000000000000e+00"/>
            <Node pos="r" depth="3" Seq="5" IVar="-1" Cut="0.0000000000000000e+00" cType="1" nS="9.1171503906250000e+03" nB="1.0239062500000000e+04" nEv="1.9356212890625000e+04" nSuw="5.3700000000000000e+02" nBuw="1.9309000000000000e+04" nEvuw="1.9846000000000000e+04" sepI="2.4916012585163116e-01" sepG="-1.0000000000000000e+00" res="-9.9000000000000000e+01" rms="0.0000000000000000e+00" nType="-1" CC="0.0000000000000000e+00"/>
          </Node>
          <Node pos="r" depth="2" Seq="3" IVar="-1" Cut="1.0561449527740479e+00" cType="0" nS="7.5045410156250000e+01" nB="2.8784753417968750e+02" nEv="3.6289294433593750e+02" nSuw="1.1000000000000000e+01" nBuw="8.1900000000000000e+02" nEvuw="8.3000000000000000e+02" sepI="1.6403238475322723e-01" sepG="-1.0000000000000000e+00" res="-9.9000000000000000e+01" rms="0.0000000000000000e+00" nType="-1" CC="0.0000000000000000e+00"/>
        </Node>
      </Node>
    </BinaryTree>
    <BinaryTree type="DecisionTree" boostWeight="1.6506347172289834e-01" itree="16">
      <Node pos="s" depth="0" Seq="0" IVar="14" Cut="3.7451565265655518e-01" cType="0" nS="1.1382850585937500e+04" nB="1.0617148437500000e+04" nEv="2.2000000000000000e+04" nSuw="6.6600000000000000e+02" nBuw="2.1334000000000000e+04" nEvuw="2.2000000000000000e+04" sepI="2.4969716370105743e-01" sepG="2.5601905822753906e+01" res="-9.9000000000000000e+01" rms="0.0000000000000000e+00" nType="0" CC="0.0000000000000000e+00">
        <Node pos="l" depth="1" Seq="0" IVar="9" Cut="1.4082403182983398e+00" cType="1" nS="1.1279862304687500e+04" nB="1.0329539062500000e+04" nEv="2.1609402343750000e+04" nSuw="6.5000000000000000e+02" nBuw="2.0502000000000000e+04" nEvuw="2.1152000000000000e+04" sepI="2.4951650202274323e-01" sepG="2.1106451034545898e+01" res="-9.9000000000000000e+01" rms="0.0000000000000000e+00" nType="0" CC="0.0000000000000000e+00">
          <Node pos="l" depth="2" Seq="0" IVar="-1" Cut="6.0351526737213135e-01" cType="1" nS="1.0844569335937500e+04" nB="9.6440058593750000e+03" nEv="2.0488574218750000e+04" nSuw="6.1100000000000000e+02" nBuw="1.9644000000000000e+04" nEvuw="2.0255000000000000e+04" sepI="2.4914160370826721e-01" sepG="-1.0000000000000000e+00" res="-9.9000000000000000e+01" rms="0.0000000000000000e+00" nType="1" CC="0.0000000000000000e+00"/>
          <Node pos="r" depth="2" Seq="2" IVar="16" Cut="3.4851083159446716e-01" cType="0" nS="4.3529348754882812e+02" nB="6.8553320312500000e+02" nEv="1.1208266601562500e+03" nSuw="3.9000000000000000e+01" nBuw="8.5800000000000000e+02" nEvuw="8.9700000000000000e+02" sepI="2.3753835260868073e-01" sepG="1.8659568786621094e+01" res="-9.9000000000000000e+01" rms="0.0000000000000000e+00" nType="0" CC="0.0000000000000000e+00">
            <Node pos="l" depth="3" Seq="2" IVar="-1" Cut="0.0000000000000000e+00" cType="1" nS="2.2893487548828125e+02" nB="1.8117919921875000e+02" nEv="4.1011407470703125e+02" nSuw="1.8000000000000000e+01" nBuw="1.8500000000000000e+02" nEvuw="2.0300000000000000e+02" sepI="2.4661014974117279e-01" sepG="-1.0000000000000000e+00" res="-9.9000000000000000e+01" rms="0.0000000000000000e+00" nType="1" CC="0.0000000000000000e+00"/>
            <Node pos="r" depth="3" Seq="6" IVar="-1" Cut="0.0000000000000000e+00" cType="1" nS="2.0635861206054688e+02" nB="5.0435397338867188e+02" nEv="7.1071258544921875e+02" nSuw="2.1000000000000000e+01" nBuw="6.7300000000000000e+02" nEvuw="6.9400000000000000e+02" sepI="2.0604877173900604e-01" sepG="-1.0000000000000000e+00" res="-9.9000000000000000e+01" rms="0.0000000000000000e+00" nType="-1" CC="0.0000000000000000e+00"/>
          </Node>
        </Node>
        <Node pos="r" depth="1" Seq="1" IVar="7" Cut="6.9187855720520020e+00" cType="1" nS="1.0298770141601562e+02" nB="2.8761019897460938e+02" nEv="3.9059790039062500e+02" nSuw="1.6000000000000000e+01" nBuw="8.3200000000000000e+02" nEvuw="8.4800000000000000e+02" sepI="1.9414661824703217e-01" sepG="1.9162626266479492e+01" res="-9.9000000000000000e+01" rms="0.0000000000000000e+00" nType="0" CC="0.0000000000000000e+00">
          <Node pos="l" depth="2" Seq="1" IVar="16" Cut="4.5008307695388794e-01" cType="0" nS="1.0298770141601562e+02" nB="1.2600924682617188e+02" nEv="2.2899694824218750e+02" nSuw="1.6000000000000000e+01" nBuw="1.7200000000000000e+02" nEvuw="1.8800000000000000e+02" sepI="2.4747332930564880e-01" sepG="1.1727133750915527e+01" res="-9.9000000000000000e+01" rms="0.0000000000000000e+00" nType="0" CC="0.0000000000000000e+00">
            <Node pos="l" depth="3" Seq="1" IVar="-1" Cut="0.0000000000000000e+00" cType="1" nS="7.7342346191406250e+01" nB="3.7017635345458984e+01" nEv="1.1435997772216797e+02" nSuw="1.1000000000000000e+01" nBuw="4.8000000000000000e+01" nEvuw="5.9000000000000000e+01" sepI="2.1891617774963379e-01" sepG="-1.0000000000000000e+00" res="-9.9000000000000000e+01" rms="0.0000000000000000e+00" nType="1" CC="0.0000000000000000e+00"/>
            <Node pos="r" depth="3" Seq="5" IVar="-1" Cut="0.0000000000000000e+00" cType="1" nS="2.5645357131958008e+01" nB="8.8991607666015625e+01" nEv="1.1463697052001953e+02" nSuw="5.0000000000000000e+00" nBuw="1.2400000000000000e+02" nEvuw="1.2900000000000000e+02" sepI="1.7366345226764679e-01" sepG="-1.0000000000000000e+00" res="-9.9000000000000000e+01" rms="0.0000000000000000e+00" nType="-1" CC="0.0000000000000000e+00"/>
          </Node>
          <Node pos="r" depth="2" Seq="3" IVar="0" Cut="1.1025026440620422e-01" cType="0" nS="0.0000000000000000e+00" nB="1.6160095214843750e+02" nEv="1.6160095214843750e+02" nSuw="0.0000000000000000e+00" nBuw="6.6000000000000000e+02" nEvuw="6.6000000000000000e+02" sepI="0.0000000000000000e+00" sepG="0.0000000000000000e+00" res="-9.9000000000000000e+01" rms="0.0000000000000000e+00" nType="-1" CC="0.0000000000000000e+00"/>
        </Node>
      </Node>
    </BinaryTree>
    <BinaryTree type="DecisionTree" boostWeight="1.8826562636314981e-01" itree="17">
      <Node pos="s" depth="0" Seq="0" IVar="14" Cut="3.7451565265655518e-01" cType="0" nS="1.0555312500000000e+04" nB="1.1444687500000000e+04" nEv="2.2000000000000000e+04" nSuw="6.6600000000000000e+02" nBuw="2.1334000000000000e+04" nEvuw="2.2000000000000000e+04" sepI="2.4959142506122589e-01" sepG="1.6980165481567383e+01" res="-9.9000000000000000e+01" rms="0.0000000000000000e+00" nType="0" CC="0.0000000000000000e+00">
        <Node pos="l" depth="1" Seq="0" IVar="9" Cut="6.3372242450714111e-01" cType="1" nS="1.0455907226562500e+04" nB="1.1172820312500000e+04" nEv="2.1628728515625000e+04" nSuw="6.5000000000000000e+02" nBuw="2.0502000000000000e+04" nEvuw="2.1152000000000000e+04" sepI="2.4972532689571381e-01" sepG="1.6640878677368164e+01" res="-9.9000000000000000e+01" rms="0.0000000000000000e+00" nType="0" CC="0.0000000000000000e+00">
          <Node pos="l" depth="2" Seq="0" IVar="11" Cut="8.5714286565780640e-01" cType="1" nS="3.6521755371093750e+03" nB="3.3225148925781250e+03" nEv="6.9746904296875000e+03" nSuw="1.5900000000000000e+02" nBuw="9.0580000000000000e+03" nEvuw="9.2170000000000000e+03" sepI="2.4944150447845459e-01" sepG="3.3547328948974609e+01" res="-9.9000000000000000e+01" rms="0.0000000000000000e+00" nType="0" CC="0.0000000000000000e+00">
            <Node pos="l" depth="3" Seq="0" IVar="-1" Cut="0.0000000000000000e+00" cType="1" nS="8.0849444580078125e+02" nB="3.8734216308593750e+02" nEv="1.1958366699218750e+03" nSuw="4.1000000000000000e+01" nBuw="6.4300000000000000e+02" nEvuw="6.8400000000000000e+02" sepI="2.1899193525314331e-01" sepG="-1.0000000000000000e+00" res="-9.9000000000000000e+01" rms="0.0000000000000000e+00" nType="1" CC="0.0000000000000000e+00"/>
            <Node pos="r" depth="3" Seq="4" IVar="-1" Cut="0.0000000000000000e+00" cType="1" nS="2.8436811523437500e+03" nB="2.9351728515625000e+03" nEv="5.7788540039062500e+03" nSuw="1.1800000000000000e+02" nBuw="8.4150000000000000e+03" nEvuw="8.5330000000000000e+03" sepI="2.4993734061717987e-01" sepG="-1.0000000000000000e+00" res="-9.9000000000000000e+01" rms="0.0000000000000000e+00" nType="-1" CC="0.0000000000000000e+00"/>
          </Node>
          <Node pos="r" depth="2" Seq="2" IVar="2" Cut="-9.0476191043853760e-01" cType="1" nS="6.8037319335937500e+03" nB="7.8503056640625000e+03" nEv="1.4654037109375000e+04" nSuw="4.9100000000000000e+02" nBuw="1.1444000000000000e+04" nEvuw="1.1935000000000000e+04" sepI="2.4872483313083649e-01" sepG="2.2905391693115234e+01" res="-9.9000000000000000e+01" rms="0.0000000000000000e+00" nType="0" CC="0.0000000000000000e+00">
            <Node pos="l" depth="3" Seq="2" IVar="-1" Cut="0.0000000000000000e+00" cType="1" nS="3.0869829101562500e+03" nB="2.9476970214843750e+03" nEv="6.0346796875000000e+03" nSuw="2.1200000000000000e+02" nBuw="5.2930000000000000e+03" nEvuw="5.5050000000000000e+03" sepI="2.4986681342124939e-01" sepG="-1.0000000000000000e+00" res="-9.9000000000000000e+01" rms="0.0000000000000000e+00" nType="1" CC="0.0000000000000000e+00"/>
            <Node pos="r" depth="3" Seq="6" IVar="-1" Cut="0.0000000000000000e+00" cType="1" nS="3.7167487792968750e+03" nB="4.9026083984375000e+03" nEv="8.6193574218750000e+03" nSuw="2.7900000000000000e+02" nBuw="6.1510000000000000e+03" nEvuw="6.4300000000000000e+03" sepI="2.4526786804199219e-01" sepG="-1.0000000000000000e+00" res="-9.9000000000000000e+01" rms="0.0000000000000000e+00" nType="-1" CC="0.0000000000000000e+00"/>
          </Node>
        </Node>
        <Node pos="r" depth="1" Seq="1" IVar="7" Cut="6.9187855720520020e+00" cType="1" nS="9.9404754638671875e+01" nB="2.7186685180664062e+02" nEv="3.7127160644531250e+02" nSuw="1.6000000000000000e+01" nBuw="8.3200000000000000e+02" nEvuw="8.4800000000000000e+02" sepI="1.9605591893196106e-01" sepG="1.7902587890625000e+01" res="-9.9000000000000000e+01" rms="0.0000000000000000e+00" nType="0" CC="0.0000000000000000e+00">
          <Node pos="l" depth="2" Seq="1" IVar="0" Cut="2.2136509418487549e-01" cType="0" nS="9.9404754638671875e+01" nB="1.2256050109863281e+02" nEv="2.2196525573730469e+02" nSuw="1.6000000000000000e+01" nBuw="1.7200000000000000e+02" nEvuw="1.8800000000000000e+02" sepI="2.4727925658226013e-01" sepG="1.0289568901062012e+01" res="-9.9000000000000000e+01" rms="0.0000000000000000e+00" nType="0" CC="0.0000000000000000e+00">
            <Node pos="l" depth="3" Seq="1" IVar="-1" Cut="0.0000000000000000e+00" cType="1" nS="9.1847343444824219e+01" nB="6.4559867858886719e+01" nEv="1.5640721130371094e+02" nSuw="1.5000000000000000e+01" nBuw="9.1000000000000000e+01" nEvuw="1.0600000000000000e+02" sepI="2.4239054322242737e-01" sepG="-1.0000000000000000e+00" res="-9.9000000000000000e+01" rms="0.0000000000000000e+00" nType="1" CC="0.0000000000000000e+00"/>
            <Node pos="r" depth="3" Seq="5" IVar="-1" Cut="0.0000000000000000e+00" cType="1" nS="7.5574054718017578e+00" nB="5.8000629425048828e+01" nEv="6.5558036804199219e+01" nSuw="1.0000000000000000e+00" nBuw="8.1000000000000000e+01" nEvuw="8.2000000000000000e+01" sepI="1.0198905318975449e-01" sepG="-1.0000000000000000e+00" res="-9.9000000000000000e+01" rms="0.0000000000000000e+00" nType="-1" CC="0.0000000000000000e+00"/>
          </Node>
          <Node pos="r" depth="2" Seq="3" IVar="0" Cut="1.1025026440620422e-01" cType="0" nS="0.0000000000000000e+00" nB="1.4930633544921875e+02" nEv="1.4930633544921875e+02" nSuw="0.0000000000000000e+00" nBuw="6.6000000000000000e+02" nEvuw="6.6000000000000000e+02" sepI="0.0000000000000000e+00" sepG="0.0000000000000000e+00" res="-9.9000000000000000e+01" rms="0.0000000000000000e+00" nType="-1" CC="0.0000000000000000e+00"/>
        </Node>
      </Node>
    </BinaryTree>
    <BinaryTree type="DecisionTree" boostWeight="2.7621981113184363e-01" itree="18">
      <Node pos="s" depth="0" Seq="0" IVar="9" Cut="6.3372242450714111e-01" cType="1" nS="1.0893481445312500e+04" nB="1.1106517578125000e+04" nEv="2.2000000000000000e+04" nSuw="6.6600000000000000e+02" nBuw="2.1334000000000000e+04" nEvuw="2.2000000000000000e+04" sepI="2.4997656047344208e-01" sepG="3.2618343353271484e+01" res="-9.9000000000000000e+01" rms="0.0000000000000000e+00" nType="0" CC="0.0000000000000000e+00">
        <Node pos="l" depth="1" Seq="0" IVar="8" Cut="4.8337596654891968e-01" cType="0" nS="3.8944821777343750e+03" nB="3.1718122558593750e+03" nEv="7.0662944335937500e+03" nSuw="1.6300000000000000e+02" nBuw="9.3470000000000000e+03" nEvuw="9.5100000000000000e+03" sepI="2.4738520383834839e-01" sepG="2.9789649963378906e+01" res="-9.9000000000000000e+01" rms="0.0000000000000000e+00" nType="0" CC="0.0000000000000000e+00">
          <Node pos="l" depth="2" Seq="0" IVar="8" Cut="5.8722746372222900e-01" cType="1" nS="9.2407104492187500e+02" nB="4.2538116455078125e+02" nEv="1.3494521484375000e+03" nSuw="3.1000000000000000e+01" nBuw="1.0340000000000000e+03" nEvuw="1.0650000000000000e+03" sepI="2.1585822105407715e-01" sepG="3.3811386108398438e+01" res="-9.9000000000000000e+01" rms="0.0000000000000000e+00" nType="0" CC="0.0000000000000000e+00">
            <Node pos="l" depth="3" Seq="0" IVar="-1" Cut="0.0000000000000000e+00" cType="1" nS="8.2016625976562500e+02" nB="2.5141418457031250e+02" nEv="1.0715804443359375e+03" nSuw="2.4000000000000000e+01" nBuw="7.0000000000000000e+02" nEvuw="7.2400000000000000e+02" sepI="1.7957344651222229e-01" sepG="-1.0000000000000000e+00" res="-9.9000000000000000e+01" rms="0.0000000000000000e+00" nType="1" CC="0.0000000000000000e+00"/>
            <Node pos="r" depth="3" Seq="4" IVar="-1" Cut="0.0000000000000000e+00" cType="1" nS="1.0390475463867188e+02" nB="1.7396699523925781e+02" nEv="2.7787176513671875e+02" nSuw="7.0000000000000000e+00" nBuw="3.3400000000000000e+02" nEvuw="3.4100000000000000e+02" sepI="2.3410651087760925e-01" sepG="-1.0000000000000000e+00" res="-9.9000000000000000e+01" rms="0.0000000000000000e+00" nType="-1" CC="0.0000000000000000e+00"/>
          </Node>
          <Node pos="r" depth="2" Seq="2" IVar="11" Cut="9.0476191043853760e-01" cType="1" nS="2.9704111328125000e+03" nB="2.7464309082031250e+03" nEv="5.7168422851562500e+03" nSuw="1.3200000000000000e+02" nBuw="8.3130000000000000e+03" nEvuw="8.4450000000000000e+03" sepI="2.4961625039577484e-01" sepG="3.4346672058105469e+01" res="-9.9000000000000000e+01" rms="0.0000000000000000e+00" nType="0" CC="0.0000000000000000e+00">
            <Node pos="l" depth="3" Seq="2" IVar="-1" Cut="0.0000000000000000e+00" cType="1" nS="1.0770257568359375e+03" nB="6.0704980468750000e+02" nEv="1.6840755615234375e+03" nSuw="5.1000000000000000e+01" nBuw="1.0180000000000000e+03" nEvuw="1.0690000000000000e+03" sepI="2.3052990436553955e-01" sepG="-1.0000000000000000e+00" res="-9.9000000000000000e+01" rms="0.0000000000000000e+00" nType="1" CC="0.0000000000000000e+00"/>
            <Node pos="r" depth="3" Seq="6" IVar="-1" Cut="0.0000000000000000e+00" cType="1" nS="1.8933854980468750e+03" nB="2.1393811035156250e+03" nEv="4.0327666015625000e+03" nSuw="8.1000000000000000e+01" nBuw="7.2950000000000000e+03" nEvuw="7.3760000000000000e+03" sepI="2.4906978011131287e-01" sepG="-1.0000000000000000e+00" res="-9.9000000000000000e+01" rms="0.0000000000000000e+00" nType="-1" CC="0.0000000000000000e+00"/>
          </Node>
        </Node>
        <Node pos="r" depth="1" Seq="1" IVar="9" Cut="1.1568108797073364e+00" cType="0" nS="6.9989995117187500e+03" nB="7.9347055664062500e+03" nEv="1.4933705078125000e+04" nSuw="5.0300000000000000e+02" nBuw="1.1987000000000000e+04" nEvuw="1.2490000000000000e+04" sepI="2.4901852011680603e-01" sepG="2.2688673019409180e+01" res="-9.9000000000000000e+01" rms="0.0000000000000000e+00" nType="0" CC="0.0000000000000000e+00">
          <Node pos="l" depth="2" Seq="1" IVar="5" Cut="5.5714287757873535e+00" cType="0" nS="3.5676750488281250e+03" nB="3.4248989257812500e+03" nEv="6.9925742187500000e+03" nSuw="2.5800000000000000e+02" nBuw="4.4580000000000000e+03" nEvuw="4.7160000000000000e+03" sepI="2.4989576637744904e-01" sepG="2.8605266571044922e+01" res="-9.9000000000000000e+01" rms="0.0000000000000000e+00" nType="0" CC="0.0000000000000000e+00">
            <Node pos="l" depth="3" Seq="1" IVar="-1" Cut="0.0000000000000000e+00" cType="1" nS="3.4249941406250000e+03" nB="3.0606174316406250e+03" nEv="6.4856113281250000e+03" nSuw="2.4200000000000000e+02" nBuw="4.0330000000000000e+03" nEvuw="4.2750000000000000e+03" sepI="2.4921087920665741e-01" sepG="-1.0000000000000000e+00" res="-9.9000000000000000e+01" rms="0.0000000000000000e+00" nType="1" CC="0.0000000000000000e+00"/>
            <Node pos="r" depth="3" Seq="5" IVar="-1" Cut="0.0000000000000000e+00" cType="1" nS="1.4268098449707031e+02" nB="3.6428152465820312e+02" nEv="5.0696252441406250e+02" nSuw="1.6000000000000000e+01" nBuw="4.2500000000000000e+02" nEvuw="4.4100000000000000e+02" sepI="2.0223277807235718e-01" sepG="-1.0000000000000000e+00" res="-9.9000000000000000e+01" rms="0.0000000000000000e+00" nType="-1" CC="0.0000000000000000e+00"/>
          </Node>
          <Node pos="r" depth="2" Seq="3" IVar="-1" Cut="1.0039579868316650e+00" cType="1" nS="3.4313244628906250e+03" nB="4.5098066406250000e+03" nEv="7.9411308593750000e+03" nSuw="2.4500000000000000e+02" nBuw="7.5290000000000000e+03" nEvuw="7.7740000000000000e+03" sepI="2.4538893997669220e-01" sepG="-1.0000000000000000e+00" res="-9.9000000000000000e+01" rms="0.0000000000000000e+00" nType="-1" CC="0.0000000000000000e+00"/>
        </Node>
      </Node>
    </BinaryTree>
    <BinaryTree type="DecisionTree" boostWeight="1.7562243145870882e-01" itree="19">
      <Node pos="s" depth="0" Seq="0" IVar="9" Cut="6.3372242450714111e-01" cType="1" nS="1.1137436523437500e+04" nB="1.0862563476562500e+04" nEv="2.2000000000000000e+04" nSuw="6.6600000000000000e+02" nBuw="2.1334000000000000e+04" nEvuw="2.2000000000000000e+04" sepI="2.4996097385883331e-01" sepG="3.9285007476806641e+01" res="-9.9000000000000000e+01" rms="0.0000000000000000e+00" nType="0" CC="0.0000000000000000e+00">
        <Node pos="l" depth="1" Seq="0" IVar="4" Cut="2.4331014633178711e+01" cType="0" nS="3.9832414550781250e+03" nB="3.0291992187500000e+03" nEv="7.0124409179687500e+03" nSuw="1.6300000000000000e+02" nBuw="9.3470000000000000e+03" nEvuw="9.5100000000000000e+03" sepI="2.4537260830402374e-01" sepG="2.8805412292480469e+01" res="-9.9000000000000000e+01" rms="0.0000000000000000e+00" nType="0" CC="0.0000000000000000e+00">
          <Node pos="l" depth="2" Seq="0" IVar="10" Cut="3.5630531311035156e+01" cType="1" nS="4.7913049316406250e+02" nB="1.3990217590332031e+02" nEv="6.1903265380859375e+02" nSuw="2.1000000000000000e+01" nBuw="2.5800000000000000e+02" nEvuw="2.7900000000000000e+02" sepI="1.7492470145225525e-01" sepG="1.4227058410644531e+01" res="-9.9000000000000000e+01" rms="0.0000000000000000e+00" nType="0" CC="0.0000000000000000e+00">
            <Node pos="l" depth="3" Seq="0" IVar="-1" Cut="0.0000000000000000e+00" cType="1" nS="4.7913049316406250e+02" nB="1.1703117370605469e+02" nEv="5.9616168212890625e+02" nSuw="2.1000000000000000e+01" nBuw="1.5300000000000000e+02" nEvuw="1.7400000000000000e+02" sepI="1.5777103602886200e-01" sepG="-1.0000000000000000e+00" res="-9.9000000000000000e+01" rms="0.0000000000000000e+00" nType="1" CC="0.0000000000000000e+00"/>
            <Node pos="r" depth="3" Seq="4" IVar="-1" Cut="0.0000000000000000e+00" cType="1" nS="0.0000000000000000e+00" nB="2.2870998382568359e+01" nEv="2.2870998382568359e+01" nSuw="0.0000000000000000e+00" nBuw="1.0500000000000000e+02" nEvuw="1.0500000000000000e+02" sepI="0.0000000000000000e+00" sepG="-1.0000000000000000e+00" res="-9.9000000000000000e+01" rms="0.0000000000000000e+00" nType="-1" CC="0.0000000000000000e+00"/>
          </Node>
